{"learner":{"attributes":{"best_iteration":"238","best_score":"8.887883738214319"},"feature_names":["Returns","Log_Returns","SMA_3","EMA_3","SMA_5","EMA_5","SMA_10","EMA_10","SMA_20","EMA_20","SMA_50","EMA_50","SMA_100","EMA_100","SMA_200","EMA_200","SMA_5_20_Cross","SMA_20_50_Cross","SMA_50_200_Cross","SMA_5_200_Cross","Price_SMA20_Ratio","Price_EMA20_Ratio","Price_SMA50_Ratio","Price_EMA50_Ratio","Price_SMA200_Ratio","Price_EMA200_Ratio","RSI_5","RSI_14","RSI_21","MACD","MACD_Signal","MACD_Diff","MACD_Histogram","Stoch_K","Stoch_D","ROC_5","ROC_10","ROC_20","Momentum_1","Momentum_3","Momentum_5","Momentum_10","Momentum_20","Volatility_5","Volatility_10","Volatility_20","Volatility_60","ATR","ATR_Percent","BB_20_Upper","BB_20_Lower","BB_20_Mid","BB_20_Width","BB_20_Position","BB_20_Squeeze","BB_50_Upper","BB_50_Lower","BB_50_Mid","BB_50_Width","BB_50_Position","BB_50_Squeeze","Volume_SMA_5","Volume_SMA_20","Volume_Ratio","Volume_Trend","OBV","OBV_SMA","OBV_Signal","PVT","PVT_SMA","High_Low_Range","Close_Position","Open_Close_Ratio","High_Close_Ratio","Low_Close_Ratio","ADX","SuperTrend","Close_Lag_1","Return_Lag_1","RSI_Lag_1","Close_Lag_2","Return_Lag_2","RSI_Lag_2","Close_Lag_3","Return_Lag_3","RSI_Lag_3","Close_Lag_5","Return_Lag_5","RSI_Lag_5","Close_Lag_7","Return_Lag_7","RSI_Lag_7","Close_Lag_10","Return_Lag_10","RSI_Lag_10","Close_Lag_20","Return_Lag_20","RSI_Lag_20","Close_Lag_30","Return_Lag_30","RSI_Lag_30","Cumulative_Return_5","Cumulative_Return_10","Cumulative_Return_20","Cumulative_Return_60","Bullish_Signal","Bearish_Signal","Volume_Price_Trend","High_52W","Low_52W","Position_52W","Skewness_20","Kurtosis_20","Skewness_60","Kurtosis_60"],"feature_types":["float","float","float","float","float","float","float","float","float","float","float","float","float","float","float","float","float","float","float","float","float","float","float","float","float","float","float","float","float","float","float","float","float","float","float","float","float","float","float","float","float","float","float","float","float","float","float","float","float","float","float","float","float","float","float","float","float","float","float","float","float","float","float","float","float","float","float","float","float","float","float","float","float","float","float","float","float","float","float","float","float","float","float","float","float","float","float","float","float","float","float","float","float","float","float","float","float","float","float","float","float","float","float","float","float","float","float","float","float","float","float","float","float","float","float"],"gradient_booster":{"model":{"gbtree_model_param":{"num_parallel_tree":"1","num_trees":"339"},"iteration_indptr":[0,1,2,3,4,5,6,7,8,9,10,11,12,13,14,15,16,17,18,19,20,21,22,23,24,25,26,27,28,29,30,31,32,33,34,35,36,37,38,39,40,41,42,43,44,45,46,47,48,49,50,51,52,53,54,55,56,57,58,59,60,61,62,63,64,65,66,67,68,69,70,71,72,73,74,75,76,77,78,79,80,81,82,83,84,85,86,87,88,89,90,91,92,93,94,95,96,97,98,99,100,101,102,103,104,105,106,107,108,109,110,111,112,113,114,115,116,117,118,119,120,121,122,123,124,125,126,127,128,129,130,131,132,133,134,135,136,137,138,139,140,141,142,143,144,145,146,147,148,149,150,151,152,153,154,155,156,157,158,159,160,161,162,163,164,165,166,167,168,169,170,171,172,173,174,175,176,177,178,179,180,181,182,183,184,185,186,187,188,189,190,191,192,193,194,195,196,197,198,199,200,201,202,203,204,205,206,207,208,209,210,211,212,213,214,215,216,217,218,219,220,221,222,223,224,225,226,227,228,229,230,231,232,233,234,235,236,237,238,239,240,241,242,243,244,245,246,247,248,249,250,251,252,253,254,255,256,257,258,259,260,261,262,263,264,265,266,267,268,269,270,271,272,273,274,275,276,277,278,279,280,281,282,283,284,285,286,287,288,289,290,291,292,293,294,295,296,297,298,299,300,301,302,303,304,305,306,307,308,309,310,311,312,313,314,315,316,317,318,319,320,321,322,323,324,325,326,327,328,329,330,331,332,333,334,335,336,337,338,339],"tree_info":[0,0,0,0,0,0,0,0,0,0,0,0,0,0,0,0,0,0,0,0,0,0,0,0,0,0,0,0,0,0,0,0,0,0,0,0,0,0,0,0,0,0,0,0,0,0,0,0,0,0,0,0,0,0,0,0,0,0,0,0,0,0,0,0,0,0,0,0,0,0,0,0,0,0,0,0,0,0,0,0,0,0,0,0,0,0,0,0,0,0,0,0,0,0,0,0,0,0,0,0,0,0,0,0,0,0,0,0,0,0,0,0,0,0,0,0,0,0,0,0,0,0,0,0,0,0,0,0,0,0,0,0,0,0,0,0,0,0,0,0,0,0,0,0,0,0,0,0,0,0,0,0,0,0,0,0,0,0,0,0,0,0,0,0,0,0,0,0,0,0,0,0,0,0,0,0,0,0,0,0,0,0,0,0,0,0,0,0,0,0,0,0,0,0,0,0,0,0,0,0,0,0,0,0,0,0,0,0,0,0,0,0,0,0,0,0,0,0,0,0,0,0,0,0,0,0,0,0,0,0,0,0,0,0,0,0,0,0,0,0,0,0,0,0,0,0,0,0,0,0,0,0,0,0,0,0,0,0,0,0,0,0,0,0,0,0,0,0,0,0,0,0,0,0,0,0,0,0,0,0,0,0,0,0,0,0,0,0,0,0,0,0,0,0,0,0,0,0,0,0,0,0,0,0,0,0,0,0,0,0,0,0,0,0,0,0,0,0,0,0,0,0,0,0,0,0,0,0,0,0,0,0,0,0,0,0,0,0,0],"trees":[{"base_weights":[-1.4288366E-1,-3.7385174E1,5.8794712E1,-5.466357E1,-1.3933556E1,3.989465E1,1.27217316E2,-6.3185352E1,-4.597149E1,-2.1823912E1,2.4377196E-1,2.3975582E1,6.559296E1,1.0829261E2,3.791444E0,-1.6375138E0,-1.4921259E0,-1.2306488E0,-4.165527E1,-2.916011E1,-1.7008066E1,-4.0165634E0,6.2204885E0,1.8991896E1,3.5439247E1,5.261426E1,7.248452E1,1.9432405E0,1.1213015E2,-1.081455E0,-9.4227475E-1,-7.7767175E-1,-6.1164343E-1,-4.9341288E-1,-1.5293303E1,-8.402454E0,-1.6506864E0,-3.119788E-1,6.8198013E0,1.34531145E1,2.0928688E1,9.794733E-1,2.90116E1,5.47811E1,4.111018E1,1.6605259E0,1.8949016E0,2.5149858E0,2.9489639E0,-1.6909613E1,-1.2075042E1,-7.064393E0,-4.0523553E-1,3.2088715E-1,-6.062482E0,3.2608716E0,9.833873E0,7.443481E0,1.4540978E1,1.9241497E1,2.4343206E1,2.6512768E1,8.6281294E-1,1.3982624E0,9.9055666E-1,2.9427108E-1,1.0455928E0,-2.6244098E-1,-4.344367E-1,-3.2623893E-1,-2.335681E-1,-1.980437E-1,-6.8850234E-2,-2.2407632E-2,1.2366521E-1,-3.0018497E-1,-9.003608E-2,4.882257E-2,3.212905E-1,2.1036075E-1,3.8178253E-1,5.933535E-2,2.4147847E-1,3.7448367E-1,1.792392E-1,2.7919683E-1,4.938643E-1,6.443308E-1,3.7765142E-1,5.9164107E-1,8.2981455E-1],"categories":[],"categories_nodes":[],"categories_segments":[],"categories_sizes":[],"default_left":[0,0,0,0,0,0,0,0,0,0,0,0,0,0,0,0,0,0,0,0,0,0,0,0,0,0,0,0,0,0,0,0,0,0,0,0,0,0,0,0,0,0,0,0,0,0,0,0,0,0,0,0,0,0,0,0,0,0,0,0,0,0,0,0,0,0,0,0,0,0,0,0,0,0,0,0,0,0,0,0,0,0,0,0,0,0,0,0,0,0,0],"id":0,"left_children":[1,3,5,7,9,11,13,15,17,19,21,23,25,27,-1,-1,-1,-1,29,31,33,35,37,39,41,43,45,-1,47,-1,-1,-1,-1,-1,49,51,53,-1,55,57,59,-1,61,63,65,-1,-1,-1,-1,67,69,71,-1,73,75,77,79,81,83,85,87,89,-1,-1,-1,-1,-1,-1,-1,-1,-1,-1,-1,-1,-1,-1,-1,-1,-1,-1,-1,-1,-1,-1,-1,-1,-1,-1,-1,-1,-1],"loss_changes":[8.280733E6,9.3609175E5,1.884901E6,9.616425E4,1.0984978E5,4.6740925E5,1.32719E5,2.20025E3,7.583125E3,2.1852438E4,8.97957E3,3.991272E4,3.600725E4,1.408075E4,0E0,0E0,0E0,0E0,4.72375E2,1.6204219E3,1.5214922E3,2.1163406E3,1.7087349E3,5.0659375E3,4.1753125E3,1.9804062E3,1.557125E3,0E0,1.00425E3,0E0,0E0,0E0,0E0,0E0,1.0556328E3,6.3981104E2,1.1786641E3,0E0,1.495667E3,7.509492E2,1.69775E3,0E0,3.4357812E2,3.7740625E2,1.4526562E2,0E0,0E0,0E0,0E0,3.0214062E2,1.0502246E2,2.060852E2,0E0,5.349181E2,5.6447986E2,8.06044E2,4.710044E2,2.169248E2,2.5117383E2,8.2939844E2,1.2118906E3,4.633828E2,0E0,0E0,0E0,0E0,0E0,0E0,0E0,0E0,0E0,0E0,0E0,0E0,0E0,0E0,0E0,0E0,0E0,0E0,0E0,0E0,0E0,0E0,0E0,0E0,0E0,0E0,0E0,0E0,0E0],"parents":[2147483647,0,0,1,1,2,2,3,3,4,4,5,5,6,6,7,7,8,8,9,9,10,10,11,11,12,12,13,13,18,18,19,19,20,20,21,21,22,22,23,23,24,24,25,25,26,26,28,28,34,34,35,35,36,36,38,38,39,39,40,40,42,42,43,43,44,44,49,49,50,50,51,51,53,53,54,54,55,55,56,56,57,57,58,58,59,59,60,60,61,61],"right_children":[2,4,6,8,10,12,14,16,18,20,22,24,26,28,-1,-1,-1,-1,30,32,34,36,38,40,42,44,46,-1,48,-1,-1,-1,-1,-1,50,52,54,-1,56,58,60,-1,62,64,66,-1,-1,-1,-1,68,70,72,-1,74,76,78,80,82,84,86,88,90,-1,-1,-1,-1,-1,-1,-1,-1,-1,-1,-1,-1,-1,-1,-1,-1,-1,-1,-1,-1,-1,-1,-1,-1,-1,-1,-1,-1,-1],"split_conditions":[1.0101836E-1,-7.1953213E-1,1.5123867E0,-1.0957851E0,-2.8778526E-1,7.635157E-1,2.3492174E0,-1.2318484E0,-9.268567E-1,-5.1379544E-1,-5.507042E-2,4.6731406E-1,1.0431261E0,-5.394458E-1,3.791444E0,-1.6375138E0,-1.4921259E0,-1.2306488E0,-8.418606E-1,-5.718023E-1,-4.1231862E-1,-1.8204924E-1,-3.270816E-1,1.934029E-1,5.499581E-1,2.96042E-1,-1.05132505E-1,1.9432405E0,1.9147663E0,-1.081455E0,-9.4227475E-1,-7.7767175E-1,-6.1164343E-1,-4.9341288E-1,-4.5690767E-2,3.030927E-1,2.5561717E-1,-3.119788E-1,-1.7015515E-1,-6.5165687E-1,5.089383E-1,9.794733E-1,6.6691E-1,5.3522E-1,6.2340283E-1,1.6605259E0,1.8949016E0,2.5149858E0,2.9489639E0,-1.5256611E0,-4.228396E-1,6.510629E-1,-4.0523553E-1,-5.5334372E-3,-4.533057E-2,5.548672E-1,1.369773E-1,1.9964845E-1,1.1795739E0,-5.3302264E-1,1.3581508E-2,6.40106E-1,8.6281294E-1,1.3982624E0,9.9055666E-1,2.9427108E-1,1.0455928E0,-2.6244098E-1,-4.344367E-1,-3.2623893E-1,-2.335681E-1,-1.980437E-1,-6.8850234E-2,-2.2407632E-2,1.2366521E-1,-3.0018497E-1,-9.003608E-2,4.882257E-2,3.212905E-1,2.1036075E-1,3.8178253E-1,5.933535E-2,2.4147847E-1,3.7448367E-1,1.792392E-1,2.7919683E-1,4.938643E-1,6.443308E-1,3.7765142E-1,5.9164107E-1,8.2981455E-1],"split_indices":[2,76,56,2,3,76,77,2,76,5,2,2,76,114,0,0,0,0,76,114,3,3,12,76,13,46,22,0,10,0,0,0,0,0,104,112,60,0,85,37,40,0,5,60,2,0,0,0,0,21,15,64,0,14,9,15,60,9,64,61,114,31,0,0,0,0,0,0,0,0,0,0,0,0,0,0,0,0,0,0,0,0,0,0,0,0,0,0,0,0,0],"split_type":[0,0,0,0,0,0,0,0,0,0,0,0,0,0,0,0,0,0,0,0,0,0,0,0,0,0,0,0,0,0,0,0,0,0,0,0,0,0,0,0,0,0,0,0,0,0,0,0,0,0,0,0,0,0,0,0,0,0,0,0,0,0,0,0,0,0,0,0,0,0,0,0,0,0,0,0,0,0,0,0,0,0,0,0,0,0,0,0,0,0,0],"sum_hessian":[3.771E3,2.311E3,1.46E3,1.33E3,9.81E2,1.145E3,3.15E2,6.69E2,6.61E2,6.3E2,3.51E2,7.08E2,4.37E2,1.8E2,1.35E2,3.94E2,2.75E2,3.72E2,2.89E2,2.48E2,3.82E2,2.05E2,1.46E2,4.95E2,2.13E2,1.54E2,2.83E2,2.2E1,1.58E2,2E2,8.9E1,1.72E2,7.6E1,1.44E2,2.38E2,7.1E1,1.34E2,4E0,1.42E2,1.3E2,3.65E2,1.32E2,8.1E1,1.27E2,2.7E1,1.06E2,1.77E2,5.8E1,1E2,1.56E2,8.2E1,6.2E1,9E0,9.3E1,4.1E1,6.6E1,7.6E1,2.1E1,1.09E2,2.48E2,1.17E2,5.9E1,2.2E1,1.16E2,1.1E1,1E0,2.6E1,1.2E1,1.44E2,5.8E1,2.4E1,5.1E1,1.1E1,7.4E1,1.9E1,1.1E1,3E1,5.9E1,7E0,6.2E1,1.4E1,7E0,1.4E1,1.02E2,7E0,1.6E1,2.32E2,1E2,1.7E1,4.4E1,1.5E1],"tree_param":{"num_deleted":"0","num_feature":"115","num_nodes":"91","size_leaf_vector":"1"}},{"base_weights":[5.804898E-1,-3.52519E1,5.909343E1,-5.259935E1,-1.1133095E1,4.0581257E1,1.22985985E2,-6.1692684E1,-4.4152946E1,-1.935031E1,3.4656575E0,2.4916945E1,6.421871E1,1.0666989E2,3.7592914E0,-1.5935851E0,-1.448834E0,-4.7010357E1,-3.768959E1,-2.7337389E1,-1.5517746E1,-1.2540027E0,8.3924055E0,1.960582E1,3.5691326E1,5.3142616E1,7.202931E1,1.9184697E0,1.0994984E2,-1.2193156E0,-1.1046973E0,-1.0139695E0,-8.343455E-1,-7.4008626E-1,-5.872392E-1,-1.758484E1,-1.1375039E1,1.1336142E0,-6.1136775E0,-2.8974107E-1,8.685355E0,1.7689045E1,2.3974018E1,2.9449278E1,3.8756207E1,5.4998367E1,9.822202E-1,1.6281502E0,1.8784221E0,2.5100057E0,2.9245846E0,-1.9375021E1,-1.580319E1,-6.9040914E0,-1.2308158E1,-2.7998755E0,2.3401985E0,-9.449307E0,-1.6944526E0,5.3879757E0,1.0424817E1,2.0579178E1,1.5780585E1,1.8939848E1,2.768199E1,2.7632025E1,1.1130147E0,9.774893E-1,5.514531E-1,1.3988453E0,9.355264E-1,-4.96448E-1,-3.8023052E-1,-4.1235396E-1,-3.0917194E-1,-2.4644998E-1,-8.72994E-2,-3.2237092E-1,-1.6567825E-1,-9.988787E-2,-1.09276315E-2,2.0650825E-2,1.27791E-1,-1.1257978E-1,-3.082242E-1,-9.877163E-3,-1.3379975E-1,5.9027728E-2,3.288858E-1,3.430659E-1,2.2779194E-1,5.4192185E-1,2.648592E-1,-1.1770017E-2,4.0105692E-1,3.9473104E-1,6.404823E-1,6.123745E-1,8.112769E-1,8.176822E-1,6.2238544E-1],"categories":[],"categories_nodes":[],"categories_segments":[],"categories_sizes":[],"default_left":[0,0,0,0,0,0,0,0,0,0,0,0,0,0,0,0,0,0,0,0,0,0,0,0,0,0,0,0,0,0,0,0,0,0,0,0,0,0,0,0,0,0,0,0,0,0,0,0,0,0,0,0,0,0,0,0,0,0,0,0,0,0,0,0,0,0,0,0,0,0,0,0,0,0,0,0,0,0,0,0,0,0,0,0,0,0,0,0,0,0,0,0,0,0,0,0,0,0,0,0,0],"id":1,"left_children":[1,3,5,7,9,11,13,15,17,19,21,23,25,27,-1,-1,-1,29,31,33,35,37,39,41,43,45,47,-1,49,-1,-1,-1,-1,-1,-1,51,53,55,57,-1,59,61,63,65,67,69,-1,-1,-1,-1,-1,71,73,75,77,79,81,83,85,87,89,91,93,95,97,99,-1,-1,-1,-1,-1,-1,-1,-1,-1,-1,-1,-1,-1,-1,-1,-1,-1,-1,-1,-1,-1,-1,-1,-1,-1,-1,-1,-1,-1,-1,-1,-1,-1,-1,-1],"loss_changes":[7.8930885E6,9.7636025E5,1.68703E6,1.0202325E5,1.1736431E5,4.0956812E5,1.303035E5,1.9455E3,1.156825E4,1.8782703E4,8.217639E3,3.7667406E4,3.5058125E4,1.310825E4,0E0,0E0,0E0,6.22875E2,1.5920938E3,1.1607969E3,3.4545234E3,2.1073584E3,1.0897295E3,3.3935156E3,3.237375E3,2.97275E3,1.482125E3,0E0,2.641E3,0E0,0E0,0E0,0E0,0E0,0E0,6.257031E2,5.165703E2,5.829475E2,8.597815E2,0E0,9.220674E2,1.4529609E3,2.0595156E3,1.0341641E3,9.134375E1,9.6746875E2,0E0,0E0,0E0,0E0,0E0,5.5195312E0,1.5990625E2,2.3190002E2,3.0863867E2,7.641734E1,3.8549628E2,4.2353687E2,1.2107719E2,1.39221E3,3.6152246E2,1.1363867E3,8.4270703E2,9.0171484E2,4.706289E2,2.7196484E2,0E0,0E0,0E0,0E0,0E0,0E0,0E0,0E0,0E0,0E0,0E0,0E0,0E0,0E0,0E0,0E0,0E0,0E0,0E0,0E0,0E0,0E0,0E0,0E0,0E0,0E0,0E0,0E0,0E0,0E0,0E0,0E0,0E0,0E0,0E0],"parents":[2147483647,0,0,1,1,2,2,3,3,4,4,5,5,6,6,7,7,8,8,9,9,10,10,11,11,12,12,13,13,17,17,18,18,19,19,20,20,21,21,22,22,23,23,24,24,25,25,26,26,28,28,35,35,36,36,37,37,38,38,40,40,41,41,42,42,43,43,44,44,45,45,51,51,52,52,53,53,54,54,55,55,56,56,57,57,58,58,59,59,60,60,61,61,62,62,63,63,64,64,65,65],"right_children":[2,4,6,8,10,12,14,16,18,20,22,24,26,28,-1,-1,-1,30,32,34,36,38,40,42,44,46,48,-1,50,-1,-1,-1,-1,-1,-1,52,54,56,58,-1,60,62,64,66,68,70,-1,-1,-1,-1,-1,72,74,76,78,80,82,84,86,88,90,92,94,96,98,100,-1,-1,-1,-1,-1,-1,-1,-1,-1,-1,-1,-1,-1,-1,-1,-1,-1,-1,-1,-1,-1,-1,-1,-1,-1,-1,-1,-1,-1,-1,-1,-1,-1,-1,-1],"split_conditions":[1.5453278E-1,-6.952537E-1,1.5123867E0,-1.0958571E0,-2.0700268E-1,7.4164104E-1,2.4113E0,-1.2283492E0,-8.7227356E-1,-5.039539E-1,-1.653951E-2,4.8351282E-1,1.1209041E0,-5.394458E-1,3.7592914E0,-1.5935851E0,-1.448834E0,-9.6125036E-1,2.5789347E-1,-5.680955E-1,-3.5104167E-1,2.5561717E-1,-3.3160162E-1,3.366315E-1,-4.166266E-2,-3.3173528E-2,-1.05132505E-1,1.9184697E0,1.9100626E0,-1.2193156E0,-1.1046973E0,-1.0139695E0,-8.343455E-1,-7.4008626E-1,-5.872392E-1,-4.1231862E-1,-7.7578187E-1,-3.8383085E-1,2.247817E-2,-2.8974107E-1,-6.40382E-1,6.1898522E-2,-2.0035057E-1,9.21222E-1,6.769596E-1,5.742371E-1,9.822202E-1,1.6281502E0,1.8784221E0,2.5100057E0,2.9245846E0,1.1953014E0,-2.893261E-2,-3.9887297E-1,2.4664609E-1,9.1759837E-1,5.2980995E-1,-7.1494186E-1,-6.2509006E-1,5.638096E-1,-1.672561E-1,-1.1022406E-1,-8.836315E-1,-3.7619647E-2,7.6883596E-1,5.437856E-1,1.1130147E0,9.774893E-1,5.514531E-1,1.3988453E0,9.355264E-1,-4.96448E-1,-3.8023052E-1,-4.1235396E-1,-3.0917194E-1,-2.4644998E-1,-8.72994E-2,-3.2237092E-1,-1.6567825E-1,-9.988787E-2,-1.09276315E-2,2.0650825E-2,1.27791E-1,-1.1257978E-1,-3.082242E-1,-9.877163E-3,-1.3379975E-1,5.9027728E-2,3.288858E-1,3.430659E-1,2.2779194E-1,5.4192185E-1,2.648592E-1,-1.1770017E-2,4.0105692E-1,3.9473104E-1,6.404823E-1,6.123745E-1,8.112769E-1,8.176822E-1,6.2238544E-1],"split_indices":[3,5,56,3,3,4,77,77,3,3,3,3,3,114,0,0,0,3,69,114,5,60,12,3,21,46,22,0,3,0,0,0,0,0,0,3,46,15,56,0,37,65,64,56,65,60,0,0,0,0,0,62,104,13,109,97,88,112,20,15,111,114,68,104,101,13,0,0,0,0,0,0,0,0,0,0,0,0,0,0,0,0,0,0,0,0,0,0,0,0,0,0,0,0,0,0,0,0,0,0,0],"split_type":[0,0,0,0,0,0,0,0,0,0,0,0,0,0,0,0,0,0,0,0,0,0,0,0,0,0,0,0,0,0,0,0,0,0,0,0,0,0,0,0,0,0,0,0,0,0,0,0,0,0,0,0,0,0,0,0,0,0,0,0,0,0,0,0,0,0,0,0,0,0,0,0,0,0,0,0,0,0,0,0,0,0,0,0,0,0,0,0,0,0,0,0,0,0,0,0,0,0,0,0,0],"sum_hessian":[3.763E3,2.334E3,1.429E3,1.357E3,9.77E2,1.109E3,3.2E2,6.51E2,7.06E2,6.25E2,3.52E2,6.68E2,4.41E2,2.03E2,1.17E2,4.12E2,2.39E2,4.86E2,2.2E2,2.01E2,4.24E2,1.8E2,1.72E2,4.49E2,2.19E2,1.85E2,2.56E2,2.2E1,1.81E2,2.91E2,1.95E2,1.28E2,9.2E1,1.23E2,7.8E1,2.81E2,1.43E2,1.21E2,5.9E1,2E0,1.7E2,3.15E2,1.34E2,7.5E1,1.44E2,1.61E2,2.4E1,8.5E1,1.71E2,8.2E1,9.9E1,1.36E2,1.45E2,2.6E1,1.17E2,2.8E1,9.3E1,3.3E1,2.6E1,6E1,1.1E2,1.22E2,1.93E2,5.9E1,7.5E1,6.9E1,6E0,1.4E2,4E0,1.51E2,1E1,1.19E2,1.7E1,1.18E2,2.7E1,1.3E1,1.3E1,1.05E2,1.2E1,1.8E1,1E1,6.1E1,3.2E1,1.3E1,2E1,2E1,6E0,4.4E1,1.6E1,2.9E1,8.1E1,1.09E2,1.3E1,3E0,1.9E2,4.2E1,1.7E1,4.8E1,2.7E1,2.1E1,4.8E1],"tree_param":{"num_deleted":"0","num_feature":"115","num_nodes":"101","size_leaf_vector":"1"}},{"base_weights":[2.917995E-1,-3.5596596E1,5.5787117E1,-5.1973976E1,-1.3372505E1,3.7975258E1,1.2122668E2,-6.038553E1,-4.398019E1,-2.0718185E1,-1.5184484E-1,2.2873291E1,6.2505314E1,1.03845566E2,3.6636708E0,-1.5727099E0,-1.4474207E0,-4.6683926E1,-3.9069073E1,-2.7735182E1,-1.6309532E1,-5.723018E0,3.8382418E0,1.7874983E1,3.4208027E1,5.0250984E1,6.9466805E1,2.0137246E0,1.074296E2,-1.2296671E0,-1.1214402E0,-1.0208055E0,-8.927081E-1,-7.409405E-1,-5.768077E-1,-4.7374186E-1,-1.458432E1,-4.3694997E-1,-4.6619935E0,5.0804462E0,-3.5661244E0,1.4307176E1,2.101337E1,2.8848618E1,3.7121613E1,1.2928195E0,9.9547255E-1,1.6150172E0,1.819538E0,1.8553374E0,2.7243018E0,-1.5655308E1,-1.0918051E1,-7.8392887E0,-1.645106E0,2.5814402E0,8.339489E0,8.104988E-1,-8.099756E0,1.1755082E1,1.6219383E1,4.598456E0,2.1501595E1,2.658573E1,9.830723E-1,4.054028E1,8.502518E-1,-3.9734897E-1,-1.87273E-1,-2.936934E-1,-1.3084039E-1,-1.4560007E-1,-2.6880416E-1,2.2695256E-2,-9.785548E-2,1.11705475E-1,-2.6916552E-2,8.986135E-2,2.3624213E-1,-8.72972E-3,1.6450612E-1,-4.17692E-2,-2.3882937E-1,3.0788967E-1,5.070696E-2,6.3805056E-1,3.8462982E-1,4.244304E-3,2.023516E-1,4.8269802E-1,6.256913E-1,7.0878136E-1,4.6095258E-1,5.0259614E-1,1.0320798E0],"categories":[],"categories_nodes":[],"categories_segments":[],"categories_sizes":[],"default_left":[0,0,0,0,0,0,0,0,0,0,0,0,0,0,0,0,0,0,0,0,0,0,0,0,0,0,0,0,0,0,0,0,0,0,0,0,0,0,0,0,0,0,0,0,0,0,0,0,0,0,0,0,0,0,0,0,0,0,0,0,0,0,0,0,0,0,0,0,0,0,0,0,0,0,0,0,0,0,0,0,0,0,0,0,0,0,0,0,0,0,0,0,0,0,0],"id":2,"left_children":[1,3,5,7,9,11,13,15,17,19,21,23,25,27,-1,-1,-1,29,31,33,35,37,39,41,43,45,47,-1,49,-1,-1,-1,-1,-1,-1,-1,51,-1,53,55,57,59,61,63,65,-1,-1,-1,-1,-1,-1,67,69,71,73,75,77,79,81,83,85,87,89,91,-1,93,-1,-1,-1,-1,-1,-1,-1,-1,-1,-1,-1,-1,-1,-1,-1,-1,-1,-1,-1,-1,-1,-1,-1,-1,-1,-1,-1,-1,-1],"loss_changes":[7.5654465E6,8.3900325E5,1.7350325E6,8.707375E4,9.513383E4,4.3362475E5,1.279265E5,1.03825E3,7.552E3,1.9086062E4,7.8171772E3,4.0702312E4,3.5227375E4,8.941375E3,0E0,0E0,0E0,1.561875E2,2.4065625E2,1.5557656E3,1.5229922E3,1.7480396E3,1.8994021E3,5.405953E3,2.5539375E3,7.92625E2,6.90125E2,0E0,1.776E3,0E0,0E0,0E0,0E0,0E0,0E0,0E0,7.7965625E2,0E0,1.2838115E3,1.4058203E3,6.0237476E2,9.9534766E2,2.0462188E3,1.0497734E3,3.3507812E2,0E0,0E0,0E0,0E0,0E0,0E0,2.4221875E2,2.0511426E2,3.2290796E2,4.1538205E2,7.0228644E2,3.617002E2,1.1254247E2,1.16543335E2,5.4535254E2,6.9921875E2,1.285219E2,1.5875E3,5.484375E2,0E0,2.4039062E2,0E0,0E0,0E0,0E0,0E0,0E0,0E0,0E0,0E0,0E0,0E0,0E0,0E0,0E0,0E0,0E0,0E0,0E0,0E0,0E0,0E0,0E0,0E0,0E0,0E0,0E0,0E0,0E0,0E0],"parents":[2147483647,0,0,1,1,2,2,3,3,4,4,5,5,6,6,7,7,8,8,9,9,10,10,11,11,12,12,13,13,17,17,18,18,19,19,20,20,21,21,22,22,23,23,24,24,25,25,26,26,28,28,36,36,38,38,39,39,40,40,41,41,42,42,43,43,44,44,51,51,52,52,53,53,54,54,55,55,56,56,57,57,58,58,59,59,60,60,61,61,62,62,63,63,65,65],"right_children":[2,4,6,8,10,12,14,16,18,20,22,24,26,28,-1,-1,-1,30,32,34,36,38,40,42,44,46,48,-1,50,-1,-1,-1,-1,-1,-1,-1,52,-1,54,56,58,60,62,64,66,-1,-1,-1,-1,-1,-1,68,70,72,74,76,78,80,82,84,86,88,90,92,-1,94,-1,-1,-1,-1,-1,-1,-1,-1,-1,-1,-1,-1,-1,-1,-1,-1,-1,-1,-1,-1,-1,-1,-1,-1,-1,-1,-1,-1,-1],"split_conditions":[1.0101836E-1,-7.1953213E-1,1.528082E0,-1.121167E0,-2.8778526E-1,7.446005E-1,2.4136631E0,-1.2560706E0,-9.0719193E-1,-5.1499075E-1,-1.0752048E-1,4.6731406E-1,1.0431261E0,1.5439075E0,3.6636708E0,-1.5727099E0,-1.4474207E0,-1.0156081E0,4.4285765E-1,-5.718023E-1,-4.1231862E-1,-6.0638314E-1,5.993117E-1,2.5759742E-1,-4.166266E-2,5.818459E-1,-1.05132505E-1,2.0137246E0,-5.394458E-1,-1.2296671E0,-1.1214402E0,-1.0208055E0,-8.927081E-1,-7.409405E-1,-5.768077E-1,-4.7374186E-1,1.7881863E-1,-4.3694997E-1,-1.8204924E-1,1.3676896E-2,-2.5142777E-1,-4.9211615E-1,-8.836315E-1,7.3922867E-1,-3.1167623E-1,1.2928195E0,9.9547255E-1,1.6150172E0,1.819538E0,1.8553374E0,2.7243018E0,-2.647745E-1,-4.0770146E-1,4.8503453E-1,-1.129598E-1,-2.4259374E-2,-1.21296E0,4.7975284E-1,-4.1576354E-3,1.0688256E0,-7.9188067E-1,1.0198812E0,-2.2689086E-1,5.8538264E-1,9.830723E-1,8.9363164E-1,8.502518E-1,-3.9734897E-1,-1.87273E-1,-2.936934E-1,-1.3084039E-1,-1.4560007E-1,-2.6880416E-1,2.2695256E-2,-9.785548E-2,1.11705475E-1,-2.6916552E-2,8.986135E-2,2.3624213E-1,-8.72972E-3,1.6450612E-1,-4.17692E-2,-2.3882937E-1,3.0788967E-1,5.070696E-2,6.3805056E-1,3.8462982E-1,4.244304E-3,2.023516E-1,4.8269802E-1,6.256913E-1,7.0878136E-1,4.6095258E-1,5.0259614E-1,1.0320798E0],"split_indices":[2,76,3,3,3,2,2,3,3,4,3,2,76,50,0,0,0,76,62,114,3,61,45,3,21,45,22,0,114,0,0,0,0,0,0,0,22,0,3,3,113,53,68,7,46,0,0,0,0,0,0,7,12,43,51,45,53,10,46,112,114,46,107,46,0,17,0,0,0,0,0,0,0,0,0,0,0,0,0,0,0,0,0,0,0,0,0,0,0,0,0,0,0,0,0],"split_type":[0,0,0,0,0,0,0,0,0,0,0,0,0,0,0,0,0,0,0,0,0,0,0,0,0,0,0,0,0,0,0,0,0,0,0,0,0,0,0,0,0,0,0,0,0,0,0,0,0,0,0,0,0,0,0,0,0,0,0,0,0,0,0,0,0,0,0,0,0,0,0,0,0,0,0,0,0,0,0,0,0,0,0,0,0,0,0,0,0,0,0,0,0,0,0],"sum_hessian":[3.797E3,2.306E3,1.491E3,1.327E3,9.79E2,1.173E3,3.18E2,6.44E2,6.83E2,6.29E2,3.5E2,7.27E2,4.46E2,1.91E2,1.27E2,3.1E2,3.34E2,4.36E2,2.47E2,2.41E2,3.88E2,1.46E2,2.04E2,5.06E2,2.21E2,1.64E2,2.82E2,2.8E1,1.63E2,1.75E2,2.61E2,1.56E2,9.1E1,1.68E2,7.3E1,1.5E2,2.38E2,1.1E1,1.35E2,1.75E2,2.9E1,2.39E2,2.67E2,8.1E1,1.4E2,1.41E2,2.3E1,1.21E2,1.61E2,9E0,1.54E2,1.82E2,5.6E1,6.5E1,7E1,1E2,7.5E1,1.5E1,1.4E1,1.05E2,1.34E2,8E0,2.59E2,6.9E1,1.2E1,6.2E1,7.8E1,1.76E2,6E0,4.8E1,8E0,4E1,2.5E1,3.3E1,3.7E1,6.6E1,3.4E1,1.5E1,6E1,1.3E1,2E0,3E0,1.1E1,9.9E1,6E0,9E0,1.25E2,4E0,4E0,1.63E2,9.6E1,5.5E1,1.4E1,3E0,5.9E1],"tree_param":{"num_deleted":"0","num_feature":"115","num_nodes":"95","size_leaf_vector":"1"}},{"base_weights":[-1.3498896E-1,-3.575743E1,5.2593563E1,-5.07065E1,-1.393019E1,2.720386E1,9.674083E1,-5.882264E1,-4.277857E1,-2.0054127E1,-1.1499254E0,1.7502073E1,4.26801E1,7.518079E1,1.2775913E2,-1.5241588E0,-1.3973781E0,-4.5573277E1,-3.7994263E1,-2.70944E1,-1.5704793E1,-8.400939E0,1.3712938E0,1.3351164E1,2.1224932E1,3.4203743E1,5.1015522E1,6.941275E1,2.334057E0,1.1197647E2,3.647363E0,-1.1980866E0,-1.0957704E0,-9.938164E-1,-8.65674E-1,-7.2018725E-1,-5.6792086E-1,-1.8422298E1,-1.4006714E1,-4.248252E-1,-7.34813E0,-5.56636E-1,5.4700494E0,9.891558E0,1.5100783E1,6.8509007E0,2.1723074E1,9.440109E-1,2.9666977E1,5.2472607E1,9.1229737E-1,8.2028925E-1,1.7435026E0,1.4777725E0,2.8219094E0,-4.6758205E-1,-2.8485447E-1,-1.4997843E1,-1.0535795E1,-8.235727E0,-2.2839923E0,1.0842289E0,-4.678135E0,7.8919086E0,5.9339875E-1,1.0458412E1,2.103039E0,1.0264185E1,1.6181322E1,2.926874E-1,1.7848748E0,1.9412424E1,2.4592817E1,2.7695225E1,9.268616E-1,1.345539E0,1.0341161E0,-3.8490304E-1,-1.8232138E-1,-2.825687E-1,-1.3084963E-1,-2.669335E-1,-1.6418861E-1,-8.406827E-2,-1.4157506E-2,-3.502134E-2,7.7964984E-2,-2.1978839E-1,-4.4415098E-2,2.0525853E-1,3.5680633E-3,6.978389E-2,-2.2158287E-1,2.067531E-2,2.7490944E-1,7.2849914E-2,-0E0,3.0109343E-1,1.6355267E-1,4.1430998E-1,2.0460923E-1,-1.9322626E-2,7.865252E-2,3.5144582E-1,5.113245E-1,5.152361E-1,7.2564095E-1,6.0215116E-1,8.2516444E-1],"categories":[],"categories_nodes":[],"categories_segments":[],"categories_sizes":[],"default_left":[0,0,0,0,0,0,0,0,0,0,0,0,0,0,0,0,0,0,0,0,0,0,0,0,0,0,0,0,0,0,0,0,0,0,0,0,0,0,0,0,0,0,0,0,0,0,0,0,0,0,0,0,0,0,0,0,0,0,0,0,0,0,0,0,0,0,0,0,0,0,0,0,0,0,0,0,0,0,0,0,0,0,0,0,0,0,0,0,0,0,0,0,0,0,0,0,0,0,0,0,0,0,0,0,0,0,0,0,0],"id":3,"left_children":[1,3,5,7,9,11,13,15,17,19,21,23,25,27,29,-1,-1,31,33,35,37,39,41,43,45,47,49,51,-1,53,-1,-1,-1,-1,-1,-1,-1,55,57,-1,59,61,63,65,67,69,71,-1,73,75,-1,-1,-1,-1,-1,-1,-1,77,79,81,83,85,87,89,91,93,95,97,99,-1,101,103,105,107,-1,-1,-1,-1,-1,-1,-1,-1,-1,-1,-1,-1,-1,-1,-1,-1,-1,-1,-1,-1,-1,-1,-1,-1,-1,-1,-1,-1,-1,-1,-1,-1,-1,-1,-1],"loss_changes":[7.1593915E6,7.416435E5,1.7203735E6,8.475775E4,7.242283E4,1.46018E5,3.67192E5,1.3525E3,7.717625E3,1.878764E4,5.513883E3,9.045406E3,2.5087688E4,2.95865E4,5.2212E4,0E0,0E0,2.125E0,3.6565625E2,1.2185312E3,1.56175E3,5.8439795E2,1.7748591E3,1.5965078E3,2.1192969E3,2.0962969E3,2.3712188E3,1.15225E3,0E0,5.095E2,0E0,0E0,0E0,0E0,0E0,0E0,0E0,9.533594E1,6.884219E2,0E0,2.9477588E2,1.0402922E3,8.374641E2,4.0855273E2,8.3266797E2,2.6281183E2,1.6039844E3,0E0,3.9453906E2,6.72125E2,0E0,0E0,0E0,0E0,0E0,0E0,0E0,4.6526172E2,1.7040576E2,1.7367358E2,1.7198017E1,5.599717E2,5.0181018E2,1.1033081E2,5.304141E2,4.5891504E2,1.4752346E1,1.6584814E2,3.495547E2,0E0,2.7519531E1,7.0516797E2,1.8266562E3,6.9470703E2,0E0,0E0,0E0,0E0,0E0,0E0,0E0,0E0,0E0,0E0,0E0,0E0,0E0,0E0,0E0,0E0,0E0,0E0,0E0,0E0,0E0,0E0,0E0,0E0,0E0,0E0,0E0,0E0,0E0,0E0,0E0,0E0,0E0,0E0,0E0],"parents":[2147483647,0,0,1,1,2,2,3,3,4,4,5,5,6,6,7,7,8,8,9,9,10,10,11,11,12,12,13,13,14,14,17,17,18,18,19,19,20,20,21,21,22,22,23,23,24,24,25,25,26,26,27,27,29,29,37,37,38,38,40,40,41,41,42,42,43,43,44,44,45,45,46,46,48,48,49,49,57,57,58,58,59,59,60,60,61,61,62,62,63,63,64,64,65,65,66,66,67,67,68,68,70,70,71,71,72,72,73,73],"right_children":[2,4,6,8,10,12,14,16,18,20,22,24,26,28,30,-1,-1,32,34,36,38,40,42,44,46,48,50,52,-1,54,-1,-1,-1,-1,-1,-1,-1,56,58,-1,60,62,64,66,68,70,72,-1,74,76,-1,-1,-1,-1,-1,-1,-1,78,80,82,84,86,88,90,92,94,96,98,100,-1,102,104,106,108,-1,-1,-1,-1,-1,-1,-1,-1,-1,-1,-1,-1,-1,-1,-1,-1,-1,-1,-1,-1,-1,-1,-1,-1,-1,-1,-1,-1,-1,-1,-1,-1,-1,-1,-1],"split_conditions":[5.975642E-2,-7.1953213E-1,1.1178758E0,-1.121167E0,-2.8778526E-1,5.265576E-1,1.8362645E0,-1.2411507E0,-9.0719193E-1,-5.1379544E-1,-1.8204924E-1,2.5031054E-1,7.941191E-1,1.6128792E0,2.5053155E0,-1.5241588E0,-1.3973781E0,-1.0156081E0,4.4285765E-1,-5.718023E-1,-4.1231862E-1,-1.5628539E0,-1.653951E-2,-3.7188426E-1,-8.836315E-1,5.140884E-1,4.562669E-1,-1.1452284E0,2.334057E0,-8.0497193E-1,3.647363E0,-1.1980866E0,-1.0957704E0,-9.938164E-1,-8.65674E-1,-7.2018725E-1,-5.6792086E-1,-2.6440108E-1,1.7881863E-1,-4.248252E-1,1.2470288E0,2.5561717E-1,-3.8307554E-3,6.7959803E-1,7.42914E-2,-1.9631275E0,3.6654347E-1,9.440109E-1,7.3922867E-1,6.407609E-1,9.1229737E-1,8.2028925E-1,1.7435026E0,1.4777725E0,2.8219094E0,-4.6758205E-1,-2.8485447E-1,-2.647745E-1,-4.0770146E-1,-4.0576723E-1,2.5740823E-1,-3.2187924E-1,-4.9505115E-2,5.360909E-1,7.8059113E-1,-3.487306E0,-1.9689804E-2,5.586222E-2,6.7080253E-1,2.926874E-1,-6.837341E-1,-9.7661483E-1,-7.643496E-2,3.3007482E-1,9.268616E-1,1.345539E0,1.0341161E0,-3.8490304E-1,-1.8232138E-1,-2.825687E-1,-1.3084963E-1,-2.669335E-1,-1.6418861E-1,-8.406827E-2,-1.4157506E-2,-3.502134E-2,7.7964984E-2,-2.1978839E-1,-4.4415098E-2,2.0525853E-1,3.5680633E-3,6.978389E-2,-2.2158287E-1,2.067531E-2,2.7490944E-1,7.2849914E-2,-0E0,3.0109343E-1,1.6355267E-1,4.1430998E-1,2.0460923E-1,-1.9322626E-2,7.865252E-2,3.5144582E-1,5.113245E-1,5.152361E-1,7.2564095E-1,6.0215116E-1,8.2516444E-1],"split_indices":[3,76,76,3,3,3,76,3,3,5,3,76,76,3,5,0,0,76,62,114,3,43,3,20,68,12,60,48,0,24,0,0,0,0,0,0,0,56,22,0,34,60,45,66,50,22,3,0,7,45,0,0,0,0,0,0,0,7,12,75,0,15,92,66,31,113,26,12,66,0,63,36,63,20,0,0,0,0,0,0,0,0,0,0,0,0,0,0,0,0,0,0,0,0,0,0,0,0,0,0,0,0,0,0,0,0,0,0,0],"split_type":[0,0,0,0,0,0,0,0,0,0,0,0,0,0,0,0,0,0,0,0,0,0,0,0,0,0,0,0,0,0,0,0,0,0,0,0,0,0,0,0,0,0,0,0,0,0,0,0,0,0,0,0,0,0,0,0,0,0,0,0,0,0,0,0,0,0,0,0,0,0,0,0,0,0,0,0,0,0,0,0,0,0,0,0,0,0,0,0,0,0,0,0,0,0,0,0,0,0,0,0,0,0,0,0,0,0,0,0,0],"sum_hessian":[3.81E3,2.274E3,1.536E3,1.349E3,9.25E2,9.76E2,5.6E2,6.64E2,6.85E2,6.25E2,3E2,6.01E2,3.75E2,3.32E2,2.28E2,3.74E2,2.9E2,4.28E2,2.57E2,2.37E2,3.88E2,7.7E1,2.23E2,2.86E2,3.15E2,1.88E2,1.87E2,2.55E2,7.7E1,1.25E2,1.03E2,1.73E2,2.55E2,1.63E2,9.4E1,1.67E2,7E1,1.46E2,2.42E2,7E0,7E1,1.52E2,7.1E1,9.8E1,1.88E2,1.1E1,3.04E2,1.02E2,8.6E1,1.68E2,1.9E1,3E0,2.52E2,3E0,1.22E2,1.39E2,7E0,1.86E2,5.6E1,5.9E1,1.1E1,1.09E2,4.3E1,4.7E1,2.4E1,9.1E1,7E0,3.6E1,1.52E2,5E0,6E0,1.72E2,1.32E2,7.1E1,1.5E1,1.47E2,2.1E1,1.76E2,1E1,4.8E1,8E0,2.2E1,3.7E1,6E0,5E0,4.9E1,6E1,1.7E1,2.6E1,4.5E1,2E0,2E1,4E0,5E0,8.6E1,5E0,2E0,2.3E1,1.3E1,1.44E2,8E0,2E0,4E0,3E1,1.42E2,7.2E1,6E1,4.5E1,2.6E1],"tree_param":{"num_deleted":"0","num_feature":"115","num_nodes":"109","size_leaf_vector":"1"}},{"base_weights":[9.757324E-2,-3.3963932E1,5.323566E1,-4.9473408E1,-1.2297453E1,3.6355442E1,1.1607814E2,-5.7275253E1,-4.1772537E1,-1.977738E1,4.1942823E-1,2.2041876E1,5.9175617E1,1.0151273E2,3.5598161E0,-1.4808732E0,-1.349801E0,-1.1207193E0,-3.807159E1,-2.6556404E1,-1.5306091E1,-3.5738406E0,6.2783127E0,1.7299118E1,3.24412E1,4.8662785E1,6.528037E1,9.06151E1,2.7706547E0,-9.8792714E-1,-8.495415E-1,-5.703325E-1,-2.8476257E1,-1.7780525E1,-1.3778817E1,-8.082685E0,-1.328463E0,7.280024E0,-1.2072539E0,1.35853615E1,1.9700525E1,2.7217709E1,3.5116657E1,5.0074177E1,9.163951E-1,1.4950837E0,6.783472E1,2.362144E0,1.7520237E0,-7.206618E-1,-4.6930155E-1,-4.5400771E-1,-2.8139973E-1,-1.5206783E1,-1.0668947E1,-5.9637547E0,-1.258987E1,4.027007E0,-2.2770498E0,5.935165E0,1.298011E1,-3.792255E0,2.2260693E-1,1.10743E1,1.5954347E1,1.7121155E1,2.3788982E1,2.3001495E1,3.18633E1,5.729937E-1,8.898477E-1,1.2699329E0,8.8972753E-1,8.2236767E-1,6.8257484E1,-3.9366978E-1,-2.8613624E-1,-2.8734875E-1,-2.0781985E-1,-1.913936E-1,-7.013608E-2,-2.604668E-1,-4.2510986E-1,1.8887287E-1,7.1243204E-2,-3.4014466E-1,-4.7395606E-2,1.941866E-1,4.108357E-2,1.14070036E-1,3.3870503E-1,-2.4356528E-1,-1.981676E-2,3.2496983E-1,1.9524111E-1,1.583723E-1,4.0736857E-1,-4.5048382E-2,4.360554E-1,6.1931384E-1,3.954146E-1,2.2271004E-1,5.9558314E-1,1.8414629E-1,8.093733E-1,1.0661553E0,1.7231343E0],"categories":[],"categories_nodes":[],"categories_segments":[],"categories_sizes":[],"default_left":[0,0,0,0,0,0,0,0,0,0,0,0,0,0,0,0,0,0,0,0,0,0,0,0,0,0,0,0,0,0,0,0,0,0,0,0,0,0,0,0,0,0,0,0,0,0,0,0,0,0,0,0,0,0,0,0,0,0,0,0,0,0,0,0,0,0,0,0,0,0,0,0,0,0,0,0,0,0,0,0,0,0,0,0,0,0,0,0,0,0,0,0,0,0,0,0,0,0,0,0,0,0,0,0,0,0,0],"id":4,"left_children":[1,3,5,7,9,11,13,15,17,19,21,23,25,27,-1,-1,-1,-1,29,31,33,35,37,39,41,43,45,47,-1,-1,-1,-1,49,51,53,55,57,59,61,63,65,67,69,71,-1,-1,73,-1,-1,-1,-1,-1,-1,75,77,79,81,83,85,87,89,91,-1,93,95,97,99,101,103,-1,-1,-1,-1,-1,105,-1,-1,-1,-1,-1,-1,-1,-1,-1,-1,-1,-1,-1,-1,-1,-1,-1,-1,-1,-1,-1,-1,-1,-1,-1,-1,-1,-1,-1,-1,-1,-1],"loss_changes":[6.87534E6,7.7731925E5,1.5705095E6,7.9044E4,9.198544E4,3.8131962E5,1.085145E5,1.6475E3,6.280125E3,1.809464E4,8.414634E3,3.5062125E4,2.6298875E4,1.2591E4,0E0,0E0,0E0,0E0,7.2209375E2,1.1697031E3,1.1724922E3,2.1484048E3,1.1051528E3,4.1898438E3,2.3271094E3,1.3227812E3,6.08875E2,2.4236875E3,0E0,0E0,0E0,0E0,5.85E1,1.5439062E2,8.788828E2,6.0126074E2,7.364583E2,9.1059326E2,4.8818628E2,1.0136758E3,2.8030078E3,9.328125E2,1.4925E2,4.328125E1,0E0,0E0,8.820625E2,0E0,0E0,0E0,0E0,0E0,0E0,1.5254688E2,5.505957E1,2.4057141E2,4.527954E1,6.49953E1,4.9731268E2,8.1426074E2,4.9863525E1,2.4955284E2,0E0,5.228838E2,2.2610156E2,1.1725508E3,5.464297E2,3.2291406E2,2.2613281E2,0E0,0E0,0E0,0E0,0E0,7.0325E2,0E0,0E0,0E0,0E0,0E0,0E0,0E0,0E0,0E0,0E0,0E0,0E0,0E0,0E0,0E0,0E0,0E0,0E0,0E0,0E0,0E0,0E0,0E0,0E0,0E0,0E0,0E0,0E0,0E0,0E0,0E0,0E0],"parents":[2147483647,0,0,1,1,2,2,3,3,4,4,5,5,6,6,7,7,8,8,9,9,10,10,11,11,12,12,13,13,18,18,19,19,20,20,21,21,22,22,23,23,24,24,25,25,26,26,27,27,32,32,33,33,34,34,35,35,36,36,37,37,38,38,39,39,40,40,41,41,42,42,43,43,46,46,53,53,54,54,55,55,56,56,57,57,58,58,59,59,60,60,61,61,63,63,64,64,65,65,66,66,67,67,68,68,74,74],"right_children":[2,4,6,8,10,12,14,16,18,20,22,24,26,28,-1,-1,-1,-1,30,32,34,36,38,40,42,44,46,48,-1,-1,-1,-1,50,52,54,56,58,60,62,64,66,68,70,72,-1,-1,74,-1,-1,-1,-1,-1,-1,76,78,80,82,84,86,88,90,92,-1,94,96,98,100,102,104,-1,-1,-1,-1,-1,106,-1,-1,-1,-1,-1,-1,-1,-1,-1,-1,-1,-1,-1,-1,-1,-1,-1,-1,-1,-1,-1,-1,-1,-1,-1,-1,-1,-1,-1,-1,-1,-1],"split_conditions":[1.0101836E-1,-7.1953213E-1,1.5123867E0,-1.0957851E0,-2.8778526E-1,7.4164104E-1,2.5078967E0,-1.2318484E0,-9.284878E-1,-5.1379544E-1,-3.8283266E-2,4.6731406E-1,1.0431261E0,2.0091293E0,3.5598161E0,-1.4808732E0,-1.349801E0,-1.1207193E0,4.0075174E-1,-2.5716236E-1,-4.1231862E-1,-1.8204924E-1,1.0511435E0,2.2890007E-1,5.0473247E-2,-1.1610185E-1,-1.7129353E-1,-1.0476063E0,2.7706547E0,-9.8792714E-1,-8.495415E-1,-5.703325E-1,-4.81944E-1,-2.6440108E-1,-2.893261E-2,6.2463504E-1,-3.890604E-1,3.6467075E-1,3.6093068E-1,-3.699842E-1,4.084916E-1,-4.4564992E-1,-7.3220946E-2,5.611431E-1,9.163951E-1,1.4950837E0,-1.3510965E0,2.362144E0,1.7520237E0,-7.206618E-1,-4.6930155E-1,-4.5400771E-1,-2.8139973E-1,-2.959799E-1,-4.228396E-1,8.0603325E-1,1.7835655E0,-1.6033734E-1,-6.475768E-1,1.3767734E-1,-1.8748666E0,1.0529211E-1,2.2260693E-1,-4.2554283E-1,1.0322511E-1,-2.066074E0,1.3315463E-1,5.9013134E-1,-8.7694764E-1,5.729937E-1,8.898477E-1,1.2699329E0,8.8972753E-1,8.2236767E-1,5.7492346E-1,-3.9366978E-1,-2.8613624E-1,-2.8734875E-1,-2.0781985E-1,-1.913936E-1,-7.013608E-2,-2.604668E-1,-4.2510986E-1,1.8887287E-1,7.1243204E-2,-3.4014466E-1,-4.7395606E-2,1.941866E-1,4.108357E-2,1.14070036E-1,3.3870503E-1,-2.4356528E-1,-1.981676E-2,3.2496983E-1,1.9524111E-1,1.583723E-1,4.0736857E-1,-4.5048382E-2,4.360554E-1,6.1931384E-1,3.954146E-1,2.2271004E-1,5.9558314E-1,1.8414629E-1,8.093733E-1,1.0661553E0,1.7231343E0],"split_indices":[2,76,56,2,3,4,4,2,3,5,77,2,76,3,0,0,0,0,24,48,3,3,44,76,24,46,23,46,0,0,0,0,56,56,104,111,60,58,11,68,40,20,58,60,0,0,64,0,0,0,0,0,0,8,15,26,111,8,61,57,1,8,0,48,3,28,113,49,35,0,0,0,0,0,108,0,0,0,0,0,0,0,0,0,0,0,0,0,0,0,0,0,0,0,0,0,0,0,0,0,0,0,0,0,0,0,0],"split_type":[0,0,0,0,0,0,0,0,0,0,0,0,0,0,0,0,0,0,0,0,0,0,0,0,0,0,0,0,0,0,0,0,0,0,0,0,0,0,0,0,0,0,0,0,0,0,0,0,0,0,0,0,0,0,0,0,0,0,0,0,0,0,0,0,0,0,0,0,0,0,0,0,0,0,0,0,0,0,0,0,0,0,0,0,0,0,0,0,0,0,0,0,0,0,0,0,0,0,0,0,0,0,0,0,0,0,0],"sum_hessian":[3.797E3,2.314E3,1.483E3,1.348E3,9.66E2,1.17E3,3.13E2,6.67E2,6.81E2,6.08E2,3.58E2,7.2E2,4.5E2,2.04E2,1.09E2,4.09E2,2.58E2,3.68E2,3.13E2,2.4E2,3.68E2,2.13E2,1.45E2,4.96E2,2.24E2,1.68E2,2.82E2,9.8E1,1.06E2,2.26E2,8.7E1,8.5E1,1.55E2,1.37E2,2.31E2,7E1,1.43E2,1.28E2,1.7E1,1.97E2,2.99E2,7.9E1,1.45E2,1.48E2,2E1,9.6E1,1.86E2,8E1,1.8E1,1.48E2,7E0,1.28E2,9E0,1.56E2,7.5E1,4.9E1,2.1E1,2.1E1,1.22E2,1.05E2,2.3E1,1.4E1,3E0,9.8E1,9.9E1,1.86E2,1.13E2,4.4E1,3.5E1,7E0,1.38E2,1.39E2,9E0,3E0,1.83E2,1.34E2,2.2E1,5.3E1,2.2E1,3.1E1,1.8E1,1.6E1,5E0,4E0,1.7E1,3E0,1.19E2,7.3E1,3.2E1,2E0,2.1E1,4E0,1E1,6E1,3.8E1,4E0,9.5E1,3E0,1.83E2,9.9E1,1.4E1,3E0,4.1E1,1E0,3.4E1,6E0,1.77E2],"tree_param":{"num_deleted":"0","num_feature":"115","num_nodes":"107","size_leaf_vector":"1"}},{"base_weights":[-2.8607213E-1,-3.3131927E1,5.2108364E1,-4.8186832E1,-1.2377714E1,3.5235332E1,1.1253481E2,-5.588998E1,-4.07055E1,-1.9324234E1,3.3055925E-1,2.141284E1,5.761094E1,9.5745544E1,3.3607094E0,-1.4509448E0,-1.3305699E0,-1.0901002E0,-3.6595856E1,-2.5781145E1,-1.5095556E1,-3.7646606E0,4.821817E0,1.6239859E1,3.0560278E1,4.8065224E1,6.504579E1,1.7243601E0,9.903964E1,-9.590559E-1,-8.38233E-1,-6.8693537E-1,-5.391101E-1,-1.7646273E1,-1.3416821E1,-7.546595E0,-1.6697022E0,6.0201945E0,-4.278065E0,1.2462988E1,1.8512236E1,2.4390186E1,3.315283E1,1.2422651E0,9.0907735E-1,1.4963235E0,6.80893E1,2.2232409E0,2.611102E0,-4.4956192E-1,-3.2087922E-1,-1.4799668E1,-1.0641989E1,-6.04354E0,-1.1851334E1,-6.85489E0,-2.9071033E-1,4.3299003E0,1.0204577E1,-1.1158655E1,1.0754637E0,8.747377E0,1.4304653E1,1.483949E1,2.0245079E1,1.6589073E1,2.680432E1,4.2830915E0,3.3457222E1,5.326667E-1,1.7071606E0,-2.2904526E-1,-3.7929544E-1,-2.8968522E-1,-2.0157504E-1,-2.4339776E-1,-1.1610359E-1,-3.198658E-1,-8.826027E-2,-3.011315E-1,-6.606836E-2,8.93767E-2,-3.4331806E-2,5.2205052E-2,1.5836224E-1,2.116381E-1,3.496043E-1,-7.786596E-2,-2.9419813E-1,-3.3776563E-2,2.386686E-1,1.3031462E-1,2.705392E-1,3.6587757E-1,1.0315011E-1,-4.277239E-2,3.8059223E-1,5.360352E-1,4.2218003E-1,2.9715344E-1,4.9972787E-1,6.1466736E-1,8.950936E-1,1.5110742E-1,4.346148E-3,1.3548061E-1,8.397061E-1],"categories":[],"categories_nodes":[],"categories_segments":[],"categories_sizes":[],"default_left":[0,0,0,0,0,0,0,0,0,0,0,0,0,0,0,0,0,0,0,0,0,0,0,0,0,0,0,0,0,0,0,0,0,0,0,0,0,0,0,0,0,0,0,0,0,0,0,0,0,0,0,0,0,0,0,0,0,0,0,0,0,0,0,0,0,0,0,0,0,0,0,0,0,0,0,0,0,0,0,0,0,0,0,0,0,0,0,0,0,0,0,0,0,0,0,0,0,0,0,0,0,0,0,0,0,0,0],"id":5,"left_children":[1,3,5,7,9,11,13,15,17,19,21,23,25,27,-1,-1,-1,-1,29,31,33,35,37,39,41,43,45,-1,47,-1,-1,-1,-1,49,51,53,55,57,59,61,63,65,67,-1,-1,-1,69,-1,-1,-1,-1,71,73,75,77,79,81,83,85,87,89,91,93,95,97,99,101,103,105,-1,-1,-1,-1,-1,-1,-1,-1,-1,-1,-1,-1,-1,-1,-1,-1,-1,-1,-1,-1,-1,-1,-1,-1,-1,-1,-1,-1,-1,-1,-1,-1,-1,-1,-1,-1,-1,-1],"loss_changes":[6.5509195E6,7.30551E5,1.4922262E6,7.62375E4,8.6956734E4,3.5394912E5,1.0707E5,1.253875E3,6.887875E3,1.704325E4,6.4307363E3,3.320025E4,2.84795E4,1.0609375E4,0E0,0E0,0E0,0E0,4.88625E2,1.2806406E3,1.4420078E3,1.4308699E3,1.8409673E3,3.7025312E3,3.3989219E3,2.1908438E3,4.905E2,0E0,1.255375E3,0E0,0E0,0E0,0E0,3.4617188E1,7.6228906E2,3.4765796E2,8.421488E2,9.983906E2,7.470088E2,1.0707539E3,1.5314141E3,1.0935977E3,1.4176562E3,0E0,0E0,0E0,1.273125E2,0E0,0E0,0E0,0E0,1.9621875E2,1.089834E2,2.0964502E2,7.4819824E1,5.049773E2,3.9889893E2,4.626051E2,1.6208154E2,1.9003906E0,2.594334E2,3.8049023E2,3.228164E2,6.280879E2,4.421172E2,1.17020996E2,4.209453E2,1.4449093E1,4.6898438E2,0E0,0E0,0E0,0E0,0E0,0E0,0E0,0E0,0E0,0E0,0E0,0E0,0E0,0E0,0E0,0E0,0E0,0E0,0E0,0E0,0E0,0E0,0E0,0E0,0E0,0E0,0E0,0E0,0E0,0E0,0E0,0E0,0E0,0E0,0E0,0E0,0E0,0E0],"parents":[2147483647,0,0,1,1,2,2,3,3,4,4,5,5,6,6,7,7,8,8,9,9,10,10,11,11,12,12,13,13,18,18,19,19,20,20,21,21,22,22,23,23,24,24,25,25,26,26,28,28,33,33,34,34,35,35,36,36,37,37,38,38,39,39,40,40,41,41,42,42,46,46,51,51,52,52,53,53,54,54,55,55,56,56,57,57,58,58,59,59,60,60,61,61,62,62,63,63,64,64,65,65,66,66,67,67,68,68],"right_children":[2,4,6,8,10,12,14,16,18,20,22,24,26,28,-1,-1,-1,-1,30,32,34,36,38,40,42,44,46,-1,48,-1,-1,-1,-1,50,52,54,56,58,60,62,64,66,68,-1,-1,-1,70,-1,-1,-1,-1,72,74,76,78,80,82,84,86,88,90,92,94,96,98,100,102,104,106,-1,-1,-1,-1,-1,-1,-1,-1,-1,-1,-1,-1,-1,-1,-1,-1,-1,-1,-1,-1,-1,-1,-1,-1,-1,-1,-1,-1,-1,-1,-1,-1,-1,-1,-1,-1,-1,-1],"split_conditions":[1.0322511E-1,-7.1953213E-1,1.5123867E0,-1.1211327E0,-2.8778526E-1,7.4164104E-1,2.3492174E0,-1.2441857E0,-9.268567E-1,-5.1499075E-1,-6.918017E-2,4.4589335E-1,1.0946301E0,-5.394458E-1,3.3607094E0,-1.4509448E0,-1.3305699E0,-1.0901002E0,-8.518521E-1,-5.718023E-1,-4.1231862E-1,-1.8204924E-1,5.993117E-1,2.1489832E-1,-4.6062624E-1,6.407609E-1,1.0354923E-1,1.7243601E0,1.9147663E0,-9.590559E-1,-8.38233E-1,-6.8693537E-1,-5.391101E-1,-2.6440108E-1,-4.5690767E-2,-4.3547615E-2,-1.4943191E0,3.0233133E-1,1.0529211E-1,-6.507337E-1,-3.727631E-1,5.096974E-1,-1.312035E0,1.2422651E0,9.0907735E-1,1.4963235E0,-1.106739E0,2.2232409E0,2.611102E0,-4.4956192E-1,-3.2087922E-1,-1.4751313E0,-4.228396E-1,-3.9887297E-1,-8.114917E-2,1.5160204E-1,-2.9486737E-1,1.3676896E-2,1.2542704E0,-1.8709246E0,3.1484732E-1,2.2930959E-1,1.991675E0,-2.0808806E0,-2.8064353E-3,5.7141846E-1,7.714888E-1,-1.8598152E0,-3.548221E-1,5.326667E-1,1.7071606E0,-2.2904526E-1,-3.7929544E-1,-2.8968522E-1,-2.0157504E-1,-2.4339776E-1,-1.1610359E-1,-3.198658E-1,-8.826027E-2,-3.011315E-1,-6.606836E-2,8.93767E-2,-3.4331806E-2,5.2205052E-2,1.5836224E-1,2.116381E-1,3.496043E-1,-7.786596E-2,-2.9419813E-1,-3.3776563E-2,2.386686E-1,1.3031462E-1,2.705392E-1,3.6587757E-1,1.0315011E-1,-4.277239E-2,3.8059223E-1,5.360352E-1,4.2218003E-1,2.9715344E-1,4.9972787E-1,6.1466736E-1,8.950936E-1,1.5110742E-1,4.346148E-3,1.3548061E-1,8.397061E-1],"split_indices":[3,76,56,77,3,4,77,3,76,4,3,76,76,114,0,0,0,0,76,114,3,3,45,76,33,45,59,0,10,0,0,0,0,56,104,95,110,30,8,59,33,5,22,0,0,0,63,0,0,0,0,20,15,13,8,10,58,3,97,1,8,50,64,91,113,8,6,1,61,0,0,0,0,0,0,0,0,0,0,0,0,0,0,0,0,0,0,0,0,0,0,0,0,0,0,0,0,0,0,0,0,0,0,0,0,0,0],"split_type":[0,0,0,0,0,0,0,0,0,0,0,0,0,0,0,0,0,0,0,0,0,0,0,0,0,0,0,0,0,0,0,0,0,0,0,0,0,0,0,0,0,0,0,0,0,0,0,0,0,0,0,0,0,0,0,0,0,0,0,0,0,0,0,0,0,0,0,0,0,0,0,0,0,0,0,0,0,0,0,0,0,0,0,0,0,0,0,0,0,0,0,0,0,0,0,0,0,0,0,0,0,0,0,0,0,0,0],"sum_hessian":[3.805E3,2.339E3,1.466E3,1.355E3,9.84E2,1.147E3,3.19E2,6.65E2,6.9E2,6.36E2,3.48E2,7.1E2,4.37E2,1.83E2,1.36E2,3.59E2,3.06E2,4E2,2.9E2,2.5E2,3.86E2,1.82E2,1.66E2,4.55E2,2.55E2,1.94E2,2.43E2,2.2E1,1.61E2,1.78E2,1.12E2,1.75E2,7.5E1,1.5E2,2.36E2,6.4E1,1.18E2,1.47E2,1.9E1,1.73E2,2.82E2,7.8E1,1.77E2,1.68E2,2.6E1,9.6E1,1.47E2,6.1E1,1E2,1.38E2,1.2E1,1.55E2,8.1E1,4.9E1,1.5E1,2.4E1,9.4E1,1.06E2,4.1E1,8E0,1.1E1,5.9E1,1.14E2,9.3E1,1.89E2,2E1,5.8E1,2E0,1.75E2,1E0,1.46E2,1.1E1,1.44E2,5.7E1,2.4E1,1.2E1,3.7E1,1.3E1,2E0,1E1,1.4E1,2E1,7.4E1,5.1E1,5.5E1,3E1,1.1E1,1E0,7E0,9E0,2E0,2.3E1,3.6E1,1.1E2,4E0,2E0,9.1E1,1.36E2,5.3E1,1E1,1E1,4.9E1,9E0,1E0,1E0,1E0,1.74E2],"tree_param":{"num_deleted":"0","num_feature":"115","num_nodes":"107","size_leaf_vector":"1"}},{"base_weights":[8.470518E-3,-3.2321632E1,5.0249435E1,-4.6337505E1,-1.1160648E1,3.42288E1,1.094132E2,-5.4228886E1,-3.8748543E1,-1.8042667E1,9.25974E-2,2.0094006E1,5.485364E1,9.5363556E1,3.395171E0,-1.4025272E0,-1.2698942E0,-4.1261147E1,-3.3177273E1,-2.432201E1,-1.4755912E1,-3.7526457E0,5.373661E0,1.6182674E1,3.0206778E1,4.4274384E1,6.229032E1,1.6715459E0,9.859956E1,-1.0703259E0,-9.716074E-1,-8.831747E-1,-7.206373E-1,-6.526732E-1,-5.2582306E-1,-1.7241436E1,-1.3047702E1,-7.8339343E0,-1.3529369E0,6.4384913E0,-2.647615E0,1.3195382E1,1.8619888E1,2.2889893E1,3.187945E1,4.554014E1,8.473093E-1,1.422498E0,6.567264E1,2.2377367E0,2.6197152E0,-4.4206086E-1,-3.2766718E-1,-1.4419961E1,-1.0261038E1,-5.8438497E0,-1.1625433E1,5.1633435E-1,-5.1372914E0,5.1820292E0,1.2173241E1,-2.792533E-1,1.3171264E0,1.4178337E1,8.368464E0,1.6017982E1,2.1872652E1,2.4044601E1,2.6341516E-1,3.229976E1,4.1221973E-1,9.2578346E-1,4.6822422E1,7.801698E-1,1.6538111E0,-3.708014E-1,-2.718688E-1,-2.9531693E-1,-2.0634429E-1,-6.1885294E-2,-1.9019042E-1,-2.3808728E-1,-3.6226162E-1,-1.7580947E-2,1.0537944E-1,-2.6567453E-1,-6.741131E-2,1.7676632E-1,3.27862E-2,1.1463564E-1,3.274309E-1,-2.7641946E-2,1.8746619E-1,3.6234376E-1,5.2235942E-2,3.205023E-2,2.384452E-1,4.2449346E-1,1.9384007E-1,3.9994484E-1,5.85885E-1,6.249582E-1,2.6977167E-1,4.049379E-1,8.16179E-1,1.1955566E0,8.552765E-1],"categories":[],"categories_nodes":[],"categories_segments":[],"categories_sizes":[],"default_left":[0,0,0,0,0,0,0,0,0,0,0,0,0,0,0,0,0,0,0,0,0,0,0,0,0,0,0,0,0,0,0,0,0,0,0,0,0,0,0,0,0,0,0,0,0,0,0,0,0,0,0,0,0,0,0,0,0,0,0,0,0,0,0,0,0,0,0,0,0,0,0,0,0,0,0,0,0,0,0,0,0,0,0,0,0,0,0,0,0,0,0,0,0,0,0,0,0,0,0,0,0,0,0,0,0,0,0],"id":6,"left_children":[1,3,5,7,9,11,13,15,17,19,21,23,25,27,-1,-1,-1,29,31,33,35,37,39,41,43,45,47,-1,49,-1,-1,-1,-1,-1,-1,51,53,55,57,59,61,63,65,67,69,71,-1,-1,73,-1,-1,-1,-1,75,77,79,81,83,85,87,89,-1,91,93,95,97,99,101,-1,103,-1,-1,105,-1,-1,-1,-1,-1,-1,-1,-1,-1,-1,-1,-1,-1,-1,-1,-1,-1,-1,-1,-1,-1,-1,-1,-1,-1,-1,-1,-1,-1,-1,-1,-1,-1,-1],"loss_changes":[6.1554445E6,6.8341675E5,1.4032955E6,8.12965E4,7.124966E4,3.3979612E5,1.065595E5,1.99125E3,8.781375E3,1.14621875E4,7.1208086E3,2.705425E4,3.5063125E4,1.3851625E4,0E0,0E0,0E0,4.105625E2,1.2370469E3,6.66625E2,1.3956094E3,1.970375E3,1.2790732E3,3.4387188E3,1.7320312E3,1.3141562E3,1.959125E3,0E0,2.79375E3,0E0,0E0,0E0,0E0,0E0,0E0,6.493359E1,7.291758E2,4.960713E2,9.1694824E2,8.781294E2,6.211068E2,9.726172E2,2.0151328E3,3.2311523E2,5.3628125E2,4.5296875E2,0E0,0E0,9.95875E2,0E0,0E0,0E0,0E0,6.924805E1,1.4825977E2,2.7867786E2,1.9737793E1,3.9673633E2,5.399136E2,7.812117E2,9.7661865E1,0E0,2.0344794E2,6.8239844E2,3.1965088E2,1.1132383E3,7.6839453E2,1.9545508E2,0E0,3.7584375E2,0E0,0E0,5.018125E2,0E0,0E0,0E0,0E0,0E0,0E0,0E0,0E0,0E0,0E0,0E0,0E0,0E0,0E0,0E0,0E0,0E0,0E0,0E0,0E0,0E0,0E0,0E0,0E0,0E0,0E0,0E0,0E0,0E0,0E0,0E0,0E0,0E0,0E0],"parents":[2147483647,0,0,1,1,2,2,3,3,4,4,5,5,6,6,7,7,8,8,9,9,10,10,11,11,12,12,13,13,17,17,18,18,19,19,20,20,21,21,22,22,23,23,24,24,25,25,26,26,28,28,35,35,36,36,37,37,38,38,39,39,40,40,41,41,42,42,43,43,44,44,45,45,48,48,53,53,54,54,55,55,56,56,57,57,58,58,59,59,60,60,62,62,63,63,64,64,65,65,66,66,67,67,69,69,72,72],"right_children":[2,4,6,8,10,12,14,16,18,20,22,24,26,28,-1,-1,-1,30,32,34,36,38,40,42,44,46,48,-1,50,-1,-1,-1,-1,-1,-1,52,54,56,58,60,62,64,66,68,70,72,-1,-1,74,-1,-1,-1,-1,76,78,80,82,84,86,88,90,-1,92,94,96,98,100,102,-1,104,-1,-1,106,-1,-1,-1,-1,-1,-1,-1,-1,-1,-1,-1,-1,-1,-1,-1,-1,-1,-1,-1,-1,-1,-1,-1,-1,-1,-1,-1,-1,-1,-1,-1,-1,-1,-1],"split_conditions":[1.0101836E-1,-6.979768E-1,1.5123867E0,-1.0644568E0,-2.8823304E-1,7.0237803E-1,2.5286763E0,-1.2240406E0,-8.7227356E-1,-5.1379544E-1,-5.507042E-2,4.631518E-1,1.076814E0,-1.0303094E0,3.395171E0,-1.4025272E0,-1.2698942E0,-9.613805E-1,6.3469523E-1,-5.645376E-1,-4.1231862E-1,-1.8204924E-1,4.7222257E-1,2.5759742E-1,-7.527789E-1,3.5088944E-1,-1.05132505E-1,1.6715459E0,1.9968032E0,-1.0703259E0,-9.716074E-1,-8.831747E-1,-7.206373E-1,-6.526732E-1,-5.2582306E-1,1.1953014E0,-4.5690767E-2,-1.22500494E-1,2.9244968E-1,3.558194E-1,1.1443578E-2,6.7080253E-1,3.854637E-1,6.766244E-1,9.354804E-1,7.4164104E-1,8.473093E-1,1.422498E0,-1.3510965E0,2.2377367E0,2.6197152E0,-4.4206086E-1,-3.2766718E-1,-2.959799E-1,-4.5262218E-1,-1.2676525E-1,3.563177E-1,-5.5334372E-3,-4.533057E-2,1.3767734E-1,-2.3670266E0,-2.792533E-1,4.9630392E-1,3.5379764E-1,2.331079E-1,1.1391628E0,-7.970355E-1,1.3216295E0,2.6341516E-1,-1.5597756E0,4.1221973E-1,9.2578346E-1,5.611431E-1,7.801698E-1,1.6538111E0,-3.708014E-1,-2.718688E-1,-2.9531693E-1,-2.0634429E-1,-6.1885294E-2,-1.9019042E-1,-2.3808728E-1,-3.6226162E-1,-1.7580947E-2,1.0537944E-1,-2.6567453E-1,-6.741131E-2,1.7676632E-1,3.27862E-2,1.1463564E-1,3.274309E-1,-2.7641946E-2,1.8746619E-1,3.6234376E-1,5.2235942E-2,3.205023E-2,2.384452E-1,4.2449346E-1,1.9384007E-1,3.9994484E-1,5.85885E-1,6.249582E-1,2.6977167E-1,4.049379E-1,8.16179E-1,1.1955566E0,8.552765E-1],"split_indices":[2,2,56,2,5,3,6,3,3,5,2,3,5,104,0,0,0,2,69,114,3,3,45,3,114,46,22,0,77,0,0,0,0,0,0,62,104,112,58,58,7,66,33,66,46,4,0,0,64,0,0,0,0,8,111,47,112,14,9,10,20,0,10,83,11,54,46,75,0,104,0,0,60,0,0,0,0,0,0,0,0,0,0,0,0,0,0,0,0,0,0,0,0,0,0,0,0,0,0,0,0,0,0,0,0,0,0],"split_type":[0,0,0,0,0,0,0,0,0,0,0,0,0,0,0,0,0,0,0,0,0,0,0,0,0,0,0,0,0,0,0,0,0,0,0,0,0,0,0,0,0,0,0,0,0,0,0,0,0,0,0,0,0,0,0,0,0,0,0,0,0,0,0,0,0,0,0,0,0,0,0,0,0,0,0,0,0,0,0,0,0,0,0,0,0,0,0,0,0,0,0,0,0,0,0,0,0,0,0,0,0,0,0,0,0,0,0],"sum_hessian":[3.788E3,2.305E3,1.483E3,1.386E3,9.19E2,1.168E3,3.15E2,6.77E2,7.09E2,5.7E2,3.49E2,6.94E2,4.74E2,2.08E2,1.07E2,4.3E2,2.47E2,4.85E2,2.24E2,1.94E2,3.76E2,2.02E2,1.47E2,5.02E2,1.92E2,1.98E2,2.76E2,2.3E1,1.85E2,2.86E2,1.99E2,1.46E2,7.8E1,1.22E2,7.2E1,1.5E2,2.26E2,7.4E1,1.28E2,1.3E2,1.7E1,2.28E2,2.74E2,3.8E1,1.54E2,1.74E2,2.4E1,1.12E2,1.64E2,8E1,1.05E2,1.33E2,1.7E1,1.49E2,7.7E1,5E1,2.4E1,8.6E1,4.2E1,1.08E2,2.2E1,5E0,1.2E1,1.88E2,4E1,1.55E2,1.19E2,3.4E1,4E0,1.49E2,5E0,2.6E1,1.48E2,3E0,1.61E2,1.31E2,1.8E1,4.1E1,3.6E1,1.8E1,3.2E1,1.6E1,8E0,6.5E1,2.1E1,1.2E1,3E1,7.2E1,3.6E1,3E0,1.9E1,9E0,3E0,1.83E2,5E0,6E0,3.4E1,1.38E2,1.7E1,2.7E1,9.2E1,3.1E1,3E0,4E0,1.45E2,1.35E2,1.3E1],"tree_param":{"num_deleted":"0","num_feature":"115","num_nodes":"107","size_leaf_vector":"1"}},{"base_weights":[3.7143603E-1,-3.2036686E1,4.799339E1,-4.520239E1,-1.1818337E1,3.1681013E1,1.0497304E2,-5.322129E1,-3.8042473E1,-1.7443398E1,-1.3182875E0,1.9550852E1,5.454903E1,8.9525345E1,3.1913166E0,-1.3871189E0,-1.273065E0,-4.0550903E1,-3.2382595E1,-2.3762524E1,-1.4215182E1,-4.952177E0,2.3635767E0,1.5486784E1,2.9964188E1,4.452519E1,6.0628918E1,1.7819136E0,9.50921E1,-1.0769672E0,-9.7236675E-1,-8.6079705E-1,-7.106695E-1,-5.281263E-1,-6.3730633E-1,-4.417958E-1,-1.3142778E1,-3.190987E0,-1.0312744E1,4.834527E0,-2.1639073E0,1.2329537E1,1.8790287E1,2.4749384E1,3.224825E1,4.6196396E1,8.32969E-1,1.3679833E0,6.374812E1,1.5029632E0,2.4039848E0,-1.3952971E1,-9.451762E0,-4.4369946E0,-1.1109174E-1,5.7339843E-2,-1.1442741E1,1.6063097E0,6.1543245E0,-2.4756336E-1,-9.225016E0,1.1556953E1,1.965172E1,1.666565E1,2.2359768E1,2.3089365E1,1.0007595E0,1.2985203E-1,8.0989426E-1,6.963428E-1,1.1678299E0,6.980414E-1,1.6011992E0,-3.5660568E-1,-1.9644889E-1,-2.5601456E-1,-8.358687E-2,-2.1729687E-1,-7.77676E-2,1.7954989E-1,-2.4442581E-2,-3.797934E-1,-2.1842563E-1,1.2534174E-1,-4.6554017E-3,1.650343E-1,4.693524E-4,1.718582E-1,-3.2513782E-2,-6.852383E-2,-2.7738512E-1,2.5312474E-1,3.4887624E-1,6.0993594E-1,3.607752E-1,8.940438E-2,4.256323E-1,8.108469E-2,5.678095E-1,3.4089568E-1,6.003915E-1],"categories":[],"categories_nodes":[],"categories_segments":[],"categories_sizes":[],"default_left":[0,0,0,0,0,0,0,0,0,0,0,0,0,0,0,0,0,0,0,0,0,0,0,0,0,0,0,0,0,0,0,0,0,0,0,0,0,0,0,0,0,0,0,0,0,0,0,0,0,0,0,0,0,0,0,0,0,0,0,0,0,0,0,0,0,0,0,0,0,0,0,0,0,0,0,0,0,0,0,0,0,0,0,0,0,0,0,0,0,0,0,0,0,0,0,0,0,0,0,0,0],"id":7,"left_children":[1,3,5,7,9,11,13,15,17,19,21,23,25,27,-1,-1,-1,29,31,33,35,37,39,41,43,45,47,-1,49,-1,-1,-1,-1,-1,-1,-1,51,53,55,57,59,61,63,65,67,69,-1,-1,71,-1,-1,73,75,77,79,-1,81,83,85,87,89,91,93,95,97,99,-1,-1,-1,-1,-1,-1,-1,-1,-1,-1,-1,-1,-1,-1,-1,-1,-1,-1,-1,-1,-1,-1,-1,-1,-1,-1,-1,-1,-1,-1,-1,-1,-1,-1,-1],"loss_changes":[5.910376E6,6.0611775E5,1.4386578E6,7.7528E4,5.311185E4,3.3384525E5,1.114835E5,1.030375E3,9.280875E3,1.1649406E4,4.223298E3,3.3017125E4,2.32185E4,1.555425E4,0E0,0E0,0E0,7.0325E2,1.0214844E3,4.2971094E2,1.2345E3,1.4620984E3,1.7646565E3,5.7327656E3,1.9458438E3,1.7165312E3,1.866625E3,0E0,1.103125E3,0E0,0E0,0E0,0E0,0E0,0E0,0E0,7.7529297E2,4.595459E2,5.810259E2,4.1961157E2,7.456532E2,1.4553633E3,1.7698672E3,1.0060508E3,4.3717188E2,2.0571875E2,0E0,0E0,2.55375E2,0E0,0E0,3.5704297E2,2.3542285E2,4.531151E2,2.2691985E2,0E0,2.3781787E2,1.927285E2,1.9154321E2,3.3866043E2,1.07708435E2,7.873242E2,3.5127148E2,7.6710156E2,5.997578E2,2.8409766E2,0E0,0E0,0E0,0E0,0E0,0E0,0E0,0E0,0E0,0E0,0E0,0E0,0E0,0E0,0E0,0E0,0E0,0E0,0E0,0E0,0E0,0E0,0E0,0E0,0E0,0E0,0E0,0E0,0E0,0E0,0E0,0E0,0E0,0E0,0E0],"parents":[2147483647,0,0,1,1,2,2,3,3,4,4,5,5,6,6,7,7,8,8,9,9,10,10,11,11,12,12,13,13,17,17,18,18,19,19,20,20,21,21,22,22,23,23,24,24,25,25,26,26,28,28,36,36,37,37,38,38,39,39,40,40,41,41,42,42,43,43,44,44,45,45,48,48,51,51,52,52,53,53,54,54,56,56,57,57,58,58,59,59,60,60,61,61,62,62,63,63,64,64,65,65],"right_children":[2,4,6,8,10,12,14,16,18,20,22,24,26,28,-1,-1,-1,30,32,34,36,38,40,42,44,46,48,-1,50,-1,-1,-1,-1,-1,-1,-1,52,54,56,58,60,62,64,66,68,70,-1,-1,72,-1,-1,74,76,78,80,-1,82,84,86,88,90,92,94,96,98,100,-1,-1,-1,-1,-1,-1,-1,-1,-1,-1,-1,-1,-1,-1,-1,-1,-1,-1,-1,-1,-1,-1,-1,-1,-1,-1,-1,-1,-1,-1,-1,-1,-1,-1,-1],"split_conditions":[5.975642E-2,-6.979768E-1,1.4642991E0,-1.121167E0,-2.8778526E-1,7.416542E-1,2.3492174E0,-1.2560706E0,-8.7227356E-1,-5.1499075E-1,-1.0752048E-1,4.6731406E-1,1.0715053E0,1.6390771E0,3.1913166E0,-1.3871189E0,-1.273065E0,-9.954113E-1,6.3469523E-1,1.9146702E-1,-4.45732E-1,6.2463504E-1,2.4774753E-2,2.5759742E-1,-4.815819E-1,3.5088944E-1,-1.4132473E-1,1.7819136E0,-8.237151E-1,-1.0769672E0,-9.7236675E-1,-8.6079705E-1,-7.106695E-1,-5.281263E-1,-6.3730633E-1,-4.417958E-1,2.6556846E-1,6.720962E-1,-9.696195E-1,-6.8532065E-2,2.5703463E-1,1.1437187E0,3.1836492E-1,9.21222E-1,-1.1444205E0,-1.2113799E0,8.32969E-1,1.3679833E0,-1.3510965E0,1.5029632E0,2.4039848E0,-2.0184153E-1,-4.0770146E-1,-4.7611958E-1,-8.6173075E-1,5.7339843E-2,-1.171033E0,-9.509364E-1,5.360909E-1,-8.1815374E-1,-8.3855756E-2,2.3675434E-1,8.758593E-1,-8.836315E-1,-2.4825711E0,5.096974E-1,1.0007595E0,1.2985203E-1,8.0989426E-1,6.963428E-1,1.1678299E0,6.980414E-1,1.6011992E0,-3.5660568E-1,-1.9644889E-1,-2.5601456E-1,-8.358687E-2,-2.1729687E-1,-7.77676E-2,1.7954989E-1,-2.4442581E-2,-3.797934E-1,-2.1842563E-1,1.2534174E-1,-4.6554017E-3,1.650343E-1,4.693524E-4,1.718582E-1,-3.2513782E-2,-6.852383E-2,-2.7738512E-1,2.5312474E-1,3.4887624E-1,6.0993594E-1,3.607752E-1,8.940438E-2,4.256323E-1,8.108469E-2,5.678095E-1,3.4089568E-1,6.003915E-1],"split_indices":[3,2,56,3,3,3,77,3,3,4,3,2,3,50,0,0,0,3,69,46,3,111,45,3,33,46,23,0,24,0,0,0,0,0,0,0,29,27,45,5,102,47,101,56,28,75,0,0,64,0,0,89,12,75,45,0,110,111,66,64,4,23,12,68,29,5,0,0,0,0,0,0,0,0,0,0,0,0,0,0,0,0,0,0,0,0,0,0,0,0,0,0,0,0,0,0,0,0,0,0,0],"split_type":[0,0,0,0,0,0,0,0,0,0,0,0,0,0,0,0,0,0,0,0,0,0,0,0,0,0,0,0,0,0,0,0,0,0,0,0,0,0,0,0,0,0,0,0,0,0,0,0,0,0,0,0,0,0,0,0,0,0,0,0,0,0,0,0,0,0,0,0,0,0,0,0,0,0,0,0,0,0,0,0,0,0,0,0,0,0,0,0,0,0,0,0,0,0,0,0,0,0,0,0,0],"sum_hessian":[3.828E3,2.278E3,1.55E3,1.379E3,8.99E2,1.206E3,3.44E2,6.48E2,7.31E2,5.85E2,3.14E2,7.89E2,4.17E2,2.07E2,1.37E2,3.17E2,3.31E2,5.03E2,2.28E2,1.96E2,3.89E2,1.58E2,1.56E2,5.69E2,2.2E2,1.6E2,2.57E2,5.1E1,1.56E2,1.91E2,3.12E2,1.46E2,8.2E1,8.2E1,1.14E2,8.9E1,3E2,1.2E2,3.8E1,1.01E2,5.5E1,2.93E2,2.76E2,7E1,1.5E2,1.37E2,2.3E1,9.4E1,1.63E2,6E0,1.5E2,2.44E2,5.6E1,8.5E1,3.5E1,3E0,3.5E1,3E1,7.1E1,4.4E1,1.1E1,2.67E2,2.6E1,1.76E2,1E2,6.5E1,5E0,1E0,1.49E2,5E0,1.32E2,2E0,1.61E2,2.31E2,1.3E1,4.9E1,7E0,1.9E1,6.6E1,3E0,3.2E1,1.3E1,2.2E1,1E1,2E1,6.6E1,5E0,5E0,3.9E1,3E0,8E0,1.7E2,9.7E1,1.2E1,1.4E1,5E0,1.71E2,2E0,9.8E1,7E0,5.8E1],"tree_param":{"num_deleted":"0","num_feature":"115","num_nodes":"101","size_leaf_vector":"1"}},{"base_weights":[7.3619545E-2,-3.1582756E1,4.5503754E1,-4.413531E1,-1.1842311E1,2.4648056E1,8.448484E1,-5.159603E1,-3.6794083E1,-1.7273165E1,-1.5510056E0,1.539705E1,3.893628E1,6.634574E1,1.1184658E2,-1.3342535E0,-1.2015871E0,-3.9259888E1,-3.1741072E1,-2.3370428E1,-1.3983807E1,-7.1883273E0,3.847282E-1,1.2354415E1,2.0518496E1,3.0448824E1,4.5710777E1,6.1168705E1,2.077644E0,9.811597E1,3.217009E0,-1.018523E0,-9.244437E-1,-8.4036845E-1,-6.931981E-1,-6.2770814E-1,-4.9586055E-1,-1.6169992E1,-1.244739E1,-5.043183E0,-1.0872597E1,-1.5431676E0,3.140002E0,8.669031E0,1.3966616E1,1.6679249E1,2.3502054E1,2.780332E1,3.4056953E1,4.1926075E1,1.2855061E0,7.8258455E-1,1.5385126E0,1.4109077E0,2.4783137E0,-1.5504751E1,-1.9354748E1,-1.3391136E1,-9.326841E0,-6.046906E0,-1.6229477E0,-2.1022344E-1,-3.5134053E-1,1.0011408E0,-3.6334038E0,5.7601023E0,-2.0881212E0,1.014406E1,4.394861E0,1.068773E1,1.530959E1,1.8966944E1,9.850528E0,7.0994633E-1,2.1549738E1,7.691218E-1,2.282814E1,4.1241607E-1,8.65279E-1,4.3667267E1,8.3452666E-1,-3.9827597E-1,-2.734989E-1,-5.0779223E-1,-2.5208423E-1,-3.4466106E-1,-1.7738973E-1,-2.546216E-1,-1.11847214E-1,-2.2437878E-1,-9.665186E-2,2.7163855E-3,-5.6088317E-2,-5.1262088E-2,6.681527E-2,-1.6431315E-1,-4.260723E-2,1.5881771E-1,3.6981242E-4,-2.5342602E-1,1.19623635E-2,3.1754267E-1,2.185961E-1,2.9783288E-1,6.677539E-2,2.835752E-1,9.970974E-3,2.713662E-1,4.0368977E-1,1.5103582E-1,4.9471483E-1,2.934089E-1,9.2719525E-2,4.72579E-1,6.131131E-1,3.4203875E-1,5.926028E-1,9.011842E-1,1.1435978E0],"categories":[],"categories_nodes":[],"categories_segments":[],"categories_sizes":[],"default_left":[0,0,0,0,0,0,0,0,0,0,0,0,0,0,0,0,0,0,0,0,0,0,0,0,0,0,0,0,0,0,0,0,0,0,0,0,0,0,0,0,0,0,0,0,0,0,0,0,0,0,0,0,0,0,0,0,0,0,0,0,0,0,0,0,0,0,0,0,0,0,0,0,0,0,0,0,0,0,0,0,0,0,0,0,0,0,0,0,0,0,0,0,0,0,0,0,0,0,0,0,0,0,0,0,0,0,0,0,0,0,0,0,0,0,0,0,0,0,0],"id":8,"left_children":[1,3,5,7,9,11,13,15,17,19,21,23,25,27,29,-1,-1,31,33,35,37,39,41,43,45,47,49,51,-1,53,-1,-1,-1,-1,-1,-1,-1,55,57,59,61,63,65,67,69,71,73,75,77,79,-1,-1,-1,-1,-1,81,83,85,87,89,91,-1,-1,93,95,97,99,101,103,105,107,109,111,-1,113,-1,115,-1,-1,117,-1,-1,-1,-1,-1,-1,-1,-1,-1,-1,-1,-1,-1,-1,-1,-1,-1,-1,-1,-1,-1,-1,-1,-1,-1,-1,-1,-1,-1,-1,-1,-1,-1,-1,-1,-1,-1,-1,-1],"loss_changes":[5.4974955E6,5.5776525E5,1.2744595E6,7.381925E4,4.8968383E4,1.3480331E5,2.65307E5,2.133375E3,7.6281875E3,1.1216859E4,3.3228286E3,9.475797E3,2.1928375E4,2.452025E4,3.982875E4,0E0,0E0,3.03625E2,9.557656E2,7.934453E2,1.075E3,5.5827734E2,1.2098884E3,2.2188828E3,2.2979844E3,9.1878125E2,2.9934375E3,1.224875E3,0E0,6.02875E2,0E0,0E0,0E0,0E0,0E0,0E0,0E0,5.3648438E1,5.41E2,1.6040796E2,1.0535669E2,7.165917E2,1.2974519E3,7.2059375E2,1.0451602E3,1.4490469E3,6.92E2,9.98375E2,2.1083594E2,8.225E2,0E0,0E0,0E0,0E0,0E0,9.16543E1,1.4121094E1,3.2760938E2,1.8000488E2,2.0974524E2,1.565789E1,0E0,0E0,3.1500424E2,4.0285632E2,2.0864624E2,6.68547E2,2.1559082E2,3.879854E2,5.3848926E2,5.5047656E2,6.993281E2,2.7480908E2,0E0,3.407461E2,0E0,6.157617E1,0E0,0E0,3.8451562E2,0E0,0E0,0E0,0E0,0E0,0E0,0E0,0E0,0E0,0E0,0E0,0E0,0E0,0E0,0E0,0E0,0E0,0E0,0E0,0E0,0E0,0E0,0E0,0E0,0E0,0E0,0E0,0E0,0E0,0E0,0E0,0E0,0E0,0E0,0E0,0E0,0E0,0E0,0E0],"parents":[2147483647,0,0,1,1,2,2,3,3,4,4,5,5,6,6,7,7,8,8,9,9,10,10,11,11,12,12,13,13,14,14,17,17,18,18,19,19,20,20,21,21,22,22,23,23,24,24,25,25,26,26,27,27,29,29,37,37,38,38,39,39,40,40,41,41,42,42,43,43,44,44,45,45,46,46,47,47,48,48,49,49,55,55,56,56,57,57,58,58,59,59,60,60,63,63,64,64,65,65,66,66,67,67,68,68,69,69,70,70,71,71,72,72,74,74,76,76,79,79],"right_children":[2,4,6,8,10,12,14,16,18,20,22,24,26,28,30,-1,-1,32,34,36,38,40,42,44,46,48,50,52,-1,54,-1,-1,-1,-1,-1,-1,-1,56,58,60,62,64,66,68,70,72,74,76,78,80,-1,-1,-1,-1,-1,82,84,86,88,90,92,-1,-1,94,96,98,100,102,104,106,108,110,112,-1,114,-1,116,-1,-1,118,-1,-1,-1,-1,-1,-1,-1,-1,-1,-1,-1,-1,-1,-1,-1,-1,-1,-1,-1,-1,-1,-1,-1,-1,-1,-1,-1,-1,-1,-1,-1,-1,-1,-1,-1,-1,-1,-1,-1],"split_conditions":[4.480741E-2,-6.952537E-1,1.1432033E0,-1.0644568E0,-2.8778526E-1,5.265576E-1,1.9100626E0,-1.2185233E0,-8.7227356E-1,-5.1499075E-1,-1.8204924E-1,3.0030823E-1,7.4164104E-1,1.6128792E0,2.5078967E0,-1.3342535E0,-1.2015871E0,-9.613805E-1,6.3469523E-1,-5.759757E-1,-4.1231862E-1,6.2463504E-1,-5.507042E-2,1.5453278E-1,-2.0035057E-1,1.1622605E-1,9.9454045E-1,-1.3510965E0,2.077644E0,-6.4009047E-1,3.217009E0,-1.018523E0,-9.244437E-1,-8.4036845E-1,-6.931981E-1,-6.2770814E-1,-4.9586055E-1,5.9109807E-1,1.7881863E-1,7.2040695E-1,3.563177E-1,-1.129598E-1,9.388375E-2,2.835184E-1,-8.40284E-1,2.5029168E-1,-7.5796956E-1,5.437856E-1,-8.7993044E-1,6.407609E-1,1.2855061E0,7.8258455E-1,1.5385126E0,1.4109077E0,2.4783137E0,-4.0598664E-1,1.3560606E0,-2.0184153E-1,-4.0770146E-1,-7.745801E-2,-6.1899877E-1,-2.1022344E-1,-3.5134053E-1,-3.8383085E-1,-5.13906E-3,5.360909E-1,3.5862993E-2,4.850324E-2,-1.3576833E0,9.3536186E-1,-1.2314699E0,-8.368718E-1,-6.45297E-1,7.0994633E-1,5.7217973E-1,7.691218E-1,-1.428814E-1,4.1241607E-1,8.65279E-1,-5.254613E-1,8.3452666E-1,-3.9827597E-1,-2.734989E-1,-5.0779223E-1,-2.5208423E-1,-3.4466106E-1,-1.7738973E-1,-2.546216E-1,-1.11847214E-1,-2.2437878E-1,-9.665186E-2,2.7163855E-3,-5.6088317E-2,-5.1262088E-2,6.681527E-2,-1.6431315E-1,-4.260723E-2,1.5881771E-1,3.6981242E-4,-2.5342602E-1,1.19623635E-2,3.1754267E-1,2.185961E-1,2.9783288E-1,6.677539E-2,2.835752E-1,9.970974E-3,2.713662E-1,4.0368977E-1,1.5103582E-1,4.9471483E-1,2.934089E-1,9.2719525E-2,4.72579E-1,6.131131E-1,3.4203875E-1,5.926028E-1,9.011842E-1,1.1435978E0],"split_indices":[3,5,5,2,3,3,3,3,3,4,3,3,4,3,4,0,0,2,69,114,3,111,2,3,64,64,3,64,0,61,0,0,0,0,0,0,0,44,22,20,112,8,45,56,33,48,112,13,45,45,0,0,0,0,0,8,46,89,12,75,114,0,0,15,56,66,56,12,97,109,46,60,26,0,20,0,58,0,0,69,0,0,0,0,0,0,0,0,0,0,0,0,0,0,0,0,0,0,0,0,0,0,0,0,0,0,0,0,0,0,0,0,0,0,0,0,0,0,0],"split_type":[0,0,0,0,0,0,0,0,0,0,0,0,0,0,0,0,0,0,0,0,0,0,0,0,0,0,0,0,0,0,0,0,0,0,0,0,0,0,0,0,0,0,0,0,0,0,0,0,0,0,0,0,0,0,0,0,0,0,0,0,0,0,0,0,0,0,0,0,0,0,0,0,0,0,0,0,0,0,0,0,0,0,0,0,0,0,0,0,0,0,0,0,0,0,0,0,0,0,0,0,0,0,0,0,0,0,0,0,0,0,0,0,0,0,0,0,0,0,0],"sum_hessian":[3.821E3,2.252E3,1.569E3,1.376E3,8.76E2,1.023E3,5.46E2,6.8E2,6.96E2,5.73E2,3.03E2,6.22E2,4.01E2,3.3E2,2.16E2,4.45E2,2.35E2,4.64E2,2.32E2,1.99E2,3.74E2,7.7E1,2.26E2,3.92E2,2.3E2,1.8E2,2.21E2,2.55E2,7.5E1,1.22E2,9.4E1,2.73E2,1.91E2,1.54E2,7.8E1,1.3E2,6.9E1,1.51E2,2.23E2,5E1,2.7E1,1.33E2,9.3E1,1.21E2,2.71E2,1.03E2,1.27E2,1.08E2,7.2E1,1.37E2,8.4E1,4E0,2.51E2,4E0,1.18E2,1.29E2,2.2E1,1.69E2,5.4E1,3.8E1,1.2E1,1.7E1,1E1,6E1,7.3E1,6.2E1,3.1E1,8.9E1,3.2E1,8.1E1,1.9E2,7.6E1,2.7E1,3.3E1,9.4E1,6.5E1,4.3E1,3E0,6.9E1,1.11E2,2.6E1,1.16E2,1.3E1,1.9E1,3E0,1.58E2,1.1E1,4.5E1,9E0,1.5E1,2.3E1,3E0,9E0,2.1E1,3.9E1,2.8E1,4.5E1,5.6E1,6E0,7E0,2.4E1,2.9E1,6E1,5E0,2.7E1,7.6E1,5E0,3.2E1,1.58E2,5E0,7.1E1,2E1,7E0,5.3E1,4.1E1,5E0,3.8E1,2.7E1,8.4E1],"tree_param":{"num_deleted":"0","num_feature":"115","num_nodes":"119","size_leaf_vector":"1"}},{"base_weights":[6.451299E-1,-3.0037294E1,4.6832478E1,-4.3579975E1,-1.0887512E1,3.1881807E1,1.0175781E2,-5.057956E1,-3.6904606E1,-1.7254868E1,3.8294732E-3,1.9900043E1,5.2588654E1,8.896994E1,3.14517E0,-1.3231133E0,-1.2107925E0,-9.9094373E-1,-3.3592613E1,-2.3593327E1,-1.3780714E1,-3.2747848E0,4.976701E0,1.5331037E1,2.8993605E1,4.2395054E1,5.794295E1,1.5756211E0,9.151704E1,-8.640957E-1,-7.2118276E-1,-6.228566E-1,-4.88813E-1,-1.623958E1,-1.2019393E1,-6.8399663E0,-1.233358E0,6.94477E0,2.0746684E0,1.1126036E1,1.698948E1,3.202464E1,2.4532528E1,8.9421445E-1,1.1042606E0,1.3259043E0,6.0404087E1,2.1374464E0,2.499359E0,-1.7355227E1,-3.6938724E-1,-1.3401118E1,-9.474609E0,-7.8106008E0,-2.6464727E0,4.394047E-1,-4.656861E0,5.910277E0,2.745414E-1,-1.8525872E0,6.108435E0,1.2041073E1,6.465677E0,1.5213583E1,2.0063723E1,7.441167E-1,3.5855457E1,2.1903122E1,7.899928E-1,8.836507E-1,6.0942196E1,-2.350292E-1,-4.410614E-1,-3.4264776E-1,-1.6153139E-1,-2.399534E-1,-7.182812E-2,-2.61314E-1,-1.4417057E-1,-1.4764845E-1,-2.6834253E-2,1.1772674E-1,-9.176376E-3,-2.3397945E-1,-5.0295603E-2,1.6597095E-1,5.755787E-2,-1.8875854E-1,3.1639938E-3,2.7850037E-2,2.3938052E-1,2.0480862E-1,3.19431E-1,3.3411974E-4,1.9030999E-1,-4.430383E-2,3.8800573E-1,5.348797E-1,3.0562478E-1,9.2805064E-1,5.793776E-1,4.570488E-1,6.5937406E-1,1.2390786E0,1.5550045E0],"categories":[],"categories_nodes":[],"categories_segments":[],"categories_sizes":[],"default_left":[0,0,0,0,0,0,0,0,0,0,0,0,0,0,0,0,0,0,0,0,0,0,0,0,0,0,0,0,0,0,0,0,0,0,0,0,0,0,0,0,0,0,0,0,0,0,0,0,0,0,0,0,0,0,0,0,0,0,0,0,0,0,0,0,0,0,0,0,0,0,0,0,0,0,0,0,0,0,0,0,0,0,0,0,0,0,0,0,0,0,0,0,0,0,0,0,0,0,0,0,0,0,0,0,0],"id":9,"left_children":[1,3,5,7,9,11,13,15,17,19,21,23,25,27,-1,-1,-1,-1,29,31,33,35,37,39,41,43,45,-1,47,-1,-1,-1,-1,49,51,53,55,57,59,61,63,65,67,-1,-1,-1,69,-1,-1,71,-1,73,75,77,79,81,83,85,-1,87,89,91,93,95,97,-1,99,101,-1,-1,103,-1,-1,-1,-1,-1,-1,-1,-1,-1,-1,-1,-1,-1,-1,-1,-1,-1,-1,-1,-1,-1,-1,-1,-1,-1,-1,-1,-1,-1,-1,-1,-1,-1,-1],"loss_changes":[5.3959065E6,5.928934E5,1.2453128E6,6.103875E4,6.581223E4,2.9578838E5,9.0761E4,1.151375E3,5.111375E3,1.2896031E4,5.733887E3,3.1136E4,2.18495E4,9.457125E3,0E0,0E0,0E0,0E0,6.1165625E2,6.9989844E2,1.5050703E3,1.5282847E3,7.797117E2,3.3605703E3,2.7445E3,4.815E2,7.85625E2,0E0,2.87925E3,0E0,0E0,0E0,0E0,3.0167969E1,6.8814453E2,2.8770117E2,7.8269794E2,2.8034668E2,9.2810425E2,5.446621E2,1.7028516E3,3.733125E2,1.3695234E3,0E0,0E0,0E0,6.780625E2,0E0,0E0,4.1695312E1,0E0,2.2353516E2,3.6296875E1,2.7249585E2,7.035921E1,3.209525E2,5.330535E2,1.5883984E2,0E0,3.427489E2,4.8157666E2,2.417461E2,1.8471252E2,1.2455625E3,1.1185781E3,0E0,7.938672E1,8.707539E2,0E0,0E0,3.75E0,0E0,0E0,0E0,0E0,0E0,0E0,0E0,0E0,0E0,0E0,0E0,0E0,0E0,0E0,0E0,0E0,0E0,0E0,0E0,0E0,0E0,0E0,0E0,0E0,0E0,0E0,0E0,0E0,0E0,0E0,0E0,0E0,0E0,0E0],"parents":[2147483647,0,0,1,1,2,2,3,3,4,4,5,5,6,6,7,7,8,8,9,9,10,10,11,11,12,12,13,13,18,18,19,19,20,20,21,21,22,22,23,23,24,24,25,25,26,26,28,28,33,33,34,34,35,35,36,36,37,37,38,38,39,39,40,40,41,41,42,42,46,46,49,49,51,51,52,52,53,53,54,54,55,55,56,56,57,57,59,59,60,60,61,61,62,62,63,63,64,64,66,66,67,67,70,70],"right_children":[2,4,6,8,10,12,14,16,18,20,22,24,26,28,-1,-1,-1,-1,30,32,34,36,38,40,42,44,46,-1,48,-1,-1,-1,-1,50,52,54,56,58,60,62,64,66,68,-1,-1,-1,70,-1,-1,72,-1,74,76,78,80,82,84,86,-1,88,90,92,94,96,98,-1,100,102,-1,-1,104,-1,-1,-1,-1,-1,-1,-1,-1,-1,-1,-1,-1,-1,-1,-1,-1,-1,-1,-1,-1,-1,-1,-1,-1,-1,-1,-1,-1,-1,-1,-1,-1,-1,-1],"split_conditions":[1.0101836E-1,-7.1953213E-1,1.5123867E0,-1.121167E0,-2.8778526E-1,7.941191E-1,2.5286763E0,-1.2633384E0,-9.284878E-1,-5.2688825E-1,-5.507042E-2,4.6731406E-1,1.0431261E0,-5.394458E-1,3.14517E0,-1.3231133E0,-1.2107925E0,-9.9094373E-1,-7.9905665E-1,-5.5182767E-1,-4.1231862E-1,-1.8204924E-1,-4.3394774E-2,2.0383625E-1,5.499581E-1,-5.254613E-1,-1.05132505E-1,1.5756211E0,2.0852072E0,-8.640957E-1,-7.2118276E-1,-6.228566E-1,-4.88813E-1,-4.5294017E-1,-7.854703E-2,1.2470288E0,2.5561717E-1,1.9610386E-1,2.9817598E-2,3.115952E-1,4.084916E-1,6.386404E-1,7.2227705E-1,8.9421445E-1,1.1042606E0,1.3259043E0,-1.819344E0,2.1374464E0,2.499359E0,-9.691496E-1,-3.6938724E-1,-1.6157904E-1,2.5662615E0,8.763274E-2,-3.4677E-1,-6.933572E-1,-4.968084E-2,7.088545E-2,2.745414E-1,-5.131893E-2,1.5005094E-1,-1.1613805E0,2.2947621E-1,-2.066074E0,1.3581508E-2,7.441167E-1,6.036203E-1,-1.7532012E-1,7.899928E-1,8.836507E-1,1.1277815E0,-2.350292E-1,-4.410614E-1,-3.4264776E-1,-1.6153139E-1,-2.399534E-1,-7.182812E-2,-2.61314E-1,-1.4417057E-1,-1.4764845E-1,-2.6834253E-2,1.1772674E-1,-9.176376E-3,-2.3397945E-1,-5.0295603E-2,1.6597095E-1,5.755787E-2,-1.8875854E-1,3.1639938E-3,2.7850037E-2,2.3938052E-1,2.0480862E-1,3.19431E-1,3.3411974E-4,1.9030999E-1,-4.430383E-2,3.8800573E-1,5.348797E-1,3.0562478E-1,9.2805064E-1,5.793776E-1,4.570488E-1,6.5937406E-1,1.2390786E0,1.5550045E0],"split_indices":[2,76,56,3,3,76,6,3,3,5,2,2,76,114,0,0,0,0,76,114,3,3,48,76,13,69,22,0,2,0,0,0,0,2,104,34,60,58,5,98,40,3,7,0,0,0,96,0,0,31,0,89,0,75,56,24,49,51,0,89,58,53,11,28,114,0,11,34,0,0,6,0,0,0,0,0,0,0,0,0,0,0,0,0,0,0,0,0,0,0,0,0,0,0,0,0,0,0,0,0,0,0,0,0,0],"split_type":[0,0,0,0,0,0,0,0,0,0,0,0,0,0,0,0,0,0,0,0,0,0,0,0,0,0,0,0,0,0,0,0,0,0,0,0,0,0,0,0,0,0,0,0,0,0,0,0,0,0,0,0,0,0,0,0,0,0,0,0,0,0,0,0,0,0,0,0,0,0,0,0,0,0,0,0,0,0,0,0,0,0,0,0,0,0,0,0,0,0,0,0,0,0,0,0,0,0,0,0,0,0,0,0,0],"sum_hessian":[3.806E3,2.287E3,1.519E3,1.339E3,9.48E2,1.195E3,3.24E2,6.51E2,6.88E2,5.98E2,3.5E2,7.58E2,4.37E2,2.14E2,1.1E2,3.02E2,3.49E2,3.72E2,3.16E2,2.1E2,3.88E2,2.11E2,1.39E2,5.06E2,2.52E2,1.53E2,2.84E2,2.1E1,1.93E2,2.58E2,5.8E1,1.55E2,5.5E1,1.59E2,2.29E2,7.6E1,1.35E2,8.2E1,5.7E1,1.45E2,3.61E2,1.47E2,1.05E2,3.6E1,1.17E2,1.01E2,1.83E2,1.18E2,7.5E1,8.5E1,7.4E1,1.46E2,8.3E1,6.1E1,1.5E1,9.1E1,4.4E1,6.7E1,1.5E1,2.9E1,2.8E1,1.2E2,2.5E1,2.32E2,1.29E2,9.7E1,5E1,7.9E1,2.6E1,5E0,1.78E2,4E0,8.1E1,1.39E2,7E0,8.1E1,2E0,2.5E1,3.6E1,4E0,1.1E1,1.4E1,7.7E1,1.5E1,2.9E1,5.5E1,1.2E1,7E0,2.2E1,1.2E1,1.6E1,2.1E1,9.9E1,4E0,2.1E1,4E0,2.28E2,1.09E2,2E1,4.4E1,6E0,4.6E1,3.3E1,2.1E1,1.57E2],"tree_param":{"num_deleted":"0","num_feature":"115","num_nodes":"105","size_leaf_vector":"1"}},{"base_weights":[3.860847E-2,-3.0234798E1,4.414682E1,-4.2953247E1,-1.17839155E1,2.3229403E1,8.157838E1,-4.9433468E1,-3.6459084E1,-1.741472E1,-1.5621965E0,1.4667542E1,3.61891E1,6.427589E1,1.0994022E2,-1.2931757E0,-1.1881744E0,-9.696647E-1,-3.3139175E1,-2.3641378E1,-1.3823496E1,-5.3665395E0,2.3878026E0,1.1277791E1,1.7981314E1,3.0039621E1,4.4739147E1,5.7803596E1,7.7763695E1,9.51436E1,3.0768642E0,-8.50866E-1,-7.3477745E-1,-5.014695E-1,-6.2403375E-1,-1.6426113E1,-1.243337E1,-3.129095E0,-8.473063E0,4.254341E0,-2.0401425E0,9.403573E0,1.3454542E1,1.559612E1,2.1688618E1,2.7004934E1,3.376813E1,4.537127E1,7.3833305E-1,6.223565E-1,5.7997337E1,2.046788E0,1.6012774E0,1.2544297E0,2.4026077E0,-1.6786135E1,-2.8020942E-1,-1.3369498E1,-9.298121E0,-2.2379349E-1,-1.334114E0,-5.545163E0,-1.1915404E1,9.389932E0,3.2562513E0,2.072516E0,-5.0873075E0,1.1854202E1,7.6079063E0,-1.0977389E0,1.4028037E1,1.3783102E1,2.1162539E1,1.9715065E1,6.6904426E-1,7.385634E-1,2.2240234E1,4.771966E-1,3.421334E1,7.4038607E-1,4.5955727E1,1.305911E0,1.5005376E0,-3.86843E-1,-4.8560244E-1,-3.9636624E-1,-3.1790715E-1,-2.5607514E-1,-1.5860717E-1,-4.7017056E-2,6.0468722E-2,-1.6932966E-1,-5.5207115E-2,-3.5116842E-1,-2.1043937E-1,1.310036E-1,2.9043442E-1,1.1729286E-1,1.9757184E-3,-2.3278631E-2,1.4004043E-1,-1.8791093E-1,-4.270985E-2,1.844881E-1,3.1540427E-1,1.7046036E-1,4.6950603E-1,-0E0,-6.1676394E-2,2.8345832E-1,4.1434294E-1,3.1987074E-1,5.720215E-1,5.809196E-1,3.9470097E-1,5.4315305E-1,3.8834012E-1,7.206754E-1,4.652786E-1,2.5997207E-1,8.592089E-1,8.565941E-1,1.1720217E0],"categories":[],"categories_nodes":[],"categories_segments":[],"categories_sizes":[],"default_left":[0,0,0,0,0,0,0,0,0,0,0,0,0,0,0,0,0,0,0,0,0,0,0,0,0,0,0,0,0,0,0,0,0,0,0,0,0,0,0,0,0,0,0,0,0,0,0,0,0,0,0,0,0,0,0,0,0,0,0,0,0,0,0,0,0,0,0,0,0,0,0,0,0,0,0,0,0,0,0,0,0,0,0,0,0,0,0,0,0,0,0,0,0,0,0,0,0,0,0,0,0,0,0,0,0,0,0,0,0,0,0,0,0,0,0,0,0,0,0,0,0,0,0],"id":10,"left_children":[1,3,5,7,9,11,13,15,17,19,21,23,25,27,29,-1,-1,-1,31,33,35,37,39,41,43,45,47,49,51,53,-1,-1,-1,-1,-1,55,57,59,61,63,65,67,69,71,73,75,77,79,-1,-1,81,-1,-1,-1,-1,83,-1,85,87,-1,89,91,93,95,97,99,101,103,105,107,109,111,113,115,-1,-1,117,-1,119,-1,121,-1,-1,-1,-1,-1,-1,-1,-1,-1,-1,-1,-1,-1,-1,-1,-1,-1,-1,-1,-1,-1,-1,-1,-1,-1,-1,-1,-1,-1,-1,-1,-1,-1,-1,-1,-1,-1,-1,-1,-1,-1,-1],"loss_changes":[5.0255675E6,5.2328012E5,1.197756E6,5.407375E4,5.244307E4,1.0869625E5,2.6352025E5,8.345E2,4.0358125E3,1.2852578E4,4.893453E3,6.4844297E3,1.9412562E4,2.6220875E4,3.0648E4,0E0,0E0,0E0,8.471875E1,5.7446875E2,1.1695391E3,1.1219302E3,1.3294508E3,1.0872695E3,2.3417422E3,1.8220156E3,4.2328125E2,2.756875E2,1.8166875E3,3.7975E2,0E0,0E0,0E0,0E0,0E0,6.716406E1,6.0970703E2,1.0043774E3,6.265967E2,5.4361035E2,6.098738E2,6.242842E2,1.1476582E3,1.6036992E3,6.901211E2,1.0144453E3,8.717969E1,2.6703125E2,0E0,0E0,1.166875E2,0E0,0E0,0E0,0E0,1.3946484E2,0E0,1.2233984E2,1.01646484E2,0E0,1.5868932E2,1.398424E2,1.17052246E2,1.0234534E2,4.3280994E2,2.2839374E2,2.1052472E2,1.3728223E2,7.2208057E2,1.0052644E1,7.1608984E2,1.0121875E3,1.6357227E2,4.2171094E2,0E0,0E0,6.993633E2,0E0,3.1929688E1,0E0,2.379375E2,0E0,0E0,0E0,0E0,0E0,0E0,0E0,0E0,0E0,0E0,0E0,0E0,0E0,0E0,0E0,0E0,0E0,0E0,0E0,0E0,0E0,0E0,0E0,0E0,0E0,0E0,0E0,0E0,0E0,0E0,0E0,0E0,0E0,0E0,0E0,0E0,0E0,0E0,0E0,0E0,0E0,0E0],"parents":[2147483647,0,0,1,1,2,2,3,3,4,4,5,5,6,6,7,7,8,8,9,9,10,10,11,11,12,12,13,13,14,14,18,18,19,19,20,20,21,21,22,22,23,23,24,24,25,25,26,26,27,27,28,28,29,29,35,35,36,36,37,37,38,38,39,39,40,40,41,41,42,42,43,43,44,44,45,45,46,46,47,47,50,50,55,55,57,57,58,58,60,60,61,61,62,62,63,63,64,64,65,65,66,66,67,67,68,68,69,69,70,70,71,71,72,72,73,73,76,76,78,78,80,80],"right_children":[2,4,6,8,10,12,14,16,18,20,22,24,26,28,30,-1,-1,-1,32,34,36,38,40,42,44,46,48,50,52,54,-1,-1,-1,-1,-1,56,58,60,62,64,66,68,70,72,74,76,78,80,-1,-1,82,-1,-1,-1,-1,84,-1,86,88,-1,90,92,94,96,98,100,102,104,106,108,110,112,114,116,-1,-1,118,-1,120,-1,122,-1,-1,-1,-1,-1,-1,-1,-1,-1,-1,-1,-1,-1,-1,-1,-1,-1,-1,-1,-1,-1,-1,-1,-1,-1,-1,-1,-1,-1,-1,-1,-1,-1,-1,-1,-1,-1,-1,-1,-1,-1,-1],"split_conditions":[5.975642E-2,-7.4500376E-1,1.1178758E0,-1.1339934E0,-3.0840138E-1,5.265576E-1,2.0091293E0,-1.276204E0,-9.284878E-1,-5.389652E-1,-1.0752048E-1,2.6373562E-1,8.3096135E-1,1.5123867E0,2.5078967E0,-1.2931757E0,-1.1881744E0,-9.696647E-1,-8.418606E-1,-2.5716236E-1,-4.3873355E-1,5.3763416E-2,-1.1610185E-1,-2.92989E-1,2.7141613E-1,6.6259396E-1,-6.879621E-2,-1.4752448E0,-1.0624093E0,-6.7159915E-1,3.0768642E0,-8.50866E-1,-7.3477745E-1,-5.014695E-1,-6.2403375E-1,-3.1121328E-1,1.5705836E-1,-3.9887297E-1,1.2247955E-1,-1.0450675E0,-2.973063E-1,-4.6567526E-1,-1.1389166E0,3.0860284E-1,4.4589335E-1,5.437856E-1,-1.3087478E0,-7.252599E-1,7.3833305E-1,6.223565E-1,-2.7004942E-1,2.046788E0,1.6012774E0,1.2544297E0,2.4026077E0,-3.599846E-1,-2.8020942E-1,-3.4153908E-1,-4.228396E-1,-2.2379349E-1,-1.85518E-1,-8.114917E-2,4.2811543E-1,-3.6164757E-2,-1.1041387E-1,-1.2073404E0,5.817373E-2,-6.560006E-1,1.1202137E0,2.1345711E-1,1.4393571E-1,1.1658726E0,5.064775E-1,8.042443E-1,6.6904426E-1,7.385634E-1,-1.8069856E-1,4.771966E-1,-9.5690656E-1,7.4038607E-1,-2.7752826E-1,1.305911E0,1.5005376E0,-3.86843E-1,-4.8560244E-1,-3.9636624E-1,-3.1790715E-1,-2.5607514E-1,-1.5860717E-1,-4.7017056E-2,6.0468722E-2,-1.6932966E-1,-5.5207115E-2,-3.5116842E-1,-2.1043937E-1,1.310036E-1,2.9043442E-1,1.1729286E-1,1.9757184E-3,-2.3278631E-2,1.4004043E-1,-1.8791093E-1,-4.270985E-2,1.844881E-1,3.1540427E-1,1.7046036E-1,4.6950603E-1,-0E0,-6.1676394E-2,2.8345832E-1,4.1434294E-1,3.1987074E-1,5.720215E-1,5.809196E-1,3.9470097E-1,5.4315305E-1,3.8834012E-1,7.206754E-1,4.652786E-1,2.5997207E-1,8.592089E-1,8.565941E-1,1.1720217E0],"split_indices":[3,76,76,2,3,3,3,76,3,4,3,3,3,56,4,0,0,0,76,48,3,60,46,62,31,2,46,64,46,61,0,0,0,0,0,49,69,13,113,111,113,75,110,69,76,13,64,62,0,0,30,0,0,0,0,54,0,56,15,0,46,8,43,76,62,110,56,23,47,3,92,15,12,88,0,0,62,0,63,0,52,0,0,0,0,0,0,0,0,0,0,0,0,0,0,0,0,0,0,0,0,0,0,0,0,0,0,0,0,0,0,0,0,0,0,0,0,0,0,0,0,0,0],"split_type":[0,0,0,0,0,0,0,0,0,0,0,0,0,0,0,0,0,0,0,0,0,0,0,0,0,0,0,0,0,0,0,0,0,0,0,0,0,0,0,0,0,0,0,0,0,0,0,0,0,0,0,0,0,0,0,0,0,0,0,0,0,0,0,0,0,0,0,0,0,0,0,0,0,0,0,0,0,0,0,0,0,0,0,0,0,0,0,0,0,0,0,0,0,0,0,0,0,0,0,0,0,0,0,0,0,0,0,0,0,0,0,0,0,0,0,0,0,0,0,0,0,0,0],"sum_hessian":[3.762E3,2.231E3,1.531E3,1.32E3,9.11E2,9.83E2,5.48E2,6.58E2,6.62E2,5.87E2,3.24E2,5.93E2,3.9E2,3.42E2,2.06E2,2.89E2,3.69E2,3.84E2,2.78E2,2.13E2,3.74E2,1.65E2,1.59E2,2.95E2,2.98E2,2.29E2,1.61E2,2.34E2,1.08E2,1E2,1.06E2,2.19E2,5.9E1,6.1E1,1.52E2,1.27E2,2.47E2,9.7E1,6.8E1,1.12E2,4.7E1,1.61E2,1.34E2,1.84E2,1.14E2,1.3E2,9.9E1,1.53E2,8E0,2E0,2.32E2,8E1,2.8E1,3E0,9.7E1,1.17E2,1E1,1.88E2,5.9E1,2.2E1,7.5E1,3.8E1,3E1,1.7E1,9.5E1,2E1,2.7E1,6.6E1,9.5E1,5E0,1.29E2,1.41E2,4.3E1,8.5E1,2.9E1,8.2E1,4.8E1,4E0,9.5E1,7E0,1.46E2,6.6E1,1.66E2,8.2E1,3.5E1,3.5E1,1.53E2,4.3E1,1.6E1,6.6E1,9E0,2.7E1,1.1E1,1.7E1,1.3E1,7E0,1E1,6.5E1,3E1,1.1E1,9E0,1.5E1,1.2E1,1.1E1,5.5E1,9E1,5E0,3E0,2E0,6.5E1,6.4E1,1.29E2,1.2E1,2.9E1,1.4E1,5.5E1,3E1,1.5E1,3.3E1,1E0,9.4E1,1.3E1,1.33E2],"tree_param":{"num_deleted":"0","num_feature":"115","num_nodes":"123","size_leaf_vector":"1"}},{"base_weights":[6.3278407E-1,-2.8291782E1,4.4415264E1,-4.132957E1,-1.0600368E1,3.0423372E1,9.689385E1,-4.8039276E1,-3.5043194E1,-1.6465376E1,-4.094383E-2,1.8109299E1,4.9898167E1,8.451837E1,2.998101E0,-1.2580982E0,-1.1518384E0,-9.4246924E-1,-3.1782183E1,-2.2304018E1,-1.3069684E1,-3.2620444E0,4.6845984E0,1.4218548E1,2.7040947E1,4.024545E1,5.5221622E1,7.5380486E1,9.267343E1,-8.248081E-1,-7.1126467E-1,-5.938536E-1,-4.6474528E-1,-1.3907515E1,-9.994767E0,-6.4789953E0,-1.2674375E0,-2.5809208E-1,5.189657E0,1.184032E1,1.7151283E1,2.3244587E1,2.991267E1,7.52726E-1,4.138012E1,1.205368E0,5.7228348E1,1.9602963E0,1.4614215E0,1.229671E0,2.3385868E0,-1.5793204E1,-1.2993695E1,-7.633384E0,-1.1290733E1,-4.9384637E0,-9.290818E0,2.8034818E-1,-4.884061E0,3.7738466E0,9.229704E0,9.371659E0,1.3692412E1,2.1517065E1,1.5436408E1,2.2186085E1,8.7094307E-1,6.3456845E-1,3.1769007E1,1.0910734E0,8.797957E-1,9.6262646E-1,1.442125E0,-4.0256476E-1,-2.6272318E-1,-4.0688005E-1,-3.1157428E-1,-2.1999028E-1,-9.943377E-2,-2.3570338E-1,-3.2313612E-1,-2.1754925E-1,-9.969839E-2,-1.9235161E-1,-2.9416344E-1,-1.3870259E-2,1.00826524E-1,-6.336077E-2,-2.6784715E-1,6.778673E-2,2.4725163E-1,1.8710443E-1,3.120049E-1,2.0793295E-1,3.8227004E-1,7.8030966E-2,3.4852645E-1,4.6026263E-1,6.537462E-1,6.312101E-1,3.5982874E-1,6.7083365E-1,4.8122978E-1,5.9841806E-1,8.2000446E-1],"categories":[],"categories_nodes":[],"categories_segments":[],"categories_sizes":[],"default_left":[0,0,0,0,0,0,0,0,0,0,0,0,0,0,0,0,0,0,0,0,0,0,0,0,0,0,0,0,0,0,0,0,0,0,0,0,0,0,0,0,0,0,0,0,0,0,0,0,0,0,0,0,0,0,0,0,0,0,0,0,0,0,0,0,0,0,0,0,0,0,0,0,0,0,0,0,0,0,0,0,0,0,0,0,0,0,0,0,0,0,0,0,0,0,0,0,0,0,0,0,0,0,0,0,0],"id":11,"left_children":[1,3,5,7,9,11,13,15,17,19,21,23,25,27,-1,-1,-1,-1,29,31,33,35,37,39,41,43,45,47,49,-1,-1,-1,-1,51,53,55,57,-1,59,61,63,65,67,-1,69,-1,71,-1,-1,-1,-1,73,75,77,79,81,83,85,87,89,91,93,95,97,99,101,-1,-1,103,-1,-1,-1,-1,-1,-1,-1,-1,-1,-1,-1,-1,-1,-1,-1,-1,-1,-1,-1,-1,-1,-1,-1,-1,-1,-1,-1,-1,-1,-1,-1,-1,-1,-1,-1,-1],"loss_changes":[4.7965805E6,5.256905E5,1.1039452E6,5.396025E4,5.9985117E4,2.8479338E5,8.20185E4,9.09875E2,4.8815625E3,1.2086266E4,5.2898843E3,2.5055312E4,2.182425E4,9.83675E3,0E0,0E0,0E0,0E0,4.5296875E2,8.398047E2,8.893594E2,1.3141763E3,1.1060273E3,3.3770312E3,1.8083906E3,8.6453125E2,1.8533125E3,1.497375E3,2.456875E2,0E0,0E0,0E0,0E0,3.4491406E2,1.8460352E2,2.9324927E2,7.257696E2,0E0,7.4422E2,1.1810469E3,1.4027188E3,5.4846094E2,3.418047E2,0E0,7.778594E2,0E0,6.81875E1,0E0,0E0,0E0,0E0,1.5898438E0,1.8534766E2,1.0589441E2,5.148242E1,1.5096814E2,1.7948975E1,2.8914987E2,4.9915808E2,6.364324E2,1.06754395E2,6.5822266E2,3.7419922E2,4.686328E2,1.3747656E3,8.164961E2,0E0,0E0,3.3125E0,0E0,0E0,0E0,0E0,0E0,0E0,0E0,0E0,0E0,0E0,0E0,0E0,0E0,0E0,0E0,0E0,0E0,0E0,0E0,0E0,0E0,0E0,0E0,0E0,0E0,0E0,0E0,0E0,0E0,0E0,0E0,0E0,0E0,0E0,0E0,0E0],"parents":[2147483647,0,0,1,1,2,2,3,3,4,4,5,5,6,6,7,7,8,8,9,9,10,10,11,11,12,12,13,13,18,18,19,19,20,20,21,21,22,22,23,23,24,24,25,25,26,26,27,27,28,28,33,33,34,34,35,35,36,36,38,38,39,39,40,40,41,41,42,42,44,44,46,46,51,51,52,52,53,53,54,54,55,55,56,56,57,57,58,58,59,59,60,60,61,61,62,62,63,63,64,64,65,65,68,68],"right_children":[2,4,6,8,10,12,14,16,18,20,22,24,26,28,-1,-1,-1,-1,30,32,34,36,38,40,42,44,46,48,50,-1,-1,-1,-1,52,54,56,58,-1,60,62,64,66,68,-1,70,-1,72,-1,-1,-1,-1,74,76,78,80,82,84,86,88,90,92,94,96,98,100,102,-1,-1,104,-1,-1,-1,-1,-1,-1,-1,-1,-1,-1,-1,-1,-1,-1,-1,-1,-1,-1,-1,-1,-1,-1,-1,-1,-1,-1,-1,-1,-1,-1,-1,-1,-1,-1,-1,-1],"split_conditions":[1.0101836E-1,-7.1953213E-1,1.5123867E0,-1.121167E0,-2.8432006E-1,7.4164104E-1,2.5053155E0,-1.2633384E0,-9.404676E-1,-5.1379544E-1,-5.507042E-2,4.6731406E-1,1.0431261E0,1.9968032E0,2.998101E0,-1.2580982E0,-1.1518384E0,-9.4246924E-1,-8.418606E-1,-5.718023E-1,-3.543617E-1,-1.8204924E-1,-3.270816E-1,2.7644488E-1,4.3662146E-1,-6.158334E-1,-5.274219E-1,2.247953E0,-6.7159915E-1,-8.248081E-1,-7.1126467E-1,-5.938536E-1,-4.6474528E-1,-4.45732E-1,-3.6205977E-1,6.2463504E-1,2.761744E-1,-2.5809208E-1,3.0233133E-1,-3.699842E-1,4.856532E-1,9.21222E-1,3.3055413E-1,7.52726E-1,6.591071E-1,1.205368E0,5.7492346E-1,1.9602963E0,1.4614215E0,1.229671E0,2.3385868E0,-3.3707726E-1,-4.1505438E-1,-4.0770146E-1,-2.473514E-1,-3.9887297E-1,3.030927E-1,1.0660936E0,-7.088135E-1,5.548672E-1,1.369773E-1,5.327032E-1,1.0322511E-1,1.396634E-1,-1.208303E0,5.2579236E-1,8.7094307E-1,6.3456845E-1,6.631212E-2,1.0910734E0,8.797957E-1,9.6262646E-1,1.442125E0,-4.0256476E-1,-2.6272318E-1,-4.0688005E-1,-3.1157428E-1,-2.1999028E-1,-9.943377E-2,-2.3570338E-1,-3.2313612E-1,-2.1754925E-1,-9.969839E-2,-1.9235161E-1,-2.9416344E-1,-1.3870259E-2,1.00826524E-1,-6.336077E-2,-2.6784715E-1,6.778673E-2,2.4725163E-1,1.8710443E-1,3.120049E-1,2.0793295E-1,3.8227004E-1,7.8030966E-2,3.4852645E-1,4.6026263E-1,6.537462E-1,6.312101E-1,3.5982874E-1,6.7083365E-1,4.8122978E-1,5.9841806E-1,8.2000446E-1],"split_indices":[2,76,56,3,2,4,5,3,76,5,2,2,76,77,0,0,0,0,76,114,4,3,12,76,53,113,59,12,61,0,0,0,0,3,10,111,60,0,30,68,15,56,50,0,66,0,108,0,0,0,0,92,62,12,85,13,112,75,88,15,60,12,3,12,25,12,0,0,12,0,0,0,0,0,0,0,0,0,0,0,0,0,0,0,0,0,0,0,0,0,0,0,0,0,0,0,0,0,0,0,0,0,0,0,0],"split_type":[0,0,0,0,0,0,0,0,0,0,0,0,0,0,0,0,0,0,0,0,0,0,0,0,0,0,0,0,0,0,0,0,0,0,0,0,0,0,0,0,0,0,0,0,0,0,0,0,0,0,0,0,0,0,0,0,0,0,0,0,0,0,0,0,0,0,0,0,0,0,0,0,0,0,0,0,0,0,0,0,0,0,0,0,0,0,0,0,0,0,0,0,0,0,0,0,0,0,0,0,0,0,0,0,0],"sum_hessian":[3.786E3,2.28E3,1.506E3,1.312E3,9.68E2,1.19E3,3.16E2,6.32E2,6.8E2,6.22E2,3.46E2,7.3E2,4.6E2,2.08E2,1.08E2,2.83E2,3.49E2,3.7E2,3.1E2,2.27E2,3.95E2,2.06E2,1.4E2,5.1E2,2.2E2,1.66E2,2.94E2,1.02E2,1.06E2,2.22E2,8.8E1,1.6E2,6.7E1,3.08E2,8.7E1,7.8E1,1.28E2,4E0,1.36E2,2.84E2,2.26E2,9.8E1,1.22E2,1.9E1,1.47E2,7E1,2.24E2,8.4E1,1.8E1,3E0,1.03E2,9.6E1,2.12E2,3.3E1,5.4E1,5.2E1,2.6E1,9E1,3.8E1,1.02E2,3.4E1,1.24E2,1.6E2,6.1E1,1.65E2,9.2E1,6E0,3.9E1,8.3E1,1.04E2,4.3E1,7E0,2.17E2,8.9E1,7E0,2.6E1,1.86E2,2.4E1,9E0,2.8E1,2.6E1,9E0,4.3E1,1.8E1,8E0,7.4E1,1.6E1,2.8E1,1E1,8.8E1,1.4E1,2.4E1,1E1,1.07E2,1.7E1,4E0,1.56E2,3.9E1,2.2E1,1.4E1,1.51E2,3.3E1,5.9E1,1.2E1,7.1E1],"tree_param":{"num_deleted":"0","num_feature":"115","num_nodes":"105","size_leaf_vector":"1"}},{"base_weights":[-8.344727E-2,-2.8789623E1,4.1625053E1,-4.060209E1,-1.1584228E1,2.7754255E1,9.247385E1,-4.6995056E1,-3.4532528E1,-1.6547989E1,-9.408236E-1,1.7223223E1,4.776311E1,7.78705E1,1.11835655E2,-1.2310841E0,-1.1317842E0,-3.7047215E1,-3.1473946E1,-2.2558403E1,-1.300771E1,-7.390106E0,8.495022E-1,1.3400972E1,2.6888638E1,3.9520523E1,5.27146E1,1.5687454E0,8.284253E1,2.4731457E0,2.9463928E0,-9.835143E-1,-8.8864297E-1,-8.101636E-1,-7.055932E-1,-4.569895E-1,-5.9141E-1,-1.6183016E1,-1.1592942E1,-5.9758983E0,-1.3149266E1,-3.4411778E0,2.062444E0,8.95469E0,1.5610279E1,2.95217E1,2.247201E1,4.0325687E1,6.319129E-1,7.000656E-1,5.310847E1,1.2648864E0,2.0929856E0,-1.6445929E1,-2.6546338E-1,-1.2282063E1,-8.394533E0,-6.5874605E0,-1.6694518E0,-3.5343826E-1,-1.411924E-1,-1.3809321E0,-9.408725E0,-1.6296531E0,3.6640098E0,7.418985E0,1.1624635E1,1.1576945E1,1.6592964E1,6.8751967E-1,8.454254E-1,1.9792591E1,2.7383522E1,1.0305403E0,7.792265E-1,1.0351164E0,1.3503654E0,-3.7836945E-1,-4.5721874E-1,-3.136408E-1,-1.3417505E-1,-1.0039361E-1,-2.336524E-1,-2.1671577E-1,-1.20584704E-1,-5.3629823E-2,-0E0,-1.7569648E-1,-8.889483E-3,-2.9899415E-1,-7.492571E-2,-1.38003025E-2,-2.2634855E-1,2.970546E-2,1.4224325E-1,8.483277E-2,2.3019683E-1,1.8770562E-1,3.1857798E-1,2.5767624E-1,5.8764774E-1,1.9979562E-1,4.2844233E-1,2.269151E-1,5.155806E-1,5.4820025E-1,8.694418E-1],"categories":[],"categories_nodes":[],"categories_segments":[],"categories_sizes":[],"default_left":[0,0,0,0,0,0,0,0,0,0,0,0,0,0,0,0,0,0,0,0,0,0,0,0,0,0,0,0,0,0,0,0,0,0,0,0,0,0,0,0,0,0,0,0,0,0,0,0,0,0,0,0,0,0,0,0,0,0,0,0,0,0,0,0,0,0,0,0,0,0,0,0,0,0,0,0,0,0,0,0,0,0,0,0,0,0,0,0,0,0,0,0,0,0,0,0,0,0,0,0,0,0,0,0,0,0,0],"id":12,"left_children":[1,3,5,7,9,11,13,15,17,19,21,23,25,27,29,-1,-1,31,33,35,37,39,41,43,45,47,49,-1,51,-1,-1,-1,-1,-1,-1,-1,-1,53,55,57,59,61,63,65,67,69,71,73,-1,-1,75,-1,-1,77,-1,79,81,83,85,-1,-1,87,89,91,93,95,97,99,101,-1,-1,103,105,-1,-1,-1,-1,-1,-1,-1,-1,-1,-1,-1,-1,-1,-1,-1,-1,-1,-1,-1,-1,-1,-1,-1,-1,-1,-1,-1,-1,-1,-1,-1,-1,-1,-1],"loss_changes":[4.551614E6,4.5723362E5,1.0909452E6,5.043025E4,4.8462117E4,2.5610806E5,8.669675E4,6.51375E2,4.3024375E3,1.3052922E4,3.3910166E3,2.9226984E4,1.53929375E4,1.01445E4,1.442E3,0E0,0E0,1.0509375E2,1.7703125E2,7.0483594E2,1.6057578E3,4.4146558E2,1.2005336E3,5.5148984E3,2.0535625E3,9.762656E2,1.274E3,0E0,5.13625E2,0E0,0E0,0E0,0E0,0E0,0E0,0E0,0E0,1.3908203E1,5.110664E2,1.2365381E2,7.775879E0,6.0554034E2,1.0695862E3,7.062988E2,1.3410156E3,4.1179688E2,6.841211E2,1.5132812E2,0E0,0E0,8.3675E2,0E0,0E0,2.4373047E1,0E0,3.4334766E2,1.7511963E2,1.2390393E2,4.951605E0,0E0,0E0,2.1674966E2,1.6872278E2,4.2675626E2,6.200089E2,8.636675E2,2.2402246E2,9.576836E2,1.3030859E3,0E0,0E0,3.5877148E2,5.063125E2,0E0,0E0,0E0,0E0,0E0,0E0,0E0,0E0,0E0,0E0,0E0,0E0,0E0,0E0,0E0,0E0,0E0,0E0,0E0,0E0,0E0,0E0,0E0,0E0,0E0,0E0,0E0,0E0,0E0,0E0,0E0,0E0,0E0,0E0],"parents":[2147483647,0,0,1,1,2,2,3,3,4,4,5,5,6,6,7,7,8,8,9,9,10,10,11,11,12,12,13,13,14,14,17,17,18,18,19,19,20,20,21,21,22,22,23,23,24,24,25,25,26,26,28,28,37,37,38,38,39,39,40,40,41,41,42,42,43,43,44,44,45,45,46,46,47,47,50,50,53,53,55,55,56,56,57,57,58,58,61,61,62,62,63,63,64,64,65,65,66,66,67,67,68,68,71,71,72,72],"right_children":[2,4,6,8,10,12,14,16,18,20,22,24,26,28,30,-1,-1,32,34,36,38,40,42,44,46,48,50,-1,52,-1,-1,-1,-1,-1,-1,-1,-1,54,56,58,60,62,64,66,68,70,72,74,-1,-1,76,-1,-1,78,-1,80,82,84,86,-1,-1,88,90,92,94,96,98,100,102,-1,-1,104,106,-1,-1,-1,-1,-1,-1,-1,-1,-1,-1,-1,-1,-1,-1,-1,-1,-1,-1,-1,-1,-1,-1,-1,-1,-1,-1,-1,-1,-1,-1,-1,-1,-1,-1],"split_conditions":[4.480741E-2,-7.4500376E-1,1.4642991E0,-1.1424477E0,-2.8778526E-1,7.635157E-1,2.3492174E0,-1.2862295E0,-9.4840306E-1,-5.389652E-1,-1.8204924E-1,4.6731406E-1,1.0431261E0,1.6613373E0,2.6730287E0,-1.2310841E0,-1.1317842E0,-1.0249002E0,3.1520918E-1,-3.1101638E-1,-4.45732E-1,3.563177E-1,-1.2700242E0,1.934029E-1,5.499581E-1,5.742371E-1,-1.3266896E0,1.5687454E0,-1.0303094E0,2.4731457E0,2.9463928E0,-9.835143E-1,-8.8864297E-1,-8.101636E-1,-7.055932E-1,-4.569895E-1,-5.9141E-1,-3.1121328E-1,2.6556846E-1,7.4220103E-1,7.158896E-1,3.170555E-1,-3.2996836E-1,1.5468204E-1,-8.115392E-1,6.386404E-1,1.1622605E-1,2.96042E-1,6.319129E-1,7.000656E-1,-1.1250132E0,1.2648864E0,2.0929856E0,-5.529144E-1,-2.6546338E-1,-2.3762254E-1,2.3359392E0,-2.4045463E-1,5.011216E-1,-3.5343826E-1,-1.411924E-1,-5.7741106E-1,-4.9505115E-2,4.442769E-3,-7.0748234E-1,5.340167E-1,-3.6646795E-1,1.155552E0,-5.2590245E-1,6.8751967E-1,8.454254E-1,5.4641926E-1,6.43956E-1,1.0305403E0,7.792265E-1,1.0351164E0,1.3503654E0,-3.7836945E-1,-4.5721874E-1,-3.136408E-1,-1.3417505E-1,-1.0039361E-1,-2.336524E-1,-2.1671577E-1,-1.20584704E-1,-5.3629823E-2,-0E0,-1.7569648E-1,-8.889483E-3,-2.9899415E-1,-7.492571E-2,-1.38003025E-2,-2.2634855E-1,2.970546E-2,1.4224325E-1,8.483277E-2,2.3019683E-1,1.8770562E-1,3.1857798E-1,2.5767624E-1,5.8764774E-1,1.9979562E-1,4.2844233E-1,2.269151E-1,5.155806E-1,5.4820025E-1,8.694418E-1],"split_indices":[3,76,56,7,3,76,77,76,76,4,3,2,76,77,80,0,0,3,24,45,3,112,110,76,13,60,64,0,104,0,0,0,0,0,0,0,0,49,29,64,48,111,15,104,36,3,64,46,0,0,59,0,0,52,0,6,62,75,29,0,0,52,92,46,59,65,100,14,61,0,0,49,10,0,0,0,0,0,0,0,0,0,0,0,0,0,0,0,0,0,0,0,0,0,0,0,0,0,0,0,0,0,0,0,0,0,0],"split_type":[0,0,0,0,0,0,0,0,0,0,0,0,0,0,0,0,0,0,0,0,0,0,0,0,0,0,0,0,0,0,0,0,0,0,0,0,0,0,0,0,0,0,0,0,0,0,0,0,0,0,0,0,0,0,0,0,0,0,0,0,0,0,0,0,0,0,0,0,0,0,0,0,0,0,0,0,0,0,0,0,0,0,0,0,0,0,0,0,0,0,0,0,0,0,0,0,0,0,0,0,0,0,0,0,0,0,0],"sum_hessian":[3.8E3,2.251E3,1.549E3,1.334E3,9.17E2,1.218E3,3.31E2,6.47E2,6.87E2,6.25E2,2.92E2,7.99E2,4.19E2,1.91E2,1.4E2,2.71E2,3.76E2,3.72E2,3.15E2,2.3E2,3.95E2,6.3E1,2.29E2,5.74E2,2.25E2,1.6E2,2.59E2,5E1,1.41E2,4.9E1,9.1E1,1.39E2,2.33E2,2.39E2,7.6E1,5E1,1.8E2,1.19E2,2.76E2,5.2E1,1.1E1,5E1,1.79E2,1.92E2,3.82E2,1.38E2,8.7E1,1.5E2,1E1,5E0,2.54E2,5E0,1.36E2,1.12E2,7E0,2.25E2,5.1E1,4.5E1,7E0,9E0,2E0,3.8E1,1.2E1,5.4E1,1.25E2,1.24E2,6.8E1,7.7E1,3.05E2,9.8E1,4E1,5.9E1,2.8E1,1.34E2,1.6E1,2.1E1,2.33E2,7E1,4.2E1,2.16E2,9E0,1E1,4.1E1,1.9E1,2.6E1,5E0,2E0,5E0,3.3E1,8E0,4E0,4.8E1,6E0,5.7E1,6.8E1,3.9E1,8.5E1,1.6E1,5.2E1,7.1E1,6E0,1.9E1,2.86E2,5E0,5.4E1,1.8E1,1E1],"tree_param":{"num_deleted":"0","num_feature":"115","num_nodes":"107","size_leaf_vector":"1"}},{"base_weights":[2.3609139E-1,-2.6899378E1,4.1993702E1,-3.9301193E1,-9.923374E0,2.9407797E1,9.2755745E1,-4.5665577E1,-3.3270287E1,-1.5498957E1,-0E0,1.758247E1,4.7879948E1,8.098068E1,2.8425643E0,-1.1776613E0,-1.0750786E0,-8.991828E-1,-3.0252005E1,-2.089128E1,-1.2275018E1,-3.3792999E0,4.4431896E0,1.3669461E1,2.5628078E1,3.942429E1,5.370092E1,1.3543785E0,8.2673294E1,-7.8942007E-1,-6.8235725E-1,-5.5858034E-1,-4.3489194E-1,-1.4236621E1,-1.0939554E1,-1.7613052E0,-7.620179E0,-2.479995E-1,4.8910155E0,1.1375314E1,1.6471527E1,2.1551191E1,2.8485296E1,4.0698105E1,2.9836712E1,7.799337E-1,5.402249E1,1.8864819E0,2.189997E0,-1.3631604E1,-4.313124E-1,-1.2188575E1,-8.851766E0,-2.2843741E-1,-1.3308778E0,-3.314043E-1,-5.5945134E0,1.7769899E0,6.8213882E0,7.6317534E0,1.2280639E1,3.7413812E0,1.705743E1,1.8575493E1,2.4987673E1,7.794253E-1,6.2399423E-1,4.139109E1,7.150972E-1,1.994003E-1,7.6071614E-1,1.2495253E0,5.650841E1,-3.5406113E-1,-2.4906552E-1,-1.860239E-1,-3.1314743E-1,-2.2409764E-1,-6.101243E-2,2.620512E-2,-6.224243E-2,7.408028E-2,-1.6459925E-1,7.7092736E-3,2.0178215E-1,2.4814792E-1,1.393785E-1,2.3016433E-1,8.7247334E-2,2.855892E-1,4.3529183E-1,2.1541801E-1,-5.6374486E-4,4.027186E-1,6.069909E-1,2.3741816E-1,5.0747854E-1,4.1811916E-1,6.814316E-1,7.049186E-1,1.0484952E0,7.2593874E-1,1.4219598E0],"categories":[],"categories_nodes":[],"categories_segments":[],"categories_sizes":[],"default_left":[0,0,0,0,0,0,0,0,0,0,0,0,0,0,0,0,0,0,0,0,0,0,0,0,0,0,0,0,0,0,0,0,0,0,0,0,0,0,0,0,0,0,0,0,0,0,0,0,0,0,0,0,0,0,0,0,0,0,0,0,0,0,0,0,0,0,0,0,0,0,0,0,0,0,0,0,0,0,0,0,0,0,0,0,0,0,0,0,0,0,0,0,0,0,0,0,0,0,0,0,0,0,0],"id":13,"left_children":[1,3,5,7,9,11,13,15,17,19,21,23,25,27,-1,-1,-1,-1,29,31,33,35,37,39,41,43,45,-1,47,-1,-1,-1,-1,49,51,53,55,-1,57,59,61,63,65,67,69,-1,71,-1,-1,73,-1,75,77,-1,79,-1,81,83,85,87,89,91,93,95,97,-1,-1,99,-1,-1,-1,-1,101,-1,-1,-1,-1,-1,-1,-1,-1,-1,-1,-1,-1,-1,-1,-1,-1,-1,-1,-1,-1,-1,-1,-1,-1,-1,-1,-1,-1,-1,-1],"loss_changes":[4.3031165E6,4.8425412E5,9.5336625E5,4.9763125E4,5.3812688E4,2.6135769E5,6.568375E4,7.80875E2,4.6591875E3,1.0595406E4,5.278475E3,2.2758703E4,2.1257E4,5.055125E3,0E0,0E0,0E0,0E0,5.5178125E2,8.337422E2,8.816367E2,1.3527292E3,1.0111997E3,3.0085703E3,2.2505312E3,1.3389688E3,5.72125E2,0E0,9.715E2,0E0,0E0,0E0,0E0,7.143164E1,5.143574E2,4.4479926E2,5.512217E2,0E0,8.718838E2,8.404258E2,1.579168E3,6.348281E2,6.402422E2,4.115625E2,1.0896875E2,0E0,3.65875E2,0E0,0E0,1.2841992E2,0E0,1.4295703E2,3.9375977E1,0E0,3.8590247E2,0E0,3.724458E2,5.256038E2,2.9463477E2,3.2810474E2,7.8441406E2,2.0521552E2,1.0991172E3,7.264297E2,4.4026953E2,0E0,0E0,1.4034375E2,0E0,0E0,0E0,0E0,2.443125E2,0E0,0E0,0E0,0E0,0E0,0E0,0E0,0E0,0E0,0E0,0E0,0E0,0E0,0E0,0E0,0E0,0E0,0E0,0E0,0E0,0E0,0E0,0E0,0E0,0E0,0E0,0E0,0E0,0E0,0E0],"parents":[2147483647,0,0,1,1,2,2,3,3,4,4,5,5,6,6,7,7,8,8,9,9,10,10,11,11,12,12,13,13,18,18,19,19,20,20,21,21,22,22,23,23,24,24,25,25,26,26,28,28,33,33,34,34,35,35,36,36,38,38,39,39,40,40,41,41,42,42,43,43,44,44,46,46,49,49,51,51,52,52,54,54,56,56,57,57,58,58,59,59,60,60,61,61,62,62,63,63,64,64,67,67,72,72],"right_children":[2,4,6,8,10,12,14,16,18,20,22,24,26,28,-1,-1,-1,-1,30,32,34,36,38,40,42,44,46,-1,48,-1,-1,-1,-1,50,52,54,56,-1,58,60,62,64,66,68,70,-1,72,-1,-1,74,-1,76,78,-1,80,-1,82,84,86,88,90,92,94,96,98,-1,-1,100,-1,-1,-1,-1,102,-1,-1,-1,-1,-1,-1,-1,-1,-1,-1,-1,-1,-1,-1,-1,-1,-1,-1,-1,-1,-1,-1,-1,-1,-1,-1,-1,-1,-1,-1],"split_conditions":[1.0101836E-1,-7.1953213E-1,1.6128792E0,-1.121167E0,-2.8778526E-1,7.635157E-1,2.5286763E0,-1.2281029E0,-9.4840306E-1,-5.1499075E-1,-5.507042E-2,4.631518E-1,1.0946301E0,-5.394458E-1,2.8425643E0,-1.1776613E0,-1.0750786E0,-8.991828E-1,-8.518521E-1,-5.718023E-1,-4.1231862E-1,4.8613083E-1,-9.8977643E-1,2.7644488E-1,3.444236E-1,2.96042E-1,-1.1452284E0,1.3543785E0,1.9983E0,-7.8942007E-1,-6.8235725E-1,-5.5858034E-1,-4.3489194E-1,5.9109807E-1,-7.854703E-2,-4.0478343E-1,-5.762921E-1,-2.479995E-1,-1.0709081E0,-8.3256733E-1,-8.836315E-1,1.1093216E-1,-2.9267824E-1,5.611431E-1,6.2340283E-1,7.799337E-1,1.2621203E-1,1.8864819E0,2.189997E0,-4.6328634E-1,-4.313124E-1,-1.7042364E0,2.5662615E0,-2.2843741E-1,-6.697113E-1,-3.314043E-1,-9.586482E-1,4.5334923E-1,-4.342126E-1,1.1741452E0,3.0545524E-1,-1.8992542E0,1.2923871E0,5.2543217E-1,-1.1829643E0,7.794253E-1,6.2399423E-1,-7.252599E-1,7.150972E-1,1.994003E-1,7.6071614E-1,1.2495253E0,-1.819344E0,-3.5406113E-1,-2.4906552E-1,-1.860239E-1,-3.1314743E-1,-2.2409764E-1,-6.101243E-2,2.620512E-2,-6.224243E-2,7.408028E-2,-1.6459925E-1,7.7092736E-3,2.0178215E-1,2.4814792E-1,1.393785E-1,2.3016433E-1,8.7247334E-2,2.855892E-1,4.3529183E-1,2.1541801E-1,-5.6374486E-4,4.027186E-1,6.069909E-1,2.3741816E-1,5.0747854E-1,4.1811916E-1,6.814316E-1,7.049186E-1,1.0484952E0,7.2593874E-1,1.4219598E0],"split_indices":[2,76,3,3,3,76,6,3,76,4,2,3,76,114,0,0,0,0,76,114,3,111,66,76,23,46,48,0,80,0,0,0,0,44,104,13,61,0,59,110,68,54,46,60,2,0,30,0,0,76,0,21,0,0,111,0,48,13,111,75,11,20,75,77,100,0,0,62,0,0,0,0,96,0,0,0,0,0,0,0,0,0,0,0,0,0,0,0,0,0,0,0,0,0,0,0,0,0,0,0,0,0,0],"split_type":[0,0,0,0,0,0,0,0,0,0,0,0,0,0,0,0,0,0,0,0,0,0,0,0,0,0,0,0,0,0,0,0,0,0,0,0,0,0,0,0,0,0,0,0,0,0,0,0,0,0,0,0,0,0,0,0,0,0,0,0,0,0,0,0,0,0,0,0,0,0,0,0,0,0,0,0,0,0,0,0,0,0,0,0,0,0,0,0,0,0,0,0,0,0,0,0,0,0,0,0,0,0,0],"sum_hessian":[3.796E3,2.301E3,1.495E3,1.329E3,9.72E2,1.199E3,2.96E2,6.44E2,6.85E2,6.22E2,3.5E2,7.32E2,4.67E2,1.92E2,1.04E2,4.09E2,2.35E2,3.57E2,3.28E2,2.31E2,3.91E2,1.99E2,1.51E2,4.94E2,2.38E2,1.93E2,2.74E2,1.3E1,1.79E2,2.21E2,1.07E2,1.6E2,7.1E1,1.55E2,2.36E2,1.45E2,5.4E1,4E0,1.47E2,2.74E2,2.2E2,1.01E2,1.37E2,1.68E2,2.5E1,5E0,2.69E2,7.8E1,1.01E2,1.33E2,2.2E1,1.45E2,9.1E1,7E0,1.38E2,1.3E1,4.1E1,5.7E1,9E1,5.5E1,2.19E2,1E1,2.1E2,5.7E1,4.4E1,7.4E1,6.3E1,1.57E2,1.1E1,1E0,2.4E1,1.09E2,1.6E2,1.14E2,1.9E1,1.1E1,1.34E2,8.9E1,2E0,4.5E1,9.3E1,4E0,3.7E1,4.7E1,1E1,2.4E1,6.6E1,3.9E1,1.6E1,1.9E2,2.9E1,4E0,6E0,1.88E2,2.2E1,1E1,4.7E1,1.1E1,3.3E1,8E0,1.49E2,3E0,1.57E2],"tree_param":{"num_deleted":"0","num_feature":"115","num_nodes":"103","size_leaf_vector":"1"}},{"base_weights":[1.4163506E-1,-2.6163631E1,4.0877598E1,-3.8321095E1,-9.741715E0,2.7995424E1,8.967944E1,-4.4211082E1,-3.2157352E1,-1.5106329E1,3.537679E-1,1.6875204E1,4.6110012E1,7.564256E1,1.07187775E2,-1.1420096E0,-1.0286164E0,-8.6515695E-1,-2.9549896E1,-2.0370016E1,-1.182975E1,-2.6428888E0,4.280285E0,1.3240079E1,2.4814045E1,3.76819E1,5.097758E1,1.3884605E0,7.822423E1,2.3623426E0,2.8194337E0,-7.698999E-1,-6.6089386E-1,-5.449498E-1,-4.2475614E-1,-1.2822252E1,-8.530397E0,-6.091205E0,-1.2107658E0,5.090102E0,-1.1610554E0,9.325264E0,1.4671937E1,2.8278116E1,2.1201553E1,9.765751E-1,2.9903313E1,1.0163162E0,5.1937126E1,1.7678219E0,2.060433E0,-1.1841054E1,-1.4734806E1,-4.896877E0,-9.438859E0,-4.268459E0,-9.28448E0,3.2178998E0,-2.1660123E0,4.2899747E0,1.0595328E1,-3.9310055E0,1.9958848E-1,1.1998901E1,7.634543E0,1.1523097E1,1.6059242E1,7.3291755E-1,5.8219993E-1,1.8605225E1,2.469434E1,1.9663084E-1,7.610234E-1,9.170154E-1,1.3092835E0,-3.0410597E-1,-2.1575415E-1,-4.0339714E-1,-2.7877343E-1,-1.8286352E-1,-5.106019E-2,-3.2114625E-1,-2.1528654E-1,-5.6771763E-2,-1.3333914E-1,-2.7187073E-1,-1.6730751E-1,4.95789E-2,1.71282E-1,-6.5047364E-3,-1.04076564E-1,1.4548895E-1,2.2491815E-2,1.684503E-1,3.2400483E-1,-2.181882E-1,-2.4745895E-2,3.152982E-1,9.3192436E-2,2.4119516E-1,1.23109154E-1,2.5409803E-1,4.1004497E-1,3.4210265E-1,4.6342093E-1,2.3786998E-1,4.8711357E-1,6.321921E-1,1.9649093E-1],"categories":[],"categories_nodes":[],"categories_segments":[],"categories_sizes":[],"default_left":[0,0,0,0,0,0,0,0,0,0,0,0,0,0,0,0,0,0,0,0,0,0,0,0,0,0,0,0,0,0,0,0,0,0,0,0,0,0,0,0,0,0,0,0,0,0,0,0,0,0,0,0,0,0,0,0,0,0,0,0,0,0,0,0,0,0,0,0,0,0,0,0,0,0,0,0,0,0,0,0,0,0,0,0,0,0,0,0,0,0,0,0,0,0,0,0,0,0,0,0,0,0,0,0,0,0,0,0,0],"id":14,"left_children":[1,3,5,7,9,11,13,15,17,19,21,23,25,27,29,-1,-1,-1,31,33,35,37,39,41,43,45,47,-1,49,-1,-1,-1,-1,-1,-1,51,53,55,57,59,61,63,65,67,69,-1,71,-1,73,-1,-1,75,77,79,81,83,85,87,89,91,93,95,-1,97,99,101,103,-1,-1,105,107,-1,-1,-1,-1,-1,-1,-1,-1,-1,-1,-1,-1,-1,-1,-1,-1,-1,-1,-1,-1,-1,-1,-1,-1,-1,-1,-1,-1,-1,-1,-1,-1,-1,-1,-1,-1,-1,-1],"loss_changes":[4.0822642E6,4.6180988E5,9.3763925E5,4.707925E4,5.3405406E4,2.3778981E5,6.9996E4,1.48075E3,3.2990625E3,1.0884984E4,4.0438894E3,2.0912078E4,1.6845125E4,5.5419375E3,1.015375E3,0E0,0E0,0E0,5.5165625E2,8.5896875E2,1.201332E3,9.502611E2,6.635571E2,2.706586E3,2.3564844E3,8.130156E2,1.0385E3,0E0,5.9125E1,0E0,0E0,0E0,0E0,0E0,0E0,4.1114453E2,2.6448096E2,2.880598E2,5.919233E2,5.234829E2,5.2339996E2,5.3391504E2,1.4409531E3,6.7109375E0,6.479297E2,0E0,1.1904297E2,0E0,8.65625E1,0E0,0E0,1.1294141E2,3.353496E2,1.2410687E2,1.0519385E2,6.465198E1,9.348999E0,9.3322784E1,4.325265E2,5.8576E2,5.850879E1,2.0821173E2,0E0,2.1196826E2,4.239419E2,6.132539E2,1.2648125E3,0E0,0E0,3.8642578E2,2.8195312E2,0E0,0E0,0E0,0E0,0E0,0E0,0E0,0E0,0E0,0E0,0E0,0E0,0E0,0E0,0E0,0E0,0E0,0E0,0E0,0E0,0E0,0E0,0E0,0E0,0E0,0E0,0E0,0E0,0E0,0E0,0E0,0E0,0E0,0E0,0E0,0E0,0E0,0E0],"parents":[2147483647,0,0,1,1,2,2,3,3,4,4,5,5,6,6,7,7,8,8,9,9,10,10,11,11,12,12,13,13,14,14,18,18,19,19,20,20,21,21,22,22,23,23,24,24,25,25,26,26,28,28,35,35,36,36,37,37,38,38,39,39,40,40,41,41,42,42,43,43,44,44,46,46,48,48,51,51,52,52,53,53,54,54,55,55,56,56,57,57,58,58,59,59,60,60,61,61,63,63,64,64,65,65,66,66,69,69,70,70],"right_children":[2,4,6,8,10,12,14,16,18,20,22,24,26,28,30,-1,-1,-1,32,34,36,38,40,42,44,46,48,-1,50,-1,-1,-1,-1,-1,-1,52,54,56,58,60,62,64,66,68,70,-1,72,-1,74,-1,-1,76,78,80,82,84,86,88,90,92,94,96,-1,98,100,102,104,-1,-1,106,108,-1,-1,-1,-1,-1,-1,-1,-1,-1,-1,-1,-1,-1,-1,-1,-1,-1,-1,-1,-1,-1,-1,-1,-1,-1,-1,-1,-1,-1,-1,-1,-1,-1,-1,-1,-1,-1,-1],"split_conditions":[1.0101836E-1,-7.1953213E-1,1.5123867E0,-1.0644568E0,-2.717275E-1,7.635157E-1,2.3492174E0,-1.219981E0,-9.284878E-1,-5.1499075E-1,-5.507042E-2,4.631518E-1,1.0431261E0,-5.394458E-1,2.6868954E0,-1.1420096E0,-1.0286164E0,-8.6515695E-1,-8.418606E-1,-5.718023E-1,-3.543617E-1,-1.8204924E-1,4.7222257E-1,1.934029E-1,5.064775E-1,2.96042E-1,-1.1250132E0,1.3884605E0,1.9147663E0,2.3623426E0,2.8194337E0,-7.698999E-1,-6.6089386E-1,-5.449498E-1,-4.2475614E-1,2.1377262E-1,-6.4337015E-1,6.2463504E-1,-3.159271E-1,5.0701463E-1,4.9630392E-1,1.8392749E-1,-5.414826E-1,-1.8146609E-1,6.7584805E-2,9.765751E-1,6.2340283E-1,1.0163162E0,-1.1452284E0,1.7678219E0,2.060433E0,1.3655412E0,-3.4153908E-1,-4.0770146E-1,-6.277577E-1,-5.51484E-1,2.9197276E-1,1.8875841E-2,-2.1511365E-1,1.3767734E-1,-8.283136E-2,1.0529211E-1,1.9958848E-1,1.2329584E0,2.2893557E-1,1.0267096E-1,2.4446748E-1,7.3291755E-1,5.8219993E-1,5.0835085E-1,1.0003077E0,1.9663084E-1,7.610234E-1,9.170154E-1,1.3092835E0,-3.0410597E-1,-2.1575415E-1,-4.0339714E-1,-2.7877343E-1,-1.8286352E-1,-5.106019E-2,-3.2114625E-1,-2.1528654E-1,-5.6771763E-2,-1.3333914E-1,-2.7187073E-1,-1.6730751E-1,4.95789E-2,1.71282E-1,-6.5047364E-3,-1.04076564E-1,1.4548895E-1,2.2491815E-2,1.684503E-1,3.2400483E-1,-2.181882E-1,-2.4745895E-2,3.152982E-1,9.3192436E-2,2.4119516E-1,1.23109154E-1,2.5409803E-1,4.1004497E-1,3.4210265E-1,4.6342093E-1,2.3786998E-1,4.8711357E-1,6.321921E-1,1.9649093E-1],"split_indices":[2,76,56,2,3,76,77,8,3,4,2,3,76,114,2,0,0,0,76,114,4,3,45,76,12,46,59,0,10,0,0,0,0,0,0,113,46,111,58,58,10,95,53,46,107,0,2,0,48,0,0,59,56,12,52,46,75,14,111,10,45,8,0,84,14,69,55,0,0,4,30,0,0,0,0,0,0,0,0,0,0,0,0,0,0,0,0,0,0,0,0,0,0,0,0,0,0,0,0,0,0,0,0,0,0,0,0,0,0],"split_type":[0,0,0,0,0,0,0,0,0,0,0,0,0,0,0,0,0,0,0,0,0,0,0,0,0,0,0,0,0,0,0,0,0,0,0,0,0,0,0,0,0,0,0,0,0,0,0,0,0,0,0,0,0,0,0,0,0,0,0,0,0,0,0,0,0,0,0,0,0,0,0,0,0,0,0,0,0,0,0,0,0,0,0,0,0,0,0,0,0,0,0,0,0,0,0,0,0,0,0,0,0,0,0,0,0,0,0,0,0],"sum_hessian":[3.808E3,2.314E3,1.494E3,1.329E3,9.85E2,1.183E3,3.11E2,6.77E2,6.52E2,6.43E2,3.42E2,7.34E2,4.49E2,1.75E2,1.36E2,4.5E2,2.27E2,3.31E2,3.21E2,2.45E2,3.98E2,1.94E2,1.48E2,5.05E2,2.29E2,1.67E2,2.82E2,2.2E1,1.53E2,4.6E1,9E1,2.24E2,9.7E1,1.69E2,7.6E1,3.04E2,9.4E1,5.6E1,1.38E2,1.29E2,1.9E1,1.37E2,3.68E2,1.14E2,1.15E2,1.39E2,2.8E1,2.7E1,2.55E2,6E1,9.3E1,2.05E2,9.9E1,2E1,7.4E1,3.7E1,1.9E1,2.4E1,1.14E2,1.14E2,1.5E1,1.5E1,4E0,5.1E1,8.6E1,1.15E2,2.53E2,9.1E1,2.3E1,6.9E1,4.6E1,1E0,2.7E1,9E0,2.46E2,1.84E2,2.1E1,6.9E1,3E1,1E1,1E1,1.2E1,6.2E1,1.4E1,2.3E1,1E1,9E0,1.9E1,5E0,5.9E1,5.5E1,7.8E1,3.6E1,7E0,8E0,5E0,1E1,4.7E1,4E0,4.8E1,3.8E1,9.2E1,2.3E1,1.32E2,1.21E2,7E0,6.2E1,4.4E1,2E0],"tree_param":{"num_deleted":"0","num_feature":"115","num_nodes":"109","size_leaf_vector":"1"}},{"base_weights":[1.6436918E-2,-2.573929E1,3.962448E1,-3.7457996E1,-9.496842E0,2.7066607E1,8.577258E1,-4.3616222E1,-3.181826E1,-1.4744488E1,2.4716455E-1,1.6618189E1,4.450397E1,7.347619E1,1.0635231E2,-1.1390318E0,-1.046256E0,-3.4259712E1,-2.8986282E1,-2.0088253E1,-1.1438467E1,-2.7865753E0,4.2837973E0,1.3058458E1,2.4488188E1,3.6240112E1,4.9292557E1,1.4407101E0,7.7955925E1,2.7334096E0,2.0375354E0,-9.114615E-1,-8.245603E-1,-7.497364E-1,-6.484727E-1,-5.343444E-1,-4.179829E-1,-1.4229111E1,-1.0446525E1,-3.6006117E-1,-5.257456E0,5.010392E0,-7.952367E-1,1.0698983E1,1.5847824E1,2.729059E1,1.9979773E1,3.7484756E1,2.757278E1,4.5160553E1,5.164071E1,1.2693721E0,1.9739059E0,-1.4866151E-1,-3.585417E-1,-1.1415976E1,-7.293815E0,2.699285E0,-1.4933363E0,-3.5275068E0,-9.810728E0,2.9619226E0,6.721005E0,-3.5995336E0,1.9543046E-1,7.5895205E0,1.1937583E1,1.6746296E1,6.989163E0,6.367683E-1,3.0636354E1,1.7289095E1,5.9722906E-1,3.80971E1,6.511318E-1,1.9389984E-1,7.0336777E-1,4.7728992E-1,1.137617E0,1.0133218E0,1.3182944E0,-2.9035994E-1,-2.050703E-1,-2.0793496E-1,-6.314584E-2,1.5379147E-1,1.5806995E-2,-1.0693295E-1,-1.744518E-2,-1.4202097E-1,-4.0345352E-2,-3.1770933E-1,-1.9014096E-1,5.052886E-2,2.0348628E-1,1.4866838E-1,2.8421494E-1,-1.9168454E-1,-2.0413991E-2,2.2893758E-1,1.1054609E-1,1.9187461E-1,3.142695E-1,4.9448013E-1,3.7687787E-1,2.4787521E-1,6.076236E-3,7.9267806E-1,4.731257E-1,3.2261923E-1,5.222047E-1,6.125756E-1,9.6448624E-1],"categories":[],"categories_nodes":[],"categories_segments":[],"categories_sizes":[],"default_left":[0,0,0,0,0,0,0,0,0,0,0,0,0,0,0,0,0,0,0,0,0,0,0,0,0,0,0,0,0,0,0,0,0,0,0,0,0,0,0,0,0,0,0,0,0,0,0,0,0,0,0,0,0,0,0,0,0,0,0,0,0,0,0,0,0,0,0,0,0,0,0,0,0,0,0,0,0,0,0,0,0,0,0,0,0,0,0,0,0,0,0,0,0,0,0,0,0,0,0,0,0,0,0,0,0,0,0,0,0,0,0,0,0],"id":15,"left_children":[1,3,5,7,9,11,13,15,17,19,21,23,25,27,29,-1,-1,31,33,35,37,39,41,43,45,47,49,-1,51,-1,-1,-1,-1,-1,-1,-1,-1,53,55,57,59,61,63,65,67,69,71,73,75,77,79,-1,-1,-1,-1,81,83,85,87,89,91,93,95,97,-1,99,101,103,105,-1,107,109,-1,111,-1,-1,-1,-1,-1,-1,-1,-1,-1,-1,-1,-1,-1,-1,-1,-1,-1,-1,-1,-1,-1,-1,-1,-1,-1,-1,-1,-1,-1,-1,-1,-1,-1,-1,-1,-1,-1,-1,-1],"loss_changes":[3.875092E6,4.3780338E5,8.65481E5,4.5257625E4,4.939886E4,2.1394631E5,7.453225E4,5.92125E2,4.0004375E3,1.0882047E4,4.159724E3,2.0383672E4,1.5945875E4,1.0695E4,1.454125E3,0E0,0E0,2.6625E1,3.41125E2,7.1784375E2,9.403711E2,1.1559441E3,5.446201E2,3.198336E3,2.4167188E3,8.989375E2,7.425E2,0E0,9.25125E2,0E0,0E0,0E0,0E0,0E0,0E0,0E0,0E0,8.5859375E0,8.072168E2,3.4480756E2,7.162532E2,4.2415674E2,4.7319186E2,9.8566016E2,1.7323281E3,1.7598438E2,5.917578E2,1.4817188E2,6.1746094E1,2.1142188E2,2.855E2,0E0,0E0,0E0,0E0,4.8703125E1,3.2005298E2,1.82708E2,1.5486508E2,2.785838E2,7.127539E1,2.6998773E2,1.7963916E2,1.557507E2,0E0,3.6303125E2,4.404961E2,7.969531E2,4.39974E2,0E0,4.1246094E1,6.535996E2,0E0,6.40625E1,0E0,0E0,0E0,0E0,0E0,0E0,0E0,0E0,0E0,0E0,0E0,0E0,0E0,0E0,0E0,0E0,0E0,0E0,0E0,0E0,0E0,0E0,0E0,0E0,0E0,0E0,0E0,0E0,0E0,0E0,0E0,0E0,0E0,0E0,0E0,0E0,0E0,0E0,0E0],"parents":[2147483647,0,0,1,1,2,2,3,3,4,4,5,5,6,6,7,7,8,8,9,9,10,10,11,11,12,12,13,13,14,14,17,17,18,18,19,19,20,20,21,21,22,22,23,23,24,24,25,25,26,26,28,28,37,37,38,38,39,39,40,40,41,41,42,42,43,43,44,44,45,45,46,46,47,47,48,48,49,49,50,50,55,55,56,56,57,57,58,58,59,59,60,60,61,61,62,62,63,63,65,65,66,66,67,67,68,68,70,70,71,71,73,73],"right_children":[2,4,6,8,10,12,14,16,18,20,22,24,26,28,30,-1,-1,32,34,36,38,40,42,44,46,48,50,-1,52,-1,-1,