tree
version=v4
num_class=1
num_tree_per_iteration=1
label_index=0
max_feature_idx=114
objective=regression
feature_names=Returns Log_Returns SMA_3 EMA_3 SMA_5 EMA_5 SMA_10 EMA_10 SMA_20 EMA_20 SMA_50 EMA_50 SMA_100 EMA_100 SMA_200 EMA_200 SMA_5_20_Cross SMA_20_50_Cross SMA_50_200_Cross SMA_5_200_Cross Price_SMA20_Ratio Price_EMA20_Ratio Price_SMA50_Ratio Price_EMA50_Ratio Price_SMA200_Ratio Price_EMA200_Ratio RSI_5 RSI_14 RSI_21 MACD MACD_Signal MACD_Diff MACD_Histogram Stoch_K Stoch_D ROC_5 ROC_10 ROC_20 Momentum_1 Momentum_3 Momentum_5 Momentum_10 Momentum_20 Volatility_5 Volatility_10 Volatility_20 Volatility_60 ATR ATR_Percent BB_20_Upper BB_20_Lower BB_20_Mid BB_20_Width BB_20_Position BB_20_Squeeze BB_50_Upper BB_50_Lower BB_50_Mid BB_50_Width BB_50_Position BB_50_Squeeze Volume_SMA_5 Volume_SMA_20 Volume_Ratio Volume_Trend OBV OBV_SMA OBV_Signal PVT PVT_SMA High_Low_Range Close_Position Open_Close_Ratio High_Close_Ratio Low_Close_Ratio ADX SuperTrend Close_Lag_1 Return_Lag_1 RSI_Lag_1 Close_Lag_2 Return_Lag_2 RSI_Lag_2 Close_Lag_3 Return_Lag_3 RSI_Lag_3 Close_Lag_5 Return_Lag_5 RSI_Lag_5 Close_Lag_7 Return_Lag_7 RSI_Lag_7 Close_Lag_10 Return_Lag_10 RSI_Lag_10 Close_Lag_20 Return_Lag_20 RSI_Lag_20 Close_Lag_30 Return_Lag_30 RSI_Lag_30 Cumulative_Return_5 Cumulative_Return_10 Cumulative_Return_20 Cumulative_Return_60 Bullish_Signal Bearish_Signal Volume_Price_Trend High_52W Low_52W Position_52W Skewness_20 Kurtosis_20 Skewness_60 Kurtosis_60
feature_infos=[-10.415745793466057:17.979594278642107] [-12.7799185408666:14.349768394677154] [-1.16739637586293:1.2854726335221953] [-1.1673870609621271:1.2773754031745528] [-1.1657292276325086:1.2728885414008395] [-1.1669255267182335:1.2621764585932247] [-1.165936240213306:1.2676268524717469] [-1.165682131048313:1.2509615310012476] [-1.166706430199864:1.2614978945727786] [-1.1647994031757205:1.2433483745388645] [-1.1888656796900954:1.2236553204958482] [-1.2066097475826456:1.2176371360341414] [-1.2143274395556527:1.2030028335335043] [-1.2523587451635154:1.1778724097611373] [-1.2658386831831969:1.1963814569818074] [-1.3065271787194705:1.1269532643385636] [-1.0393780346682178:0.96211384755616114] [-1.125137354252389:0.88878037532089771] [-1.3787518516914086:0.72529367686667634] [-1.3382871338490405:0.74722380175912262] [-5.8103722655895433:9.0854420619662015] [-6.3599676241290233:9.266786077609467] [-4.0201223914045698:8.2956159129633029] [-4.2936960225358431:10.001649115083048] [-2.7624930196723745:4.1853074430129835] [-2.5407551588102795:9.4582914602935304] [-1.7448195035421894:1.7802246308240885] [-2.7800088742818549:2.6793536472517432] [-2.9167143376749194:2.9574338154777591] [-6.5033069115449482:3.4931528563176801] [-5.842794248216987:3.3509979461725434] [-7.3697262042951239:5.3377568936821325] [-1.0301337436411278:0.97074773656611169] [-1.3756626115801267:1.3679375642050227] [-1.4806274211533395:1.4721590529451127] [-6.1470093490267672:8.7563985229462169] [-5.4660376340840902:8.4090482123365717] [-3.4866080096699594:12.071741895617929] [-11.077365889930689:3.2485868795091162] [-8.2149297598539999:3.8063181809230744] [-9.2368817969714936:4.7067938273782719] [-8.9928809747231906:3.7516773322685584] [-6.0475679978068673:3.3911573781079665] [-1.3349496780440839:14.961158950038383] [-1.5632425488670671:12.436582766919262] [-1.3801970680954663:10.111279875712269] [-1.0637991032465997:8.459472663493095] [-1.0869987340771903:2.7369873544402452] [-1.7969418034706783:8.2604440248255546] [-1.1701224501801395:1.1676103380598226] [-1.1933102895622558:1.4270907904176335] [-1.166706430199864:1.2614978945727786] [-0.91966608390615456:7.1978033410835387] [-1.702806185715356:1.5887239619035736] [-1.0928033345400583:11.169927329787628] [-1.1860612687462904:1.3422535735835652] [-1.2364133177269696:1.4158723005808651] [-1.1888656796900954:1.2236553204958482] [-1.0083256819812403:5.0086354511485025] [-1.7392711124181:1.4683495999510132] [-1.103144839869167:7.1124957143039964] [-0.59989120518224148:5.9792750975354139] [-0.70759427817336906:4.9595639786028602] [-0.76878462168092854:11.57877190330116] [-1.5834408425657238:4.2791233836665707] [-1.0243156373938076:0.72339534345964263] [-1.0205792871673502:0.70810755335705011] [-1.3634968583575728:0.73340836384806207] [-1.4290512782527318:5.6943071194898653] [-1.1931965242997538:5.0455594805349113] [-1.226591534769421:16.464156489162825] [-65.032120710836594:27.104164108816956] [-0.013929251970803573:71.79136438319027] [-1.8680524882551681:9.0936483842965039] [-2.1846234565766913:16.18383022105618] [-1.8163439468276703:3.3161360069436405] [-1.1679064670837727:1.3112636662970563] [-1.1678476008313829:1.3050739802499829] [-10.415192387363851:17.978246405465949] [-2.7797979881583914:2.6789210366642946] [-1.167844154893471:1.3067070343998779] [-10.414616896780966:17.977511244238901] [-2.7798760676899961:2.679011706220721] [-1.1678433122633696:1.3083474033941143] [-10.415994170170881:17.979151280244899] [-2.77989156511252:2.6790557826051629] [-1.1678939913249407:1.3117616042462457] [-10.414224606230089:17.975941033667389] [-2.7798368188398368:2.6791388137309915] [-1.1678991153251226:1.3150691148896949] [-10.416727336320939:17.982884853270157] [-2.7796303709347407:2.6786126227281843] [-1.1676172488741481:1.3193736742856657] [-10.320125195904767:17.809811308173938] [-2.7799120630082252:2.6769514801467946] [-1.2053315940717857:1.3330012914151987] [-10.155195676053573:17.521026025888624] [-2.7922890307112658:2.6796251974223257] [-1.2285042301678235:1.3544449142327257] [-9.7953239790323501:16.884420908425462] [-2.788724565829062:2.6735821494846705] [-7.4840205781171667:8.265734517366262] [-7.5677885949713195:6.7630865725405362] [-4.8891577433782016:8.1102906235735048] [-2.7454087096176254:7.6002160531245115] [-1.1373981628825798:1.450678433744963] [-1.0587664110143529:1.4982449962374573] [-0.65193101392641317:14.359694702680649] [-1.3095169145003138:0.86436792646855676] [-1.2362168602782189:1.730493407750344] [-1.7488760153602636:1.3335581596851207] [-4.9828660950040531:2.7605642598456117] [-1.213816781390106:7.0861502660618099] [-5.7018757589328724:3.2880420055843147] [-0.70837631108376742:7.5996382535582985]
tree_sizes=3494 3636 3425 3469 3777 3411 3611 3568 3686 3433 3695 3336 3693 3651 3742 3823 3845 3599 3773 4005 3942 4105 4072 4077 4049 4133 4134 4040 4069 4065 4083 4007 4023 4012 4026 4055 4025 3995 4040 4004 4123 4002 3947 4010 4041 4068 4064 4080 4079 3976 4034 4024 4075 4058 4062 4060 4010 4034 4016 4061 4023 4021 4078 4044 4059 4092 4098 4052 4044 4040 4016 4036 4044 4108 4030 4091 4124 4109 4074 4089 4067 4074 4074 4120 4046 4010 4027 4028 3980 4056 4123 4110 4073 4051 4109 4074 4021 4055 4086 4001 4045 4123 3982 4041 4058 4057 4006 4082 4114 4127 4014 4057 4003 4134 4098 4069 4067 4087 4108 4141 4118 4105 4123 4198 4153 4085 4064 4074 4125 4148 4054 4087 4105 4080 4100 4100 4084 4082 4088 4052 4069 4070 4129 4100 4067 4074 4069 4104 4072 3996 4082 4031 4048 4060 4073 4121 4150 4166 4100 4116 4094 4089 4115 4116 4055 4202 4070 4146 4198 4143 4044 4077 4136 4114 4178 4039 4136 4157 4129 4066 4080 4116 4063 4107 4066 4083 4145 4125 4138 4182 4052 4059 4170 4051 4126 4139 4135 4164 4183 4117 4157 4176 4145 4174 4207 4207 4114 4171 4234 4148 4103 4142 4119 4189 4148 4146 4217 4111 4221 4157 4156 4152 4157 4145 4189 4079 4115 4145 4154 4043 4158 4147 4192 4104 4142 4129 4137 4145 4138 4141 4051 4121 4298 4214 4198 4188 4108 4201 4219 4202 4138

Tree=0
num_leaves=40
num_cat=0
split_feature=76 2 76 7 2 2 76 114 21 2 2 2 2 2 114 98 65 2 24 65 2 2 104 36 76 60 68 44 27 13 58 2 46 114 62 8 104 78 114
split_gain=3.01203e+06 315944 170865 29290.6 20795.5 20369.8 18835.9 4865.68 4856.08 4001.74 3342.04 2234.07 1974.13 1631.15 1167 1019.29 981.047 923.769 513.262 490.339 474.729 466.446 433.017 423.008 376.188 355.492 349.959 331.636 543.136 289.534 280.982 247.795 140.68 120.703 75.2982 64.4959 53.2036 30.2949 19.4737
threshold=-0.21371175477766022 0.36686402222603309 -0.79368048168652605 0.80365513325378701 0.10833325389845762 -1.0293498777989392 -0.53193069863155618 -0.51888839436288203 -0.48556417105947075 -0.90104151752102457 -0.37622305042248211 -0.68233637475995168 0.22075837564942807 -0.012889771645450654 -0.56585398860256619 -0.095947186061235104 0.33649211725024969 0.64702017239579035 1.6184924328561012 -0.38054477243136403 -0.61571408038900621 1.0556525817708089 -0.090938799492213687 0.15535141436178143 -1.0670376131021224 0.08983600076464944 -0.35026636673469413 -0.70345313582963065 -1.3994909740965891 -0.63627539003029732 0.03754848741698525 -0.76924085955431021 -0.31015247655086114 -0.60273757828483776 -0.42971854386921693 -0.52681048524810914 -0.37896310101893266 0.041571598773400484 -0.41393535688983502
decision_type=2 2 2 2 2 2 2 2 2 2 2 2 2 2 2 2 2 2 2 2 2 2 2 2 2 2 2 2 2 2 2 2 2 2 2 2 2 2 2
left_child=2 4 5 8 7 24 11 15 16 32 19 31 22 27 -12 18 -3 -10 30 25 -13 -5 -6 -15 -1 29 -22 -9 -29 -8 36 -4 -7 -28 -14 -27 -2 -31 -11
right_child=1 3 6 21 12 9 10 13 17 38 14 20 34 23 -16 -17 -18 -19 -20 -21 26 -23 -24 -25 -26 35 33 28 -30 37 -32 -33 -34 -35 -36 -37 -38 -39 -40
leaf_value=45.167684041787119 46.109101198743424 46.793951889279278 45.514201731807802 47.162596801675299 46.381175273100368 45.374933330159493 45.761961963174471 46.157599632345431 46.876205051441175 45.486546934852875 46.087059058655591 45.639579322585796 46.424101229405863 46.315328231306218 45.874670821999459 46.014873785759264 46.533091646304605 47.003191881140694 46.24823363985081 45.90788372120975 45.655669807479107 47.358461109783057 46.504924425923718 46.423896055868099 45.247954146294454 45.802101212481162 45.80077208588547 46.161631204422441 46.325351282567368 45.892569872966774 46.0600755472787 45.589609670549976 45.314264489509661 45.717917873287824 46.593701362253888 45.729884354408711 46.202560485291123 45.850873617917969 45.419167799793819
leaf_weight=355 14.999999999999998 52 45 185 64 125 14.999999999999998 28 132 67 30 239 14.999999999999998 75 14.999999999999998 23 18 187 27 19 53 51 43 45 126 14.999999999999998 14.999999999999998 19 30 15.999999999999998 21 174 416 45 98 28 19 19 139
leaf_count=355 15 52 45 185 64 125 15 28 132 67 30 239 15 75 15 23 18 187 27 19 53 51 43 45 126 15 15 19 30 16 21 174 416 45 98 28 19 19 139
internal_value=45.92 46.725 45.4345 47.0283 46.3607 45.2906 45.6777 46.2513 46.9157 45.3577 45.8721 45.6244 46.5091 46.3104 46.0164 46.1382 46.7348 46.9532 46.1713 45.8138 45.6574 47.2097 46.435 46.3592 45.1875 45.795 45.6969 46.2303 46.2671 45.8342 46.1291 45.5726 45.3274 45.7365 46.575 45.7521 46.1671 45.8684 45.4392
internal_weight=0 1147 1956 625 522 1228 728 302 389 747 157 571 220 197 45 105 70 319 82 112 352 236 107 120 481 93 113 77 49 50 55 219 541 60 113 43 34 35 206
internal_count=3103 1147 1956 625 522 1228 728 302 389 747 157 571 220 197 45 105 70 319 82 112 352 236 107 120 481 93 113 77 49 50 55 219 541 60 113 43 34 35 206
is_linear=0
shrinkage=1


Tree=1
num_leaves=40
num_cat=0
split_feature=3 3 3 5 3 3 2 44 3 3 3 114 3 3 2 3 102 3 14 21 41 104 44 27 10 27 3 58 10 2 58 11 5 86 95 75 11 62 11
split_gain=2.89319e+06 283573 179448 29534.1 26018.4 19615.8 16801.6 4635.93 4846.93 4016.49 3984.83 3086.44 2800.83 1818.2 1558.66 1042.43 906.602 577.773 509.937 408.618 406.762 370.477 344.564 545.186 338.156 277.71 268.993 244.947 213.24 207.779 190.484 188.223 182.509 141.187 139.967 45.5386 41.5572 41.0621 24.7566
threshold=-0.20625630762659983 0.36450548334421168 -0.79561896633084939 0.83637080490888149 -0.47368941048155816 -1.0329948577274852 0.10833325389845762 0.45924050101952213 0.62852496589356377 -0.619180723908349 -0.91699798989199166 -0.51888839436288203 -0.33571878700843283 0.22079221409358771 -0.012889771645450654 -0.68995108314987685 0.12565121791396816 -0.53988076702460408 -0.63001717910616695 -0.26514792045446534 0.21393475100809889 -0.090938799492213687 -0.70345313582963065 -1.3994909740965891 -0.13224834232351085 0.2564908831285107 -0.84676935761353589 0.2841887752963328 -0.61540098792992926 -0.76924085955431021 -0.26487462303442227 -0.6249453666720457 -1.0656280873646116 -0.24228918455724527 -0.21112407758654519 -1.3192175817426739 -0.61611204034032119 -0.42971854386921693 -0.69879508054102712
decision_type=2 2 2 2 2 2 2 2 2 2 2 2 2 2 2 2 2 2 2 2 2 2 2 2 2 2 2 2 2 2 2 2 2 2 2 2 2 2 2
left_child=2 6 5 7 9 32 11 8 19 15 -7 16 18 21 22 29 24 28 30 -3 -16 -8 -13 -24 -2 -19 -12 -20 36 -4 -6 -27 -1 -14 -18 -17 -11 -15 -37
right_child=1 3 4 -5 12 10 13 -9 -10 17 26 14 33 37 20 35 34 25 27 -21 -22 -23 23 -25 -26 31 -28 -29 -30 -31 -32 -33 -34 -35 -36 38 -38 -39 -40
leaf_value=-0.73536782175479798 0.202034788935372 0.79551622371609798 -0.40017298536009149 1.2845393521432273 -0.049219992193607016 -0.58579486386269775 0.45289561636653952 0.57849640421475035 1.0626719629257495 -0.20317142689089981 -0.5064403756170186 0.23288760742085093 0.19030008043012309 0.49945039204188751 0.38753044453019519 -0.20447376553016369 0.22468695259930793 -0.18940404487170759 0.064160145625789117 0.94345954479410499 0.49401949886671842 0.57206747607650055 0.2255486501966204 0.39748016654671015 0.065782276093959813 -0.14107223287541815 -0.43433279328157104 -0.042505261227488517 -0.25584942048483522 -0.32703486668047049 -0.14596590567238724 -0.042769621717078349 -0.65670950754378388 0.11379740631020308 0.32547095961040917 -0.22375510048447994 -0.13964616920266834 0.65829419684068802 -0.28693258137430844
leaf_weight=369 17 59 45 211 21 506 64 14.999999999999998 239 51 153 29 24 15.999999999999998 75 14.999999999999998 22 27 18 102 45 42 15.999999999999998 30 14.999999999999998 18 95 14.999999999999998 54 154 14.999999999999998 15.999999999999998 105 29 28 22 15.999999999999998 97 213
leaf_count=369 17 59 45 211 21 506 64 15 239 51 153 29 24 16 75 15 22 27 18 102 45 42 16 30 15 18 95 15 54 154 15 16 105 29 28 22 16 97 213
internal_value=0 0.80297 -0.467722 1.08593 -0.224267 -0.616751 0.444647 0.982627 0.996558 -0.275908 -0.551686 0.33921 0.0427522 0.576215 0.383231 -0.308349 0.231643 -0.194787 -0.0409832 0.893545 0.430603 0.504196 0.303478 0.342898 0.141816 -0.140261 -0.480368 0.015344 -0.221042 -0.34519 -0.0922624 -0.0973186 -0.719113 0.151052 0.285678 -0.277953 -0.190064 0.639613 -0.281865
internal_weight=0 1122 1981 626 753 1228 496 415 400 631 754 277 122 219 195 449 82 182 69 161 120 106 75 46 32 61 248 33 121 199 36 34 474 53 50 250 67 113 235
internal_count=3103 1122 1981 626 753 1228 496 415 400 631 754 277 122 219 195 449 82 182 69 161 120 106 75 46 32 61 248 33 121 199 36 34 474 53 50 250 67 113 235
is_linear=0
shrinkage=0.02


Tree=2
num_leaves=38
num_cat=0
split_feature=76 3 3 3 3 2 3 114 44 3 3 2 3 3 2 114 98 2 65 3 24 36 26 21 104 44 79 68 69 58 76 58 30 68 104 53 76
split_gain=2.78005e+06 291691 157717 27870.2 19848.4 18921.1 15829.7 4487.69 4458.04 4751.71 3865.91 3099.12 1975.39 1745.25 1493.79 1101.69 957.705 954.6 567.966 486.813 486.434 391.127 391.018 388.615 356.238 308.379 350.273 296.556 295.868 261.146 236.904 108.94 59.7569 49.998 49.2495 34.6723 17.7036
threshold=-0.21371175477766022 0.36450548334421168 -0.82437870682344172 0.83804039020199705 -0.53988076702460408 0.10833325389845762 -1.0329948577274852 -0.51888839436288203 0.45924050101952213 0.62852496589356377 -0.68995108314987685 -0.37622305042248211 -0.92901440319101869 0.22079221409358771 -0.012889771645450654 -0.56585398860256619 -0.095947186061235104 -0.76924085955431021 -0.47759421998027912 -0.619180723908349 1.6184924328561012 0.15535141436178143 1.1854120004909563 -0.26514792045446534 -0.090938799492213687 -0.70345313582963065 -1.5359425806660758 -0.35026636673469413 0.74171732547403402 0.03754848741698525 -1.0670376131021224 -0.28138538301875088 0.20329710798072412 -0.34589608870123295 -0.37896310101893266 -0.98130922555733069 -0.48891736321555784
decision_type=2 2 2 2 2 2 2 2 2 2 2 2 2 2 2 2 2 2 2 2 2 2 2 2 2 2 2 2 2 2 2 2 2 2 2 2 2
left_child=2 5 6 8 10 7 30 16 9 23 17 18 -8 24 25 -13 20 -4 22 32 29 -16 36 -3 -7 -9 -27 -21 -20 34 -1 -30 -12 -29 -2 -15 -6
right_child=1 3 4 -5 11 13 12 14 -10 -11 19 15 -14 35 21 -17 -18 -19 28 27 -22 -23 -24 -25 -26 26 -28 33 31 -31 -32 -33 -34 -35 -36 -37 -38
leaf_value=-0.72263478622736732 0.18174819668637046 0.779818733623594 -0.40906285618128402 1.2573921019182215 -0.19532251334959458 0.44394955552654508 -0.5785531282508436 0.22847662448883058 0.56751231017935122 1.0428615578976743 -0.27903586311445416 0.16111110554113015 -0.49659396935953021 0.49841807010325978 0.37986165570080438 -0.045195672270617909 0.090443954695673554 -0.32052798131947674 -0.11394539384614855 -0.25569718360900884 0.31677858037056683 0.48431171067416934 -0.063398352112245121 0.92473721396598363 0.56083998689027592 0.24283660368485885 0.38350695027933496 -0.1334934054599719 -0.045557628040072289 0.13446185278236317 -0.64690588618359701 0.028531063572986962 -0.22302801704971043 -0.19634363264549437 0.27181496687609735 0.64681381536177163 -0.14040094818985252
leaf_weight=355 14.999999999999998 59 106 211 24 64 456 28 14.999999999999998 239 217 30 237 18 75 14.999999999999998 23 154 15.999999999999998 54 27 45 21 102 42 19 30 17 14.999999999999998 21 119 15.000000000000002 33 50 19 95 22
leaf_count=355 15 59 106 211 24 64 456 28 15 239 217 30 237 18 75 15 23 154 16 54 27 45 21 102 42 19 30 17 15 21 119 15 33 50 19 95 22
internal_value=0 0.773454 -0.46635 1.06433 -0.247535 0.422833 -0.614004 0.31857 0.963899 0.977561 -0.297684 -0.046665 -0.551152 0.564854 0.375325 0.0924046 0.209904 -0.357828 -0.102448 -0.254812 0.24202 0.422111 -0.139517 0.875848 0.494269 0.298616 0.33406 -0.216705 -0.0466518 0.201018 -0.704778 -0.00821493 -0.272442 -0.182396 0.237631 0.626986 -0.172247
internal_weight=0 1147 1956 626 789 521 1167 302 415 400 631 158 693 219 197 45 105 260 113 371 82 120 67 161 106 77 49 121 46 55 474 30 250 67 34 113 46
internal_count=3103 1147 1956 626 789 521 1167 302 415 400 631 158 693 219 197 45 105 260 113 371 82 120 67 161 106 77 49 121 46 55 474 30 250 67 34 113 46
is_linear=0
shrinkage=0.02


Tree=3
num_leaves=38
num_cat=0
split_feature=76 3 3 5 3 2 3 44 3 5 3 66 5 2 31 2 2 56 3 3 33 104 21 100 27 68 69 45 13 76 58 12 113 30 68 46 46
split_gain=2.67074e+06 280104 151458 27269.7 19062.2 18172.1 15206.4 4241.66 4440.68 3802.19 3711.97 3138.04 1923.67 1675.45 1457.2 916.942 764.48 659.9 622.934 465.989 425.619 386.068 369.525 345.19 319.676 284.313 278.473 292.914 275.691 224.494 172.869 94.463 78.1915 56.2441 47.4349 9.30253 1.11401
threshold=-0.21371175477766022 0.36450548334421168 -0.82437870682344172 0.83637080490888149 -0.53988076702460408 0.10833325389845762 -1.0329948577274852 0.45924050101952213 0.62852496589356377 -0.042795252742126443 -0.68995108314987685 -0.27096966853744214 -0.92385780854219124 0.22075837564942807 -0.65855695072924136 -0.76924085955431021 -0.45798982804004895 -0.60600031696327039 -0.16450594014120382 -0.619180723908349 0.85840588815125007 -0.090938799492213687 -0.26514792045446534 0.17857106080770521 0.2564908831285107 -0.35026636673469413 1.7676014480363242 -0.44775152690277281 -0.63012404107042441 -1.0670376131021224 -0.26487462303442227 -0.14039620333979644 -0.0029519723800278054 0.20329710798072412 -0.34589608870123295 -0.23297036468275248 -0.86135811111224547
decision_type=2 2 2 2 2 2 2 2 2 2 2 2 2 2 2 2 2 2 2 2 2 2 2 2 2 2 2 2 2 2 2 2 2 2 2 2 2
left_child=2 5 6 7 10 9 29 8 22 18 15 16 -8 21 -11 -4 24 -18 23 33 31 -7 -3 32 -6 -21 27 -16 -26 -1 -19 -20 -2 -12 -27 -15 -33
right_child=1 3 4 -5 11 13 12 -9 -10 14 19 -13 -14 35 26 -17 17 30 20 25 -22 -23 -24 -25 28 34 -28 -29 -30 -31 -32 36 -34 -35 -36 -37 -38
leaf_value=-0.70821458287960104 0.25625864970533152 0.76443104670597961 -0.40094288890281421 1.2340142977879338 -0.17919475999268344 0.43429852744679392 -0.56497472630837697 0.55673675780054888 1.020594421972127 0.23576450172945748 -0.27347565079961378 0.14746411700900511 -0.48185163630578748 0.6321759029302616 0.35879564248774048 -0.31415055022375216 0.047414015908575351 -0.041972159463347813 0.16019747371915022 -0.2506578947331784 0.32663746332384885 0.55113114622629944 0.90638642129267244 0.091818154206436672 -0.12807945222996953 -0.13094353107923873 0.28956459769719761 0.460852279556827 -0.018494540788704834 -0.63405416440884144 -0.13446188080878485 0.19277915254423891 0.16413439811544214 -0.21867302956665766 -0.19247860183866006 0.47786548886118058 0.26572762229225849
leaf_weight=355 14.999999999999998 59 106 211 31 64 481 14.999999999999998 239 27 217 27 212 97 41 154 24 19 14.999999999999998 54 38 43 102 17 26 17 14.999999999999998 71 14.999999999999998 119 15.999999999999998 14.999999999999995 18 33 50 14.999999999999998 30.000000000000004
leaf_count=355 15 59 106 211 31 64 481 15 239 27 217 27 212 97 41 154 24 19 15 54 38 43 102 17 26 17 15 71 15 119 16 15 18 33 50 15 30
internal_value=0 0.758122 -0.457063 1.04316 -0.242633 0.414533 -0.601758 0.943897 0.957236 0.312352 -0.291779 -0.0457794 -0.540154 0.553718 0.382844 -0.350718 -0.086383 -0.032009 0.237231 -0.249766 0.268046 0.48514 0.858501 0.173248 -0.129878 -0.212453 0.412316 0.426444 -0.0894915 -0.69073 -0.08676 0.226866 0.211557 -0.267026 -0.17883 0.615187 0.245553
internal_weight=0 1147 1956 626 789 521 1167 415 400 302 631 158 693 219 154 260 131 59 148 371 98 107 161 50 72 121 127 112 41 474 35 60 33 250 67 112 45
internal_count=3103 1147 1956 626 789 521 1167 415 400 302 631 158 693 219 154 260 131 59 148 371 98 107 161 50 72 121 127 112 41 474 35 60 33 250 67 112 45
is_linear=0
shrinkage=0.02


Tree=4
num_leaves=42
num_cat=0
split_feature=2 2 2 5 2 2 2 2 44 2 2 5 15 2 2 7 68 48 104 58 108 44 64 104 2 100 5 11 68 43 28 46 11 62 46 58 45 39 75 7 75
split_gain=2.56526e+06 250860 158626 26090.7 23506.9 16767.6 15063 4330.15 4067.54 3981.97 3094.05 2552.14 2335.34 1673.29 1259.97 883.993 777.66 605.751 570.514 442.716 439.678 384.801 380.108 371.139 362.814 295.236 267.286 236.449 234.971 214.056 156.344 149.686 108.494 94.459 61.9072 47.2921 50.5152 26.5817 19.4417 11.2969 10.8211
threshold=-0.20103730962952712 0.36686402222603309 -0.80174609188852153 0.83637080490888149 -0.45798982804004895 -1.0293498777989392 0.10833325389845762 -0.61571408038900621 0.45924050101952213 0.63130483279619243 -0.90104151752102457 -0.042795252742126443 -0.59431539301662006 0.22075837564942807 -0.76924085955431021 0.080896263865691528 -0.34975509900291746 1.0000000180025095e-35 -0.49485430936194602 0.99302621795749479 -0.74908625482472402 0.15219838645721115 -0.18719230480697799 -0.090938799492213687 -0.68233637475995168 -0.2303955377953403 -1.0656280873646116 -0.6249453666720457 -0.43358311071098105 -0.13283257227723869 0.68534246901129059 -0.31015247655086114 -0.28609587111809714 -0.42971854386921693 0.036213205630638047 -0.10931687287896384 -0.35894037701620068 0.20196375213515563 0.95560925930360918 1.0556299692601367 -1.2836524927946209
decision_type=2 2 2 2 2 2 2 2 2 2 2 2 2 2 2 2 2 2 2 2 2 2 2 2 2 2 2 2 2 2 2 2 2 2 2 2 2 2 2 2 2
left_child=2 6 5 8 7 26 11 14 9 18 31 19 29 23 -4 17 32 35 -3 21 -18 37 28 -8 38 -17 -1 -22 -14 -6 -29 -7 -9 -15 -24 36 -13 -2 -16 -5 -26
right_child=1 3 4 39 12 10 13 16 -10 -11 -12 15 22 33 24 25 20 -19 -20 -21 27 -23 34 -25 40 -27 -28 30 -30 -31 -32 -33 -34 -35 -36 -37 -38 -39 -40 -41 -42
leaf_value=-0.69230745073135891 0.22735835662762602 0.75192223707336614 -0.38432090663590962 1.1652881872968421 -0.005929548311124154 -0.50202686892025794 0.42571980811931476 -0.24225010376227535 0.54616581602941583 1.0000359566791637 -0.44509575903168352 0.36324247015283462 0.12746386437189008 0.46262063279936583 -0.31066638294835858 0.33464375881438557 -0.1907665906758069 0.26937369711855624 0.89711180550711489 0.35256270955117897 -0.14932572490639157 0.1431801627707063 0.12858308411851715 0.54030986036884199 -0.20398595580687889 0.19260267884543769 -0.61676403194454543 -0.1088090852775959 0.016176315110318269 -0.093036663079446594 -0.025668838466658739 -0.55922842827502228 -0.1568516679353352 0.62233218822402026 0.20752736216843728 0.37062796433766687 0.4860042063395183 0.28747062010730767 -0.23086958317817011 1.3487034990069129 -0.26290161069031731
leaf_weight=369 57 63 59 166 21 125 64 60 14.999999999999998 236 192 18 16.000000000000004 14.999999999999998 159 18 43 18 100 17 28 22 14.999999999999998 43 20 17 112 19 14.999999999999998 25 19 416 14.999999999999998 98 19 40 43 27 14.999999999999998 45 219
leaf_count=369 57 63 59 166 21 125 64 60 15 236 192 18 16 15 159 18 43 18 100 17 28 22 15 43 20 17 112 19 15 25 19 416 15 98 19 40 43 27 15 45 219
internal_value=0 0.756169 -0.440343 1.02279 -0.214833 -0.58257 0.419748 -0.260337 0.925476 0.938574 -0.520698 0.319793 0.0538821 0.543913 -0.292655 0.375332 -0.176439 0.403588 0.84504 0.248151 -0.139953 0.228741 0.130481 0.475586 -0.278804 0.271945 -0.675804 -0.104719 0.0758798 -0.0543934 -0.0690377 -0.546802 -0.227217 0.604673 0.176915 0.425045 0.455209 0.249399 -0.304967 1.20943 -0.258735
internal_weight=0 1122 1981 625 767 1214 497 656 414 399 733 277 111 220 472 154 184 119 163 123 109 106 65 107 413 35 481 66 31 46 38 541 75 113 34 101 61 84 174 211 239
internal_count=3103 1122 1981 625 767 1214 497 656 414 399 733 277 111 220 472 154 184 119 163 123 109 106 65 107 413 35 481 66 31 46 38 541 75 113 34 101 61 84 174 211 239
is_linear=0
shrinkage=0.02


Tree=5
num_leaves=38
num_cat=0
split_feature=2 2 3 5 2 77 3 3 3 3 114 15 7 46 77 20 68 36 49 36 108 2 43 43 91 11 3 59 5 95 55 46 3 108 69 12 46
split_gain=2.50812e+06 235502 152326 28103.2 22286.7 16106.8 13561.9 4233.88 3908.39 3600.12 3494.95 2336.23 1467.63 1410.44 984.867 961.222 830.585 685.985 603.368 485.424 462.121 390.283 334.031 285.899 233.04 211.177 203.497 191.273 183.695 174.141 141.803 119.254 106.413 68.4982 58.8957 48.5813 29.3883
threshold=-0.20103730962952712 0.36686402222603309 -0.79561896633084939 0.83637080490888149 -0.45798982804004895 -1.0279792045400715 0.1601328474001921 -0.619180723908349 0.66837275582467692 -0.90476058297246664 -0.53556798895014479 -0.59431539301662006 1.0556299692601367 -0.71991483117845767 -0.69306035208154004 -0.12764603470155159 -0.34975509900291746 0.24530974358445026 0.92862568866906114 0.15535141436178143 -0.74908625482472402 0.24597679453681734 -0.19483531178142863 0.46955765543942585 0.69524846536882079 -0.6249453666720457 -0.76756306758547455 1.2317683360479827 -1.0656280873646116 -0.21112407758654519 0.0067981883123904236 -0.31015247655086114 -0.84676935761353589 -0.24057412301449735 2.0364753106561841 -0.68010563527544832 0.21458206033858671
decision_type=2 2 2 2 2 2 2 2 2 2 2 2 2 2 2 2 2 2 2 2 2 2 2 2 2 2 2 2 2 2 2 2 2 2 2 2 2
left_child=2 6 5 8 7 28 10 14 15 31 17 24 -5 -12 26 -3 -9 22 -10 30 36 -8 -2 34 -6 -22 -4 -27 -1 -19 -15 -7 -11 -21 -13 -16 -18
right_child=1 3 4 12 11 9 21 16 18 32 13 23 -14 19 35 -17 20 29 -20 33 25 -23 -24 -25 -26 27 -28 -29 -30 -31 -32 -33 -34 -35 -36 -37 -38
leaf_value=-0.67850873486300378 0.06844205540946767 0.75713981481841575 -0.37276628249730825 1.135940091969452 -0.093434247268262771 -0.49376162648990451 0.50974009367748896 -0.22598367092973096 0.99029317968481179 -0.46247708984265812 0.22778812669163984 0.18033421301179461 1.3438740227568104 0.26886967241094351 -0.22655285076906456 0.88897984799240193 -0.13856568692605709 0.20752914136418926 0.72514427335956433 0.34251365457262312 -0.142819386457468 0.61550955879375302 0.19985062624399474 0.063847608266893882 -0.0067693713422893546 -0.1041515412811161 -0.30297100396913901 -0.01564857044414188 -0.60532638837309438 0.31651701017867689 0.37471695031205265 -0.55000652512753545 -0.40066052906385813 0.46398823839552861 0.11285729360012781 -0.26604868573027768 -0.20332018584739872
leaf_weight=351 14.999999999999998 102 46 165 25 120 71 70 199 111 27 28 53 17 70 119 14.999999999999998 20 14.999999999999998 15.999999999999998 30 83 20 21 25 25 149 17 108 25 116 416 104 65 15.999999999999998 184 32
leaf_count=351 15 102 46 165 25 120 71 70 199 111 27 28 53 17 70 119 15 20 15 16 30 83 20 21 25 25 149 17 108 25 116 416 104 65 16 184 32
internal_value=0 0.754445 -0.428622 1.00087 -0.204949 -0.567577 0.414523 -0.2511 0.903395 -0.508954 0.338779 0.0509176 1.19129 0.377312 -0.284758 0.831153 -0.170192 0.219914 0.974552 0.395184 -0.135949 0.569735 0.146768 0.129385 -0.0512058 -0.1016 -0.320973 -0.0696648 -0.662407 0.272898 0.362996 -0.538199 -0.434245 0.443773 0.158608 -0.255972 -0.185654
internal_weight=0 1128 1963 653 753 1210 475 638 435 751 321 115 218 241 449 221 189 80 214 214 119 154 35 65 50 72 195 42 459 45 133 536 215 81 44 254 47
internal_count=3091 1128 1963 653 753 1210 475 638 435 751 321 115 218 241 449 221 189 80 214 214 119 154 35 65 50 72 195 42 459 45 133 536 215 81 44 254 47
is_linear=0
shrinkage=0.02


Tree=6
num_leaves=40
num_cat=0
split_feature=2 76 3 3 2 3 3 3 114 3 3 15 76 7 46 77 68 76 28 113 66 36 108 64 3 91 68 11 3 59 46 55 75 11 10 104 46 112 46
split_gain=2.40955e+06 227635 146296 25165.8 21417.6 15505.7 14731.4 4063.17 3353.39 2926.11 2685.89 2247.2 1467.87 1410.42 1353.44 946.239 796.578 740.125 690.627 672.62 649.259 467.056 444.203 274.933 272.147 224.017 212.565 202.767 196.022 183.804 168.118 133.98 68.5086 70.4233 66.1521 32.6745 27.7033 25.5843 12.8757
threshold=-0.20103730962952712 0.37686759268568942 -0.79561896633084939 0.83804039020199705 -0.45798982804004895 -1.0010607778868865 0.1601328474001921 -0.619180723908349 -0.53556798895014479 0.66837275582467692 -0.88238765930703511 -0.59431539301662006 -1.07040836531926 1.0556299692601367 -0.71991483117845767 -0.69306035208154004 -0.34975509900291746 0.2435960238425246 -0.94357114321601776 -0.074179260305830927 0.34223323212805817 0.15535141436178143 -0.74908625482472402 -0.18719230480697799 -0.097405127834941069 0.69524846536882079 -0.43358311071098105 -0.6249453666720457 -0.76756306758547455 1.2317683360479827 -0.31015247655086114 0.0067981883123904236 -1.3192175817426739 -0.69879508054102712 -0.086381394993747335 1.2046486557976979 0.21458206033858671 -0.3564715614893833 0.036213205630638047
decision_type=2 2 2 2 2 2 2 2 2 2 2 2 2 2 2 2 2 2 2 2 2 2 2 2 2 2 2 2 2 2 2 2 2 2 2 2 2 2 2
left_child=2 6 5 9 7 12 8 15 19 18 30 25 -1 -5 -10 28 -9 -8 -3 24 -11 31 36 26 -2 -6 -13 -24 -4 -29 -7 -16 -17 -34 -23 -26 -18 -19 -25
right_child=1 3 4 13 11 10 17 16 14 20 -12 23 -14 -15 21 32 22 37 -20 -21 -22 34 27 38 35 -27 -28 29 -30 -31 -32 -33 33 -35 -36 -37 -38 -39 -40
leaf_value=-0.66874788284301756 0.16651520570244968 0.72413569383560472 -0.36543839413895568 1.1133525268776903 -0.091623505797497062 -0.47800329253571855 0.49255640069292017 -0.2215150677416958 0.22336346756640096 0.97153765302255335 -0.40939545059687582 0.13096096900247392 -0.58594824859776451 1.317396220380932 0.26373396369848356 -0.18314751367890431 -0.13593469203272954 0.56431716385583386 0.86267121146095538 0.12725267612676824 0.70784614955322656 0.34793843416067272 -0.1400371924313632 0.13221028888509387 0.24474213479947643 -0.006638181969638942 0.025938861299128761 -0.10213310141896091 -0.29694394615845615 -0.015349665209650991 -0.52928669880345924 0.36727393444270301 -0.19891530428745949 -0.26081515928856408 0.45849104057237944 0.34087671593774721 -0.19935296058654786 0.68289492260810392 0.19351338129365039
leaf_weight=324 14.999999999999998 62 46 164 25 168 67 70 27 200 157 15.999999999999998 232 53 17 17 14.999999999999998 65 146 27 14.999999999999998 20 30 15.999999999999998 23 25 15.999999999999998 25 149 17 329 116 25 212 61 14.999999999999998 32 35 17
leaf_count=324 15 62 46 164 25 168 67 70 27 200 157 16 232 53 17 17 15 65 146 27 15 20 30 16 23 25 16 25 149 17 329 116 25 212 61 15 32 35 17
internal_value=0 0.739494 -0.420092 0.987548 -0.20089 -0.556269 0.41306 -0.246133 0.332134 0.892951 -0.488516 0.0499347 -0.635119 1.16792 0.369882 -0.279107 -0.166866 0.566192 0.824386 0.215684 0.955907 0.387393 -0.133322 0.126893 0.257875 -0.0502195 0.0808511 -0.0996347 -0.31461 -0.0683238 -0.51278 0.355815 -0.250885 -0.255044 0.435059 0.289348 -0.182062 0.611069 0.168097
internal_weight=0 1128 1963 640 753 1210 488 638 321 423 654 115 556 217 241 449 189 167 208 80 215 214 119 65 53 50 32 72 195 42 497 133 254 237 81 38 47 100 33
internal_count=3091 1128 1963 640 753 1210 488 638 321 423 654 115 556 217 241 449 189 167 208 80 215 214 119 65 53 50 32 72 195 42 497 133 254 237 81 38 47 100 33
is_linear=0
shrinkage=0.02


Tree=7
num_leaves=39
num_cat=0
split_feature=2 76 3 5 2 3 3 3 114 3 3 66 76 7 46 3 31 68 103 76 27 49 31 76 14 69 92 100 3 62 46 36 75 54 112 10 31 66
split_gain=2.31489e+06 218617 140499 24333.9 20585.9 14895.2 14151.7 3900.44 3216.65 2740.9 2405.79 1947.52 1682.64 1361.38 1298.76 968.894 964.156 847.596 745.669 711.543 602.021 591.736 480.07 351.427 301.185 297.287 288.082 204.005 197.959 187.261 82.5249 58.2529 47.8179 62.8384 25.3914 22.7951 21.5899 2.00677
threshold=-0.20103730962952712 0.37686759268568942 -0.79561896633084939 0.83637080490888149 -0.45798982804004895 -0.99302301521997804 0.1601328474001921 -0.61514712913022052 -0.53556798895014479 0.66837275582467692 -0.88238765930703511 -0.27096966853744214 -1.0670376131021224 1.0556299692601367 -0.71991483117845767 -0.68995108314987685 -0.63797666296918643 -0.34975509900291746 1.5012934168644774 0.2435960238425246 -0.30804409058861376 0.92862568866906114 0.54001815168459977 -0.076462335871798487 -0.65832655511740545 0.67994812452988429 -0.61883461948238028 0.094382013050357344 -0.76756306758547455 0.39294889774341374 -0.31015247655086114 0.23527889277762742 -1.2836524927946209 0.62248493363934532 -0.3564715614893833 0.27467359385697004 -0.22692490145857536 -0.089759981107576756
decision_type=2 2 2 2 2 2 2 2 2 2 2 2 2 2 2 2 2 2 2 2 2 2 2 2 2 2 2 2 2 2 2 2 2 2 2 2 2 2
left_child=2 6 5 9 7 12 8 15 16 20 30 18 -1 -5 -10 28 -2 -9 25 -8 -3 -11 35 -18 29 -6 -26 -13 -4 -19 -7 -27 -17 -34 -21 -16 -29 -25
right_child=1 3 4 13 11 10 19 17 14 21 -12 27 -14 -15 22 32 23 24 -20 34 -22 -23 -24 37 26 31 -28 36 -30 -31 -32 -33 33 -35 -36 -37 -38 -39
leaf_value=-0.65389679713940108 0.081364286800827634 0.73269438161393785 -0.3582545611389682 1.0914012001506956 -0.13128760793235864 -0.46848854602795637 0.48282152085880969 -0.21845240427348431 0.21902475576606584 0.95130107440509359 -0.40124905290108059 0.18554969478071778 -0.56993391273847582 1.2914400473669116 0.36066482192813382 -0.1912639873258529 0.18390298401387475 -0.17609406075925912 0.092265083080605617 0.55316803453903429 0.85688304262208237 0.69459772888618176 0.43695927569895615 0.34272008871730364 -0.14189406031653995 0.00088364756937268397 -0.031332158403050515 0.12060894658293903 -0.29061889231975069 -0.10133491030699915 -0.51631645162718365 -0.053087436639809908 -0.25558702811216694 -0.20223842863500474 0.66954222482009984 0.26875971504404572 0.07196752467680545 0.24784196140790227
leaf_weight=336 19 87 46 165 17 168 67 66 27 199 157 22 244 53 135 24 27 46 14.999999999999998 65 121 14.999999999999998 64 14.999999999999998 15.999999999999998 15.000000000000002 24 15.000000000000002 154 27 305 14.999999999999998 202 33 35 14.999999999999998 15.999999999999998 19
leaf_count=336 19 87 46 165 17 168 67 66 27 199 157 22 244 53 135 24 27 46 15 65 121 15 64 15 16 15 24 15 154 27 305 15 202 33 35 15 16 19
internal_value=0 0.72485 -0.411729 0.967942 -0.196913 -0.54518 0.404946 -0.241268 0.325626 0.874625 -0.476093 0.0489919 -0.619436 1.14465 0.362599 -0.272358 0.211556 -0.1606 -0.0268782 0.555038 0.808022 0.936036 0.379756 0.250271 -0.125371 -0.0661452 -0.0778642 0.137123 -0.30762 -0.150058 -0.500182 -0.0262604 -0.244203 -0.248875 0.599048 0.353055 0.0984489 0.297076
internal_weight=0 1128 1963 640 753 1210 488 638 321 422 630 115 580 218 241 459 80 179 62 167 208 214 214 61 113 47 40 53 200 73 473 30 259 235 100 150 31 34
internal_count=3091 1128 1963 640 753 1210 488 638 321 422 630 115 580 218 241 459 80 179 62 167 208 214 214 61 113 47 40 53 200 73 473 30 259 235 100 150 31 34
is_linear=0
shrinkage=0.02


Tree=8
num_leaves=41
num_cat=0
split_feature=2 76 3 5 2 3 3 3 3 13 3 15 46 23 6 3 68 76 28 66 95 33 100 108 91 3 11 76 59 3 59 64 8 45 75 28 46 61 46 112
split_gain=2.22392e+06 209966 134932 23378 19784.8 14321.1 13597 3744.99 3243.24 2903.44 2630.6 2092.64 1380.06 1286.37 1189.92 874.236 733.223 684.05 655.823 617.623 609.348 491.174 412.512 409.364 205.753 190.673 189.652 177.314 170.774 157.231 132.661 131.284 120.51 75.6888 47.6072 65.744 39.1015 28.1061 27.2218 25.1581
threshold=-0.20103730962952712 0.37686759268568942 -0.79561896633084939 0.83637080490888149 -0.45798982804004895 -1.0329948577274852 0.1601328474001921 -0.619180723908349 -0.90788183012086143 -0.13061145406597663 0.66837275582467692 -0.59431539301662006 -0.71991483117845767 1.2527243014855516 1.0611395862026489 -0.68995108314987685 -0.34975509900291746 0.2435960238425246 -0.94357114321601776 0.34055956937703041 -0.078427393707655405 0.18270936948449382 0.094382013050357344 -0.74908625482472402 0.69524846536882079 -0.76756306758547455 -0.6249453666720457 -1.07040836531926 1.2317683360479827 -0.84676935761353589 1.2317683360479827 -0.12756175870679407 -0.15923035104440067 -0.39017873356674315 -1.2836524927946209 1.0638251822692835 -0.30391540839471115 -0.54949500967885001 0.21458206033858671 -0.3564715614893833
decision_type=2 2 2 2 2 2 2 2 2 2 2 2 2 2 2 2 2 2 2 2 2 2 2 2 2 2 2 2 2 2 2 2 2 2 2 2 2 2 2 2
left_child=2 6 5 10 7 27 9 15 36 13 18 24 -11 20 -5 25 -9 -8 -3 -12 32 37 -13 38 -6 -4 -25 -1 -28 -10 -15 -24 -2 -23 -17 -36 -7 -14 -18 -19
right_child=1 3 4 14 11 8 17 16 29 12 19 22 21 30 -16 34 23 39 -20 -21 -22 33 31 26 -26 -27 28 -29 -30 -31 -32 -33 -34 -35 35 -37 -38 -39 -40 -41
leaf_value=-0.64236014225212812 0.13948210968857722 0.69517251464212015 -0.351211936738756 1.0716247891868256 -0.088269158213637594 -0.4665051803859413 0.4732790182333077 -0.21283656114912305 -0.4376637960800519 0.21477031344132458 0.93503839876605499 0.18409183324272951 0.26870518716533531 0.36868400867168716 1.2672703802631629 -0.18696613608288165 -0.13019935957993131 0.54223919007553523 0.82897512415124541 0.70553137697354718 0.050123230958286726 0.33114852360316682 0.04533546981311614 -0.13489363159452164 -0.0067688803779062372 -0.28483655193363355 -0.098126497850861652 -0.57647915844557274 -0.014457989547694665 -0.37661934994559254 0.25194102601363105 0.12398884227192854 0.22811424459301446 0.45155887705825254 -0.24952967114421401 -0.17693366970334734 -0.51825293055257671 0.35679276040622171 -0.19181733608245849 0.65645060043761194
leaf_weight=324 15.999999999999995 62 46 167 25 112 67 70 122 27 195 26 17 20 51 23 14.999999999999998 65 146 19 14.999999999999998 15.999999999999998 24 30 25 154 25 129 17 104 20 14.999999999999998 31.000000000000004 59 210 15.999999999999998 419 100 32 35
leaf_count=324 16 62 46 167 25 112 67 70 122 27 195 26 17 20 51 23 15 65 146 19 15 16 24 30 25 154 25 129 17 104 20 15 31 59 210 16 419 100 32 35
internal_value=0 0.710492 -0.403531 0.948726 -0.193013 -0.534312 0.39698 -0.236496 -0.479608 0.319226 0.857257 0.0480572 0.361005 0.22726 1.12193 -0.268156 -0.160386 0.544104 0.791985 0.91744 0.165944 0.380509 0.122325 -0.128184 -0.0485823 -0.301521 -0.0958206 -0.624684 -0.0655378 -0.411071 0.316789 0.0778729 0.201116 0.429848 -0.240413 -0.245103 -0.508086 0.346041 -0.174995 0.587265
internal_weight=0 1128 1963 640 753 1210 488 638 757 321 422 115 219 102 218 449 189 167 208 214 62 192 65 119 50 200 72 453 42 226 40 39 47 75 249 226 531 117 47 100
internal_count=3091 1128 1963 640 753 1210 488 638 757 321 422 115 219 102 218 449 189 167 208 214 62 192 65 119 50 200 72 453 42 226 40 39 47 75 249 226 531 117 47 100
is_linear=0
shrinkage=0.02


Tree=9
num_leaves=38
num_cat=0
split_feature=2 2 3 5 2 3 3 3 3 13 3 15 5 46 7 22 77 34 68 95 49 33 100 52 108 43 91 3 11 59 59 35 8 28 75 46 46
split_gain=2.13658e+06 200463 129588 23972.6 19014.1 13779.3 11519.4 3595.29 3294.93 2785.47 2215.84 2013.01 1506.4 1324.62 1282.04 1207.46 895.026 863.377 781.496 602.275 585.614 472.488 396.216 391.004 331.794 249.893 197.781 173.911 149.231 164.101 126.879 115.533 84.1973 70.0912 80.1824 67.9161 16.2394
threshold=-0.20103730962952712 0.36686402222603309 -0.79561896633084939 0.83637080490888149 -0.45798982804004895 -0.99302301521997804 0.1601328474001921 -0.61514712913022052 0.66837275582467692 -0.13061145406597663 -0.88238765930703511 -0.59431539301662006 -1.0656280873646116 -0.71991483117845767 1.0556299692601367 1.1852541573863118 -0.69306035208154004 -0.30449160147235976 -0.34975509900291746 -0.078427393707655405 0.92862568866906114 0.18270936948449382 0.094382013050357344 0.46730296365535956 -0.74592049093049473 0.29651793561061063 0.69524846536882079 -0.76756306758547455 -0.6249453666720457 1.2317683360479827 1.2317683360479827 0.26332478893137129 -0.15923035104440067 1.0960818006217674 -1.2836524927946209 -0.31015247655086114 0.18926887789758751
decision_type=2 2 2 2 2 2 2 2 2 2 2 2 2 2 2 2 2 2 2 2 2 2 2 2 2 2 2 2 2 2 2 2 2 2 2 2 2
left_child=2 6 5 8 7 12 9 16 17 15 35 26 -1 -11 -5 19 27 -3 -9 32 -10 -15 -13 31 36 -24 -6 -4 -26 -30 -17 -8 -2 34 -18 -7 -20
right_child=1 3 4 14 11 10 23 18 20 13 -12 22 -14 21 -16 30 33 -19 24 -21 -22 -23 25 -25 28 -27 -28 -29 29 -31 -32 -33 -34 -35 -36 -37 -38
leaf_value=-0.62611360236553393 0.14475345847311985 0.70108422343054155 -0.34430777525290468 1.0483258399457207 -0.086558514426844993 -0.45007890990560084 0.45414107435925971 -0.20992993043568323 0.91404694481774262 0.21059851557230777 -0.38536049926235644 0.18051989982377237 -0.54544759615905603 0.33920812318604349 1.2412449461642694 0.36159392980428839 -0.18232477188110352 0.82393717536527522 -0.12600225062597364 0.049171524349647236 0.66510786491104323 0.42142095797294682 0.12214908442366013 0.59855954046528714 -0.12829557199272318 0.019230618392057874 -0.0066377002578373104 -0.27967180049626306 -0.096224822563718462 -0.014181825707802612 0.24553790864318306 0.55907997689596045 0.22366673463545503 -0.1655581102491934 -0.24405552711182718 -0.49574203586017013 -0.18168914265102809
leaf_weight=351 16.999999999999996 107 46 165 25 168 75 66 199 27 157 26 229 117 53 20 24 114 15.999999999999998 14.999999999999998 14.999999999999998 75 21 47 27 18 25 149 25 17 19 32 31.000000000000004 14.999999999999998 225 305 28
leaf_count=351 17 107 46 165 25 168 75 66 199 27 157 26 229 117 53 20 24 114 16 15 15 75 21 47 27 18 25 149 25 17 19 32 31 15 225 305 28
internal_value=0 0.696427 -0.395502 0.923786 -0.189194 -0.523667 0.382805 -0.231822 0.83375 0.312983 -0.457218 0.0471317 -0.595087 0.353908 1.09967 0.222888 -0.261674 0.767272 -0.154363 0.164547 0.899215 0.373021 0.119974 0.525871 -0.12052 0.0763916 -0.0476469 -0.296345 -0.09074 -0.0642766 0.311528 0.489589 0.198877 -0.235186 -0.238773 -0.480345 -0.164408
internal_weight=0 1128 1963 653 753 1210 475 638 435 321 630 115 580 219 218 102 459 221 179 63 214 192 65 154 113 39 50 195 69 42 39 107 48 264 249 473 44
internal_count=3091 1128 1963 653 753 1210 475 638 435 321 630 115 580 219 218 102 459 221 179 63 214 192 65 154 113 39 50 195 69 42 39 107 48 264 249 473 44
is_linear=0
shrinkage=0.02


Tree=10
num_leaves=41
num_cat=0
split_feature=76 2 4 2 76 2 77 114 2 5 66 76 2 2 66 98 104 2 2 24 104 2 56 34 46 58 33 37 50 75 108 49 4 45 26 34 23 26 95 29
split_gain=2.03643e+06 221609 110586 23039 14832 12865.4 10490.2 3301.71 3166.53 3025.77 2834.77 1332.81 1025.06 969.807 955.057 949.762 827.25 810.415 712.923 580.147 556.235 530.037 375.165 367.938 358.572 290.079 285.243 281.596 255.897 254.747 116.913 95.0848 75.2051 72.7002 45.185 41.4512 18.696 16.7916 7.07339 4.02681
threshold=-0.21371175477766022 0.36686402222603309 -0.84306234811257996 0.80947917449590878 -0.57768956609538402 0.10833325389845762 -1.0320070921222546 -0.51888839436288203 0.63130483279619243 -0.75344411149334911 -0.27096966853744214 0.2435960238425246 -0.08428039555302623 -0.94180737708066553 0.34223323212805817 -0.095947186061235104 -0.47535368760778351 1.0556525817708089 -0.48304034800009193 1.6184924328561012 0.09821329411107492 -0.68233637475995168 -0.60600031696327039 -0.84736441572907684 -0.21814534889998777 -0.25267694289550535 -0.61148381812473085 0.64177073265840201 -0.53784225814276521 -1.5227036393488118 -0.74592049093049473 -0.51614919834609385 -1.1126640594854318 -0.22472276405067307 1.2461270343167368 -1.1671990398529657 0.86905102253134536 -0.025769005811806675 -0.88590299691240293 0.062815864812330105
decision_type=2 2 2 2 2 2 2 2 2 2 2 2 2 2 2 2 2 2 2 2 2 2 2 2 2 2 2 2 2 2 2 2 2 2 2 2 2 2 2 2
left_child=2 5 6 8 9 7 32 15 16 38 18 20 23 -8 -10 19 -3 -5 28 27 35 -11 -20 -9 -13 36 -14 37 30 -23 -6 -32 -1 -28 -31 -7 -24 -2 -4 -36
right_child=1 3 4 17 10 11 13 12 14 21 -12 24 26 -15 -16 -17 -18 -19 22 -21 -22 29 25 -25 -26 -27 33 -29 -30 34 31 -33 -34 -35 39 -37 -38 -39 -40 -41
leaf_value=-0.62515411432823387 0.15692695709696985 0.65892400017358299 -0.28348294282159886 1.0253374520649086 -0.14691197831501332 0.29387399511134371 -0.49794416492702803 0.17929608998808469 0.89020012529030068 -0.27372357071524134 0.13368812353380263 0.56620831730601551 0.30215804325209727 -0.43812818019138783 0.66788996244731702 0.050937708802863003 0.79322925663193478 1.1934779595212395 0.015922457555005716 0.28384584948313324 0.4819091926351951 -0.12765487924406801 -0.020968583769436114 0.2985646334002095 0.39244800347316111 -0.14647674867085048 0.33941581385476255 0.08100022792061673 -0.18862556157573576 -0.23236425182168435 -0.063090536841532083 -0.12382634162902831 -0.57101850555391764 0.43114666141054164 -0.21007468021277223 0.39311953328821786 -0.056044325566007976 0.21771487550997951 -0.35775865471613422 -0.14838809521425339
leaf_weight=245 22 79 23 181 25 18 386 31 206 154 24 72 64 280 22 21 95 59 25 27 54 14.999999999999998 15.000000000000002 24 14.999999999999998 15.999999999999998 44 14.999999999999998 24 249 32 20 216 31 19 54 15.999999999999998 21 123 15.999999999999998
leaf_count=245 22 79 23 181 25 18 386 31 206 154 24 72 64 280 22 21 95 59 25 27 54 15 15 24 15 16 44 15 24 249 32 20 216 31 19 54 16 21 123 16
internal_value=0 0.663692 -0.398469 0.911249 -0.217646 0.352916 -0.525926 0.267126 0.814158 -0.267122 -0.0666562 0.472222 0.316561 -0.473376 0.871229 0.174806 0.735638 1.07057 -0.0950291 0.204462 0.421991 -0.240525 -0.0458634 0.235162 0.540281 -0.0787794 0.347125 0.163876 -0.129285 -0.222688 -0.108834 -0.0882757 -0.600857 0.381693 -0.227279 0.37203 -0.0405298 0.190414 -0.347775 -0.186268
internal_weight=0 1155 1923 642 796 513 1127 300 402 599 197 213 194 666 228 106 174 240 173 85 126 453 72 55 87 47 139 58 101 299 77 52 461 75 284 72 31 43 146 35
internal_count=3078 1155 1923 642 796 513 1127 300 402 599 197 213 194 666 228 106 174 240 173 85 126 453 72 55 87 47 139 58 101 299 77 52 461 75 284 72 31 43 146 35
is_linear=0
shrinkage=0.02


Tree=11
num_leaves=37
num_cat=0
split_feature=76 2 3 3 76 2 2 3 114 5 66 104 76 3 2 98 2 24 104 3 2 56 59 46 20 13 33 37 75 69 59 0 45 60 100 26
split_gain=1.95646e+06 212820 106222 22906.9 14483.9 12359.1 9814.7 3286.7 3170.56 3099.14 2726.57 1326.87 1279.75 1033.7 983.079 913.242 687.844 557.042 533.234 514.886 441.518 438.535 354.027 340.13 280.153 369.823 277.512 270.482 233.687 157.591 141.453 114.624 64.3102 43.4962 20.7265 15.8819
threshold=-0.21371175477766022 0.36686402222603309 -0.84676935761353589 0.82267487837888609 -0.57768956609538402 0.10833325389845762 -1.0432519089831991 0.66837275582467692 -0.51888839436288203 -0.75344411149334911 -0.27096966853744214 -0.47535368760778351 0.2435960238425246 -0.079899026763898082 -0.94180737708066553 -0.095947186061235104 -0.45798982804004895 1.6184924328561012 0.045461961380049702 -0.67665912491327418 1.069722511882415 -0.60600031696327039 -1.1696987459606021 -0.21814534889998777 0.043830472140782527 -0.63236062096770163 -0.61148381812473085 0.64177073265840201 -1.5227036393488118 0.67994812452988429 1.3568263789077772 -0.87978738660888167 -0.22472276405067307 -0.066631740120128666 0.93072373908687867 -0.025769005811806675
decision_type=2 2 2 2 2 2 2 2 2 2 2 2 2 2 2 2 2 2 2 2 2 2 2 2 2 2 2 2 2 2 2 2 2 2 2 2
left_child=2 5 6 7 9 8 -1 11 15 -4 16 31 18 22 -8 17 24 27 -7 -11 -5 -18 -10 -14 34 33 -15 35 -21 -23 -30 -3 -28 -26 -6 -2
right_child=1 3 4 20 10 12 14 -9 13 19 -12 -13 23 26 -16 -17 21 -19 -20 28 -22 29 -24 -25 25 -27 32 -29 30 -31 -32 -33 -34 -35 -36 -37
leaf_value=-0.59291528030155771 0.15389854129992031 0.49690572424779961 -0.34201638423811248 1.0174751671181523 -0.2009301900260056 0.36324314483814996 -0.49084314459158057 0.86396300742237542 0.16383057935913997 -0.26571720448908981 0.13110061082147781 0.7866030249733269 0.55500859354878518 0.2961894923374977 -0.43134774051453711 0.049956339328387465 0.034902644879227389 0.27833229600096776 0.47049233987297817 -0.12523105078105684 1.1853381402808498 -0.11146414244384097 0.28075051387151084 0.38499645396123955 -0.14509003742135684 -0.016345492616454335 0.33274871928351268 0.07946224961099746 -0.22554282435355816 -0.027754777214500339 -0.14241944590701333 0.6721746686972615 0.42129337043297005 -0.09756597343203309 -0.13966179991970543 0.21352036432388721
leaf_weight=432 22 14.999999999999998 154 181 14.999999999999998 70 415 209 26 172 24 117 72 64 272 21 21 27 56 14.999999999999998 49 22 28 14.999999999999998 27 18 44 14.999999999999998 251 17 14.999999999999998 71 32 30 23 21
leaf_count=432 22 15 154 181 15 70 415 209 26 172 24 117 72 64 272 21 21 27 56 15 49 22 28 15 27 18 44 15 251 17 15 71 32 30 23 21
internal_value=0 0.650558 -0.390539 0.893157 -0.214826 0.346006 -0.51653 0.799619 0.261917 -0.263153 -0.0653778 0.730162 0.462943 0.310364 -0.46784 0.17144 -0.0932049 0.200522 0.413703 -0.235753 1.05729 -0.0374102 0.227961 0.529653 -0.122219 -0.0973329 0.340559 0.160734 -0.216652 -0.0766688 -0.221356 0.64665 0.374239 -0.122051 -0.167903 0.18675
internal_weight=0 1155 1923 642 804 513 1119 412 300 607 197 203 213 194 687 106 173 85 126 453 230 60 54 87 113 75 140 58 281 39 266 86 76 57 38 43
internal_count=3078 1155 1923 642 804 513 1119 412 300 607 197 203 213 194 687 106 173 85 126 453 230 60 54 87 113 75 140 58 281 39 266 86 76 57 38 43
is_linear=0
shrinkage=0.02


Tree=12
num_leaves=41
num_cat=0
split_feature=2 2 49 3 2 2 3 3 3 15 3 13 104 2 95 41 104 75 2 68 58 12 100 2 111 54 8 58 10 104 0 65 69 14 98 13 75 59 104 3
split_gain=1.87906e+06 182858 117737 22005.9 18501.8 13273.1 9193.16 3148.79 2624.55 2609.26 2477.39 1724.89 1268.88 1256.77 1074.52 983.513 827.635 1087.24 569.373 543.233 537.544 528.466 488.045 431.109 235.888 217.962 197.336 135.36 129.951 107.567 104.586 101.038 97.0272 217.886 84.1685 73.0847 59.0431 50.3451 16.7008 15.3817
threshold=-0.18384445946928327 0.36686402222603309 -0.79087943428170715 0.82267487837888609 -0.48304034800009193 -0.99835573581084314 0.11429422310509245 0.66837275582467692 -0.61514712913022052 -0.60399440670582905 -0.88238765930703511 -0.13061145406597663 -0.47535368760778351 -1.0582620730879433 -0.069879447813616533 0.20412908952767056 -0.95383862650738027 -0.63032200037977115 -0.68233637475995168 0.12297463535604151 1.0511612866225146 0.1577240626998391 0.57919894026951468 1.069722511882415 -0.20940327886573651 0.48066684187277359 0.13142231855217415 -0.25267694289550535 -0.66142703765380018 0.83062579343942999 -0.87978738660888167 -0.081922239801185778 -0.41685224091698608 -0.65832655511740545 -0.17484095566430627 0.18502078860403717 -1.3054023666674806 -1.1696987459606021 0.89285185425461611 -0.76756306758547455
decision_type=2 2 2 2 2 2 2 2 2 2 2 2 2 2 2 2 2 2 2 2 2 2 2 2 2 2 2 2 2 2 2 2 2 2 2 2 2 2 2 2
left_child=2 6 5 7 8 13 11 12 18 27 -7 14 30 -1 20 21 -8 -18 39 24 31 37 34 -5 32 -24 -23 38 -21 -26 -3 -2 -10 -34 -11 -19 -20 -13 -6 -4
right_child=1 3 4 23 9 10 16 -9 19 22 -12 15 -14 -15 -16 -17 17 35 36 28 -22 26 25 -25 29 -27 -28 -29 -30 -31 -32 -33 33 -35 -36 -37 -38 -39 -40 -41
leaf_value=-0.58808149502351847 0.14933658855770707 0.48747079849243158 -0.31629227164406443 0.99721521174029026 -0.018325629355032232 -0.45287501136068464 0.29057646473248799 0.84674961884664968 -0.18402425451481594 0.18822611106069465 -0.35821387709960234 0.1759489660878335 0.77097781286579647 -0.51116043136642497 0.057288033989038367 0.39999940364087216 0.39538309330164007 0.46384218081622058 -0.15845034570921032 -0.11007682103377123 0.33196653604507448 0.33177972395341476 0.094635251202714557 1.1620122561780324 -0.22150371551513673 -0.0032551069199284422 0.22841274492668384 -0.10270336018390015 -0.028980823055475571 -0.15119102718294128 0.65888095876964681 0.22492474561152254 -0.15322980273853648 -0.062582544678678881 0.11794331027179204 0.55740463394867756 -0.22535559460423166 0.25471115248543874 -0.050921181493930608 -0.26342494472531774
leaf_weight=377 21 14.999999999999998 31 181 14.999999999999998 484 15.999999999999998 209 18 22 174 24 117 199 17 48 68 56 15.999999999999998 20 20 72 21 49 43 14.999999999999998 19 23 14.999999999999998 25 71 36 30 20 23 60 213 15.999999999999998 17 162
leaf_count=377 21 15 31 181 15 484 16 209 18 22 174 24 117 199 17 48 68 56 16 20 20 72 21 49 43 15 19 23 15 25 71 36 30 20 23 60 213 16 17 162
internal_value=0 0.655624 -0.372168 0.875421 -0.170353 -0.491193 0.356287 0.783738 -0.218554 0.039751 -0.428333 0.279124 0.715716 -0.56228 0.205753 0.316478 0.460002 0.473327 -0.245588 -0.150913 0.237399 0.283512 0.111568 1.0363 -0.169206 0.0542287 0.312551 -0.0658115 -0.0771926 -0.197945 0.633937 0.199806 -0.138268 -0.118842 0.155341 0.51586 -0.221319 0.212223 -0.0369495 -0.27327
internal_weight=0 1115 1963 642 729 1234 473 412 593 136 658 273 203 576 94 179 200 184 422 171 77 131 81 230 136 36 91 55 35 68 86 57 68 50 45 116 229 40 32 193
internal_count=3078 1115 1963 642 729 1234 473 412 593 136 658 273 203 576 94 179 200 184 422 171 77 131 81 230 136 36 91 55 35 68 86 57 68 50 45 116 229 40 32 193
is_linear=0
shrinkage=0.02


Tree=13
num_leaves=40
num_cat=0
split_feature=76 2 6 3 76 2 77 3 2 66 5 104 76 2 48 68 15 108 104 3 7 3 21 46 100 75 75 111 100 4 59 39 64 95 94 34 81 8 88
split_gain=1.80577e+06 196272 97996.2 21140.3 12807.1 11397.4 9641.66 3016.61 2530.81 2525.92 2409.05 1213.37 1203.98 979.481 898.92 658.771 637.389 549.662 500.219 473.639 439.28 426.347 317.613 313.792 267.959 216.775 214.09 199.463 184.375 171.956 144.625 110.003 96.6145 92.6962 66.1942 50.3519 33.5573 27.4524 22.4139
threshold=-0.21371175477766022 0.36686402222603309 -0.83856752873472173 0.82267487837888609 -0.57768956609538402 0.10833325389845762 -1.0279792045400715 0.66837275582467692 -0.08428039555302623 -0.27096966853744214 -0.75344411149334911 -0.47535368760778351 0.2435960238425246 -0.92021557502395279 -0.80705684124674459 -0.33618160614319575 -0.63436254802219483 -0.24961916271229576 0.09821329411107492 -0.67665912491327418 1.0556299692601367 -0.16450594014120382 0.021522103038448741 -0.21814534889998777 0.5302190654724438 -1.3054023666674806 0.48868923390775659 -0.43986223192407597 -0.0063540808373585972 -1.1126640594854318 1.3568263789077772 -1.2738647337678466 0.053793725754932777 -0.88590299691240293 -0.17968764538698742 -1.1671990398529657 0.028646822104278411 0.11931623395098542 -0.21267495217196888
decision_type=2 2 2 2 2 2 2 2 2 2 2 2 2 2 2 2 2 2 2 2 2 2 2 2 2 2 2 2 2 2 2 2 2 2 2 2 2 2 2
left_child=2 5 6 7 10 8 29 11 21 15 33 31 18 -8 -10 27 28 -16 35 -12 -5 24 37 -14 38 -21 -23 36 32 -1 -27 -3 -17 -4 -30 -7 -6 -19 -2
right_child=1 3 4 20 9 12 13 -9 14 -11 19 -13 23 -15 17 16 -18 22 -20 25 -22 26 -24 -25 -26 30 -28 -29 34 -31 -32 -33 -34 -35 -36 -37 -38 -39 -40
leaf_value=-0.58914867019342931 0.12423899201864608 0.47709758879263187 -0.24043423357464014 0.97589677294362054 -0.12403876320699628 0.27469860462432211 -0.45991708135255105 0.82987922301169692 0.13950478737867331 0.12619765062966654 -0.255256557100349 0.75566297786952275 0.53386423593039045 -0.39411491346575012 0.22765112132010376 -0.013764305680689185 0.030413632773674065 0.31886844374675277 0.45395328814095826 -0.14554147229098632 1.1349034219799621 0.17343939704053543 0.39461921579697562 0.37027114125746713 0.054219112583919413 -0.21922848593196112 0.25890234922433825 -0.18084238238148875 -0.064340375435503222 -0.53543373683966278 -0.13645832939992977 0.64609605613857257 -0.082661935249461416 -0.33494628549617206 -0.12335559344629651 0.37037032475436699 -0.069806677231305764 0.24090041772283688 0.18382051697144139
leaf_weight=245 17 14.999999999999998 15.999999999999998 178 17 18 490 209 14.999999999999998 24 172 117 72 176 33 19 24 71 54 29 52 40 40 14.999999999999998 14.999999999999998 237 30 30 14.999999999999998 227 14.999999999999998 71 14.999999999999998 119 38 54 14.999999999999998 19 20
leaf_count=245 17 15 16 178 17 18 490 209 15 24 172 117 72 176 33 19 24 71 54 29 52 40 40 15 15 237 30 30 15 227 15 71 15 119 38 54 15 19 20
internal_value=0 0.625061 -0.37514 0.858038 -0.202899 0.332586 -0.493712 0.768172 0.251828 -0.0629029 -0.249626 0.701555 0.444887 -0.443046 0.300491 -0.0896887 -0.0595627 0.314455 0.397234 -0.226492 1.01572 0.179203 0.33484 0.509472 0.131128 -0.208154 0.212804 -0.141923 -0.0846169 -0.564299 -0.214812 0.621473 -0.0458216 -0.325345 -0.108156 0.349954 -0.101428 0.304852 0.160077
internal_weight=0 1155 1923 642 785 513 1138 412 300 197 588 203 213 666 178 173 111 163 126 453 230 122 130 87 52 281 70 62 87 472 252 86 34 135 53 72 32 90 37
internal_count=3078 1155 1923 642 785 513 1138 412 300 197 588 203 213 666 178 173 111 163 126 453 230 122 130 87 52 281 70 62 87 472 252 86 34 135 53 72 32 90 37
is_linear=0
shrinkage=0.02


Tree=14
num_leaves=42
num_cat=0
split_feature=76 2 3 3 76 3 77 114 3 5 65 33 76 98 52 2 53 24 45 56 3 2 2 9 46 68 37 12 113 10 4 76 45 9 48 30 111 60 26 30 52
split_gain=1.73484e+06 188488 94135.4 20308.6 12811.5 10951.2 8712.29 2907.15 2899.52 2727.24 2243.54 1023.87 936.542 894.229 794.908 742.773 682.681 586.319 534.915 480.218 454.325 431.69 388.332 322.842 297.549 281.865 251.519 250.167 146.337 131.397 93.8517 91.5684 88.9287 82.2187 39.0357 147.028 152.24 137.863 17.017 16.7763 14.6176
threshold=-0.21371175477766022 0.36686402222603309 -0.84676935761353589 0.82267487837888609 -0.57768956609538402 0.11429422310509245 -1.0320070921222546 -0.51888839436288203 0.62852496589356377 -0.75344411149334911 -0.33562520637824556 -0.61148381812473085 0.2435960238425246 -0.095947186061235104 1.2875757857593852 -0.94180737708066553 -0.12914871250084989 1.6184924328561012 -0.14283402504399137 -0.65114287392444381 -0.67665912491327418 1.069722511882415 -0.08428039555302623 -0.095512430099952569 -0.21814534889998777 0.19806801860795983 0.64177073265840201 0.12999432436613539 -0.16943532784778453 -0.65758998381150024 -1.1126640594854318 0.070464403915522292 -0.41827140475077745 -0.52942513491166332 -0.23930470889072938 -0.11989696385510973 -0.14856279630597061 -0.2820890418043 -0.025769005811806675 -0.89545045049290295 -0.48077950451488077
decision_type=2 2 2 2 2 2 2 2 2 2 2 2 2 2 2 2 2 2 2 2 2 2 2 2 2 2 2 2 2 2 2 2 2 2 2 2 2 2 2 2 2
left_child=2 5 6 8 9 7 30 13 16 40 18 22 27 17 -10 -8 -3 26 -6 -12 -11 -5 39 -13 -14 28 38 -7 33 -27 -1 -24 -25 -20 35 -22 -37 -36 -2 -9 -4
right_child=1 3 4 21 10 12 15 11 14 20 19 23 24 -15 -16 -17 -18 -19 25 -21 34 -23 31 32 -26 29 -28 -29 -30 -31 -32 -33 -34 -35 37 36 -38 -39 -40 -41 -42
leaf_value=-0.57740403457033229 0.14490651745545235 0.60788519741284963 -0.33445365628151047 0.95775172788580143 -0.015862825619470743 0.45647301103702936 -0.45960171058481214 0.14268223751796766 0.81775783738169239 -0.25017505938808121 -0.019973724921104271 0.24172121125038221 0.52330428249233374 0.044353739477078852 0.57643650658522982 -0.40572798938695287 0.73147977327478342 0.26835376445079007 -0.066661414395679131 0.1195981474154031 -0.21268493853117293 1.1172588896847153 0.29336828506354135 0.29617258128835194 0.36324067894416517 -0.10510329840476051 0.073400450968596195 0.35988524834314989 -0.16421440191358053 -0.034124905757543421 -0.52630747861967753 0.20031804806069481 0.38648807602183882 -0.13151996068787156 -0.2639857364523 -0.12661181075819608 -0.19278950659300992 -0.1977879545577737 0.20239577354641136 0.20764766993147604 -0.27631051316703725
leaf_weight=245 22 80 116 181 28 37 386 17 225 172 14.999999999999998 19 72 21 14.999999999999998 272 92 29 19 26 98 49 52 26 14.999999999999998 22 14.999999999999998 76 42 23 216 14.999999999999998 59 22 34 34 47 68 21 17 38
leaf_count=245 22 80 116 181 28 37 386 17 225 172 15 19 72 21 15 272 92 29 19 26 98 49 52 26 15 22 15 76 42 23 216 15 59 22 34 34 47 68 21 17 38
internal_value=0 0.612689 -0.367671 0.841 -0.202255 0.326071 -0.486278 0.25093 0.752916 -0.247707 -0.0616919 0.295541 0.44212 0.164556 0.804707 -0.437876 0.677167 0.192719 -0.0962519 0.0687475 -0.221991 0.995558 0.244978 0.342247 0.499451 -0.113505 0.151494 0.394639 -0.135787 -0.0704045 -0.554451 0.275382 0.362068 -0.103697 -0.204021 -0.192807 -0.166717 -0.221892 0.176532 0.179652 -0.321712
internal_weight=0 1155 1923 642 804 513 1119 313 412 607 197 205 200 108 240 658 172 87 156 41 453 230 101 104 87 128 58 113 83 45 461 67 85 41 281 179 81 102 43 34 154
internal_count=3078 1155 1923 642 804 513 1119 313 412 607 197 205 200 108 240 658 172 87 156 41 453 230 101 104 87 128 58 113 83 45 461 67 85 41 281 179 81 102 43 34 154
is_linear=0
shrinkage=0.02


Tree=15
num_leaves=43
num_cat=0
split_feature=3 3 3 7 3 3 76 37 114 7 65 3 3 46 3 95 3 3 3 5 92 13 14 104 53 13 45 75 53 76 64 114 113 97 52 27 50 65 97 36 95 104
split_gain=1.68757e+06 183319 82174.8 18983.4 11616 8520.63 8084.77 4117.24 3272.62 3127.27 2300.33 1114.8 937.599 865.153 804.765 638.011 590.538 587.434 576.321 431.673 400.202 368.346 360.32 356.46 284.964 356.336 259.461 255.309 215.303 185.627 162.398 130.471 94.8287 68.4805 51.8366 33.9725 29.0246 26.8191 18.3122 13.684 4.38024 1.29525
threshold=-0.33571878700843283 0.36450548334421168 -0.84676935761353589 0.80365513325378701 0.10502764964040114 -1.0329948577274852 -0.57768956609538402 -0.54169302561316768 -0.53346923788679368 -0.76132457321511082 0.3374348485155107 0.23557881763956681 -0.079899026763898082 -0.31015247655086114 -0.45427883472080127 -0.033855961545881039 -0.67265938341656406 0.70667625274947798 -0.16450594014120382 1.0444726953555568 -0.12605435105271778 0.81593737937536026 -0.63001717910616695 -0.18104720324435039 0.078785980622652588 -0.63236062096770163 -0.41827140475077745 -1.3729446988004288 -0.96582222975668153 -1.07040836531926 -0.18719230480697799 1.0000000180025095e-35 -0.16569129726697021 -0.06330118689178281 0.076629648122677654 -1.0108361823197929 -0.042617770080158358 -1.019437341396775 0.055533599806030107 -0.4203369227061467 -0.88590299691240293 0.17324434068338365
decision_type=2 2 2 2 2 2 2 2 2 2 2 2 2 2 2 2 2 2 2 2 2 2 2 2 2 2 2 2 2 2 2 2 2 2 2 2 2 2 2 2 2 2
left_child=2 4 5 7 8 29 9 10 15 40 21 23 20 -7 24 18 41 32 30 -5 -10 -3 -16 39 35 37 -14 -18 -13 -1 -2 -28 -9 -20 -29 -8 -22 -26 -32 -6 -4 -11
right_child=1 3 6 19 11 13 14 17 12 16 -12 28 26 -15 22 -17 27 -19 33 -21 36 -23 -24 -25 25 -27 31 34 -30 -31 38 -33 -34 -35 -36 -37 -38 -39 -40 -41 -42 -43
leaf_value=-0.55883122187195378 0.069630523709098946 0.56253260967778229 -0.27064654390533249 0.92401535777409194 0.26713609770442659 -0.3899256795706208 -0.12398961091282391 0.79169727041497584 0.28654106490108944 -0.24773733960110295 0.34462978351683843 0.36197345794001706 0.27260813954629398 -0.44781917166410351 -0.073144103239646693 0.029951185154009467 -0.12787985011935232 0.81712289241137415 0.1759482101683921 1.0720506015900642 0.12355841588370409 0.72755398936387983 0.02510267650921073 0.43265176035191893 -0.1445763868696234 -0.011369792156793335 0.36484436079513194 -0.20529503601616703 0.51105329523231779 -0.49994257827087302 0.11506994783208611 0.2590344978986161 0.68453533389214838 0.25877562437484514 -0.14937949393804256 -0.18434940112264531 0.18800340722460263 -0.09873700572125739 0.16738999263845761 0.35717200895868639 -0.33259261208947399 -0.18583715197406236
leaf_weight=331 17 40 30 185 17 232 19 61 21 179 15.999999999999998 14.999999999999998 60 429 29 14.999999999999998 28 144 18 55 14.999999999999998 32 29 54 17 18 68 220 78 131 17 17 126 26 20 22 21 35 27 49 122 14.999999999999998
leaf_count=331 17 40 30 185 17 232 19 61 21 179 16 15 60 429 29 15 28 144 18 55 15 32 29 54 17 18 68 220 78 131 17 17 126 26 20 22 21 35 27 49 122 15
internal_value=0 0.592584 -0.366052 0.8158 0.316795 -0.475715 -0.208426 0.730658 0.239831 -0.242148 0.592758 0.431738 0.28927 -0.42802 -0.085252 0.155111 -0.215347 0.765755 0.172478 0.961455 0.21331 0.643284 -0.0240754 0.383142 -0.116674 -0.0897457 0.317686 -0.194015 0.490471 -0.543061 0.129015 0.346481 0.722801 0.228996 -0.201214 -0.159669 0.164856 -0.115989 0.149948 0.337697 -0.321952 -0.243816
internal_weight=0 1194 1906 659 535 1123 783 419 322 614 88 213 202 661 169 120 462 331 105 240 57 72 58 120 111 70 145 268 93 462 61 85 187 44 240 41 36 52 44 66 152 194
internal_count=3100 1194 1906 659 535 1123 783 419 322 614 88 213 202 661 169 120 462 331 105 240 57 72 58 120 111 70 145 268 93 462 61 85 187 44 240 41 36 52 44 66 152 194
is_linear=0
shrinkage=0.02


Tree=16
num_leaves=42
num_cat=0
split_feature=3 3 3 5 3 3 5 44 3 114 7 3 77 46 3 10 68 53 109 15 108 92 52 3 104 53 59 58 72 76 45 13 6 110 15 52 10 76 5 97 95
split_gain=1.62136e+06 176066 78907.9 18237.7 11168.7 8184.95 7769.87 4125.51 3396.41 3024 2366.58 1497.03 1261.64 829.752 819.852 568.702 562.653 492.302 420.779 399.585 398.336 384.405 348.701 277.242 240.464 221.909 218.881 204.611 190.291 177.585 174.456 126.535 92.6691 86.6022 76.6012 23.3747 23.2354 9.36589 6.26712 5.41735 2.89121
threshold=-0.33571878700843283 0.36450548334421168 -0.84676935761353589 0.83637080490888149 0.096557724959704327 -1.0329948577274852 -0.61954620082500589 0.45924050101952213 0.62852496589356377 -0.53346923788679368 -0.76132457321511082 -0.47368941048155816 0.23174263678771903 -0.31015247655086114 -0.079899026763898082 -0.1186357894354813 -0.34975509900291746 -0.12914871250084989 -0.57373361165315717 -0.6310744161180869 -0.74592049093049473 -0.12605435105271778 -0.41442273479193964 -0.68995108314987685 -0.18104720324435039 -0.96582222975668153 0.33105184423075323 -0.25267694289550535 -0.013929251914481492 -1.0670376131021224 -0.41827140475077745 -0.63236062096770163 0.076738362434129695 1.0981441142678607 0.29309202833291625 0.52442790155120422 -0.63154678153452315 -0.16231684462818857 1.0444726953555568 -0.06330118689178281 -0.88590299691240293
decision_type=2 2 2 2 2 2 2 2 2 2 2 2 2 2 2 2 2 2 2 2 2 2 2 2 2 2 2 2 2 2 2 2 2 2 2 2 2 2 2 2 2
left_child=2 4 5 7 9 29 10 8 17 15 40 16 22 -7 21 18 35 -3 -2 27 -18 -11 -6 -12 -24 -14 -20 -13 -21 -1 -16 36 -32 -25 -19 -8 -22 -23 -5 -28 -4
right_child=1 3 6 38 12 13 11 -9 -10 14 23 19 25 -15 30 -17 20 34 26 28 31 37 24 33 -26 -27 39 -29 -30 -31 32 -33 -34 -35 -36 -37 -38 -39 -40 -41 -42
leaf_value=-0.54665335816654659 0.081020086571001099 0.59110862135012743 -0.26537420994275573 0.91584489798955893 0.25342009771437868 -0.38215396717241945 -0.1934048700332642 0.36378319861013675 0.78694761668579494 0.28102054700938933 -0.24453088233547823 -0.034972278495041427 0.35510055318663392 -0.43887946110650405 0.26702350522385165 0.045645757708886653 -0.15639756180924369 0.5499532349904378 0.13181524328483166 -0.025198608808060907 -0.11065584321175852 0.12505984813352175 0.33704549524905913 -0.20706402106520461 0.42519897995481065 0.50354217271010082 0.17257898888689405 -0.13256346630144722 0.068766662455812283 -0.48717776335141494 0.35143942940198908 -0.031693634576924631 0.25054822998387472 -0.13620589573172073 0.7294379527677739 -0.13575955728941325 -0.065786327002923695 0.1815927817843376 1.0509170132982262 0.23374693048411402 -0.32598408941337265
leaf_weight=343 20 81 30 162 15.999999999999998 232 62 14.999999999999998 252 21 148 22 14.999999999999998 429 58 19 43 15.999999999999998 25 18 24 14.999999999999998 54 218 62 76 18 14.999999999999998 14.999999999999998 119 65 21 15.999999999999998 14.999999999999998 78 14.999999999999998 14.999999999999998 21 55 34 122
leaf_count=343 20 81 30 162 16 232 62 15 252 21 148 22 15 429 58 19 43 16 25 18 24 15 54 218 62 76 18 15 15 119 65 21 16 15 78 15 15 21 55 34 122
internal_value=0 0.580875 -0.358768 0.799631 0.310596 -0.466228 -0.204306 0.722276 0.734128 0.232176 -0.247494 -0.11167 0.41902 -0.41948 0.280365 0.149253 -0.142122 0.654742 0.168844 -0.0324165 -0.109565 0.20922 0.372455 -0.219685 0.386889 0.482556 0.190382 -0.0769278 0.0176562 -0.532237 0.308061 -0.0741219 0.334351 -0.203052 0.703955 -0.183892 -0.0954696 0.161703 0.953888 0.215812 -0.315578
internal_weight=0 1194 1906 659 535 1123 783 442 427 312 533 250 223 661 196 116 180 175 97 70 103 57 132 381 116 91 77 37 33 462 139 60 81 233 94 77 39 36 217 52 152
internal_count=3100 1194 1906 659 535 1123 783 442 427 312 533 250 223 661 196 116 180 175 97 70 103 57 132 381 116 91 77 37 33 462 139 60 81 233 94 77 39 36 217 52 152
is_linear=0
shrinkage=0.02


Tree=17
num_leaves=40
num_cat=0
split_feature=3 3 3 7 2 2 76 48 7 3 3 77 31 46 2 20 3 46 100 108 104 15 20 13 75 100 97 53 76 69 6 20 52 69 66 36 104 104 95
split_gain=1.5577e+06 169089 75771.6 17537.6 10801.2 7879.04 7461.86 4280.5 2885.66 2742.66 2605.4 1035.01 824.385 771.216 766.825 610.611 546.036 520.886 513.94 404.133 351.756 328.56 276.74 264.786 241.431 220.092 269.985 209.646 199.105 129.71 92.461 86.2879 49.7295 37.5679 30.3767 13.2098 7.23392 3.41268 1.50383
threshold=-0.33571878700843283 0.36450548334421168 -0.84676935761353589 0.80365513325378701 0.10833325389845762 -1.0293498777989392 -0.57768956609538402 0.42616002960605598 -0.76132457321511082 0.62852496589356377 -0.079899026763898082 0.23174263678771903 -0.72438934129473698 -0.31015247655086114 -0.45798982804004895 -0.55053102048279179 -0.67265938341656406 -0.35868575621824056 0.97595268049331108 -0.24961916271229576 -0.18104720324435039 -0.61552186431036116 0.32992830966826558 -0.63236062096770163 -1.3729446988004288 -1.3520968302602563 0.2851070726092117 -0.96582222975668153 -1.07040836531926 0.67994812452988429 0.066991815664144236 -0.44058953054087796 0.076629648122677654 -0.39410307992845289 0.46539627087447466 -0.4203369227061467 -0.49485430936194602 -0.090938799492213687 -0.88590299691240293
decision_type=2 2 2 2 2 2 2 2 2 2 2 2 2 2 2 2 2 2 2 2 2 2 2 2 2 2 2 2 2 2 2 2 2 2 2 2 2 2 2
left_child=2 4 5 7 10 28 8 9 38 17 18 20 -12 -7 22 -5 37 36 25 -14 35 29 33 -24 -18 -2 -27 -13 -1 -16 34 -28 -26 -8 -21 -6 -3 -10 -4
right_child=1 3 6 15 11 13 14 -9 16 -11 12 27 19 -15 21 -17 24 -19 -20 30 -22 -23 23 -25 32 26 31 -29 -30 -31 -32 -33 -34 -35 -36 -37 -38 -39 -40
leaf_value=-0.53677484290437438 0.25058460895831769 0.56355398262496548 -0.26020458020173109 0.77239073421644133 0.25303515559151057 -0.37453714836094387 -0.17904686991985028 0.34051474341863319 -0.23979018358257709 0.76846679854542166 0.16693375462916357 0.34835813643057129 0.21504904674159153 -0.42962381562270696 -0.1067378075213372 0.94727915201336144 -0.12222778603434561 0.77571315993123979 0.08120720270511915 0.34758861315281858 0.41508151566901175 0.029289567612889988 -0.10659318085320653 -0.010362223860408578 -0.1973413270625515 0.12726780730934822 0.14241826045362257 0.49357623264193534 -0.47991597961961169 -0.025164301451989154 0.26313071097450697 0.22477583896478959 -0.14312498335654916 -0.12389596405445329 0.25976695821526341 0.34157984069136327 0.6558830972619959 -0.19211531482525726 -0.31950688769064045
leaf_weight=331 20 67 30 36 15.999999999999998 232 20 14.999999999999998 168 223 26 14.999999999999998 28 424 14.999999999999998 204 28 26 27 75 58 26 45 15.999999999999998 220 47 14.999999999999998 76 136 18 34 33 20 29 17 48 88 26 122
leaf_count=331 20 67 30 36 16 232 20 15 168 223 26 15 28 424 15 204 28 26 27 75 58 26 45 16 220 47 15 76 136 18 34 33 20 29 17 48 88 26 122
internal_value=0 0.569384 -0.351627 0.783762 0.304512 -0.456931 -0.200265 0.701924 -0.232663 0.714603 0.230297 0.415349 0.281301 -0.410646 -0.0819253 0.923766 -0.206913 0.645063 0.164319 0.299544 0.369372 -0.0229864 -0.112999 -0.0820721 -0.186392 0.182998 0.166629 0.473058 -0.5211 -0.0643653 0.316719 0.202124 -0.19338 -0.149242 0.333912 0.323088 0.619174 -0.234298 -0.309331
internal_weight=0 1194 1906 659 535 1123 783 419 614 404 322 213 180 656 169 240 462 181 142 154 122 59 110 61 268 115 95 91 467 33 126 48 240 49 92 64 155 194 152
internal_count=3100 1194 1906 659 535 1123 783 419 614 404 322 213 180 656 169 240 462 181 142 154 122 59 110 61 268 115 95 91 467 33 126 48 240 49 92 64 155 194 152
is_linear=0
shrinkage=0.02


Tree=18
num_leaves=42
num_cat=0
split_feature=3 3 3 5 2 2 5 44 3 114 7 76 77 3 28 46 95 2 15 68 108 59 104 20 0 3 53 76 33 64 113 100 12 48 12 97 46 33 36 48 42
split_gain=1.49654e+06 162388 72759.7 16853.8 10376.7 7568.54 7172.7 3878.75 3115.69 2922.94 2183.3 1384.35 993.49 807.628 762.655 739.724 593.201 537.735 473.539 466.153 382.859 364.686 336.505 326.224 259.841 256.557 197.993 190.748 168.764 137.881 133.723 122.454 87.1581 104.423 79.1414 60.7224 25.6097 16.6599 11.2859 5.19192 1.81095
threshold=-0.33571878700843283 0.36450548334421168 -0.84676935761353589 0.83637080490888149 0.10833325389845762 -1.0293498777989392 -0.61954620082500589 0.45924050101952213 0.70667625274947798 -0.53346923788679368 -0.76132457321511082 -0.50809984290286947 0.23174263678771903 -0.079899026763898082 -0.92827183378449407 -0.32105950179995291 -0.033855961545881039 -0.16430102432619334 -0.63436254802219483 -0.34975509900291746 -0.74592049093049473 -1.2668674916172245 -0.18104720324435039 -0.55053102048279179 0.58747666484433847 -0.68995108314987685 -0.96582222975668153 -1.0670376131021224 -0.72159536457102191 -0.18719230480697799 -0.16569129726697021 0.078110200027576987 -0.69069262901531336 -0.16276225128178562 -0.6538977099788178 -0.06330118689178281 0.036213205630638047 0.61759631039964558 -0.4203369227061467 -0.6279294734864842 0.41778966055285144
decision_type=2 2 2 2 2 2 2 2 2 2 2 2 2 2 2 2 2 2 2 2 2 2 2 2 2 2 2 2 2 2 2 2 2 2 2 2 2 2 2 2 2
left_child=2 4 5 7 9 27 10 8 14 16 40 19 22 21 -3 -7 17 29 31 -8 -21 -11 38 -5 -20 -12 -14 -1 -15 -2 -16 -13 33 -27 -22 -19 -31 -33 -6 -34 -4
right_child=1 3 6 23 12 15 11 -9 -10 13 25 18 26 28 30 -17 -18 35 24 20 34 -23 -24 -25 -26 32 -28 -29 -30 36 -32 37 39 -35 -36 -37 -38 -39 -40 -41 -42
leaf_value=-0.52507491548370666 0.065020287330733256 0.56527673423114433 -0.31100824558680623 0.73686655445259164 0.2482154337565104 -0.36636351666122513 -0.1813288319429612 0.34684384949599639 0.77909587484748188 0.13327408236842 -0.23499905706733784 -0.044986795836756396 0.34174374109582056 0.26050691056403386 0.74653928574483108 -0.42066885449649455 0.025267116570774514 0.16550104689090808 -0.033829509255133179 -0.15147303380464253 -0.088527316358111327 0.24680315598933658 0.40689283559111517 0.93459923284009749 0.071586674429193323 -0.1064459557077858 0.48380753204226495 -0.46774699064401482 0.32474490354624458 0.11556218138381615 0.64338900297116008 -0.12993043987056876 -0.18022460681891367 -0.18896429878014784 -0.029142613540394137 0.2432104887379159 0.16845095527306028 -0.082874200902086623 0.3348602412958615 -0.21103906662831215 -0.2441807584587587
leaf_weight=343 17 67 131 23 15.999999999999998 226 74 14.999999999999998 174 24 148 25 14.999999999999998 62 62 430 14.999999999999998 18 22 41 21 33 58 194 14.999999999999998 17 76 124 83 26 124 14.999999999999998 63 20 19 27 17 18 48 133 21
leaf_count=343 17 67 131 23 16 226 74 15 174 24 148 25 15 62 62 430 15 18 22 41 21 33 58 194 15 17 76 124 83 26 124 15 63 20 19 27 17 18 48 133 21
internal_value=0 0.558119 -0.344629 0.768207 0.298548 -0.447819 -0.196305 0.693843 0.705323 0.225803 -0.237801 -0.107296 0.407186 0.272528 0.652228 -0.402453 0.145735 0.162472 -0.0463866 -0.144094 -0.108441 0.201784 0.362121 0.916498 0.00909409 -0.211085 0.463747 -0.510713 0.298967 0.119817 0.680908 -0.0816938 -0.195075 -0.154529 -0.0618363 0.21591 0.139532 -0.107306 0.316778 -0.201989 -0.303207
internal_weight=0 1194 1906 659 535 1123 783 442 427 322 533 250 213 202 253 656 120 105 95 155 81 57 122 217 37 381 91 467 145 60 186 58 233 37 40 45 43 33 64 196 152
internal_count=3100 1194 1906 659 535 1123 783 442 427 322 533 250 213 202 253 656 120 105 95 155 81 57 122 217 37 381 91 467 145 60 186 58 233 37 40 45 43 33 64 196 152
is_linear=0
shrinkage=0.02


Tree=19
num_leaves=45
num_cat=0
split_feature=77 3 3 7 2 49 76 48 3 3 13 66 3 58 77 45 104 20 20 7 8 104 14 110 30 59 76 3 75 53 60 68 7 15 85 69 33 94 30 12 75 75 36 12
split_gain=1.43779e+06 149526 74363.5 16191.1 9098.52 8408.05 8270.77 4010.09 2497.35 2121.56 2072.96 1356.37 1263.22 1072.51 953.62 569.29 550.094 545.173 470.854 397.416 347.628 321.895 313.433 373.622 278.056 274 265.135 240.834 206.239 186.919 147.143 136.028 117.889 111.414 107.595 90.4677 89.6666 61.7201 54.4656 43.2302 27.8493 21.4315 9.48295 4.07282
threshold=-0.28241721307796436 0.36450548334421168 -0.81835539006019242 0.80365513325378701 0.10833325389845762 -1.0327348311871545 -0.53193069863155618 0.42616002960605598 0.62852496589356377 -0.68995108314987685 -0.13061145406597663 -0.27096966853744214 -0.91699798989199166 0.99302621795749479 0.23174263678771903 -0.39017873356674315 1.5285307836398043 -0.55053102048279179 -0.15442916185454422 -0.76132457321511082 0.11931623395098542 -0.18104720324435039 -0.63131733155865499 0.33531776499037907 -0.75240541622958135 0.33105184423075323 -1.0522044911143429 -0.62694343891987314 -0.66518917054394511 -0.96582222975668153 -0.013068474864216634 -0.35026636673469413 1.0556299692601367 0.29309202833291625 1.0654646656126625 0.63300160123419091 0.39360775805852449 0.062375938648486458 0.17377763227660128 -0.17330742965747684 1.2688722712123188 -0.35659677170240056 -0.4203369227061467 -0.68010563527544832
decision_type=2 2 2 2 2 2 2 2 2 2 2 2 2 2 2 2 2 2 2 2 2 2 2 2 2 2 2 2 2 2 2 2 2 2 2 2 2 2 2 2 2 2 2 2
left_child=2 4 5 7 10 26 9 8 18 19 13 22 -7 16 21 24 25 -5 -3 -4 -17 42 30 -24 -12 39 -1 34 31 -16 35 -29 -19 -20 43 -8 -32 -27 -33 -2 -30 -26 -6 -11
right_child=1 3 6 17 14 12 11 -9 -10 27 15 -13 -14 -15 29 20 -18 32 33 -21 -22 -23 23 -25 41 37 -28 28 40 -31 36 38 -34 -35 -36 -37 -38 -39 -40 -41 -42 -43 -44 -45
leaf_value=-0.5134962464222399 0.090074996777860697 0.55835143912392315 -0.29021313772954921 0.74256344422050147 0.24348752067202611 -0.40792630150091508 -0.085956679299589278 0.32495501820045181 0.73809147811766918 -0.17275902421748054 0.1547207527860589 0.11240959283077356 -0.34270528124274185 0.29714866970657206 0.33525493802903567 0.33709318227546164 0.03483638907366611 0.8765965477008264 0.52071777215164694 -0.23032434995456405 0.210334957463018 0.398865695940394 -0.090604562663068669 0.022137750194201038 0.20284577947396495 0.23060880352752375 -0.45255435735772909 -0.16356117743712204 -0.18521258057700873 0.47423217748602237 -0.15075090408325195 -0.058524784023842119 1.0266183344523112 0.68920012389845386 -0.12675250252087911 -0.02345977379197485 -0.076648885238738293 0.16214750406385839 -0.11683787837941596 0.14541148821512859 -0.13553071258264943 0.27105145562144006 0.32827282819591591 -0.20549522040000728
leaf_weight=361 25 81 103 36 15.999999999999998 481 25 14.999999999999998 223 48 21 19 217 21 14.999999999999998 68 18 164 17 148 17 58 19 28 20 19 113 20 69 76 20 17 40 83 15.999999999999998 17 15.999999999999998 34 18 15.999999999999998 21 47 48 146
leaf_count=361 25 81 103 36 16 481 25 15 223 48 21 19 217 21 15 68 18 164 17 148 17 58 19 28 20 19 113 20 69 76 20 17 40 83 16 17 16 34 18 16 21 47 48 146
internal_value=0 0.553049 -0.334073 0.752961 0.298412 -0.433588 -0.178246 0.674321 0.686585 -0.210596 0.227356 -0.0415834 -0.388088 0.165833 0.399185 0.273581 0.139136 0.88749 0.620071 -0.255808 0.314126 0.355013 -0.0656835 -0.0238578 0.231761 0.158477 -0.499789 -0.178082 -0.154916 0.454619 -0.0901851 -0.119576 0.909986 0.665077 -0.193353 -0.0619455 -0.120634 0.190052 -0.090902 0.114422 -0.175093 0.253561 0.310591 -0.19822
internal_weight=0 1178 1922 659 519 1172 750 419 404 606 306 144 698 133 213 173 112 240 181 251 85 122 125 47 88 94 474 355 145 91 78 55 204 100 210 42 36 53 35 41 90 67 64 194
internal_count=3100 1178 1922 659 519 1172 750 419 404 606 306 144 698 133 213 173 112 240 181 251 85 122 125 47 88 94 474 355 145 91 78 55 204 100 210 42 36 53 35 41 90 67 64 194
is_linear=0
shrinkage=0.02


Tree=20
num_leaves=44
num_cat=0
split_feature=76 2 76 7 77 3 3 49 76 114 3 65 77 2 10 76 27 104 2 56 46 62 44 43 100 113 15 68 113 51 3 79 12 45 46 7 59 104 114 114 47 15 95
split_gain=1.37357e+06 141898 74653.3 15930.7 9353.33 8658.38 7947.3 4178.34 2449.83 2042.27 1851.65 1519.84 986.413 786.481 712.389 702.896 668.744 663.624 644.192 437.118 306.472 323.481 295.673 255.355 237.667 235.228 185.947 139.552 138.918 172.084 104.312 81.8935 76.0205 98.0885 73.9464 70.7865 135.244 60.8757 35.7342 33.1815 26.105 11.1332 6.89426
threshold=-0.21371175477766022 0.36686402222603309 -0.79368048168652605 0.79020284260618467 -1.0279792045400715 0.096557724959704327 -0.53988076702460408 0.8870337100913509 0.53742231993154432 -0.53346923788679368 -0.90137797369416084 -0.33562520637824556 -0.66305258959427527 0.19402886641592385 -0.13224834232351085 1.0920016712693912 1.9177209240756317 -0.49485430936194602 -0.012889771645450654 -0.65114287392444381 -0.098650948442535177 -0.43640797360272238 0.23658422658637751 -0.77099629939355208 -0.1876261303365753 0.30438066103742045 0.64654812229193259 -0.17594046600758584 0.35658971186842708 -0.71224584237126576 -1.1050996082967626 0.3830582470151061 0.38017586422518773 -0.44775152690277281 -0.31015247655086114 -0.62064337909244283 0.31784075319181904 -0.090938799492213687 -0.41624756877964902 -0.50592580134500775 -0.37905601292170327 -0.19021863782478951 -0.27126498262674759
decision_type=2 2 2 2 2 2 2 2 2 2 2 2 2 2 2 2 2 2 2 2 2 2 2 2 2 2 2 2 2 2 2 2 2 2 2 2 2 2 2 2 2 2 2
left_child=2 5 4 7 30 9 12 8 17 14 34 16 28 23 22 -5 24 -3 25 -13 21 -15 42 -7 -8 26 41 35 29 -4 -1 40 33 -20 -6 -14 -37 -25 -12 -33 -26 -11 -2
right_child=1 3 6 15 10 13 11 -9 -10 18 38 19 27 20 -16 -17 -18 -19 32 -21 -22 -23 -24 37 31 -27 -28 -29 -30 -31 -32 39 -34 -35 -36 36 -38 -39 -40 -41 -42 -43 -44
leaf_value=-0.50724162633249981 0.14922191689523417 0.48593618490757096 -0.2638701108514791 0.83599815762675012 -0.36394765401834372 0.22677752724176717 -0.022715292072363114 0.34065187646885109 0.7041707087242367 0.21833818781760428 -0.28812265321736885 -0.02038635596100773 -0.18592823259187327 0.32858349178909158 0.02386275179208593 1.0033987273362579 0.043626865652345484 0.63017863163331744 0.24935527306194452 0.10757955334530581 0.29506860527811168 0.45763621039482066 0.092490525512168048 0.31309685887103106 -0.15147779727200847 0.14754715015639119 0.15368492295470418 -0.11155085269142598 -0.16770064904535417 -0.21529601803881376 -0.45938586554426769 -0.098071862210088692 0.24296979248856701 0.33502534353110691 -0.40491317556380318 -0.17399422213088639 -0.11739239765065058 0.39346380025490951 -0.33534750613845693 -0.05182793750227252 -0.10051667628379969 0.29490678209247007 0.20428438723386833
leaf_weight=301 17 46 75 218 130 14.999999999999998 17 19 280 24 71 15.999999999999998 146 21 18 37 15.999999999999998 58 25 29 14.999999999999998 93 20 49 21 26 14.999999999999998 23 27 151 170 26 35 49 419 68 37 34 142 14.999999999999998 20 19 39
leaf_count=301 17 46 75 218 130 15 17 19 280 24 71 16 146 21 18 37 16 58 25 29 15 93 20 49 21 26 15 23 27 151 170 26 35 49 419 68 37 34 142 15 20 19 39
internal_value=0 0.542036 -0.326592 0.736486 -0.419671 0.292321 -0.159219 0.654582 0.669333 0.218108 -0.375209 -0.0354241 -0.196663 0.384984 0.139315 0.863412 -0.0739168 0.570728 0.255668 0.0621699 0.422061 0.436458 0.165918 0.332994 -0.0932716 0.208543 0.233234 -0.16887 -0.226073 -0.23236 -0.490811 -0.107345 0.290054 0.309273 -0.395786 -0.173687 -0.155239 0.349651 -0.320818 -0.0828518 -0.129401 0.257305 0.190188
internal_weight=0 1172 1920 658 1233 514 687 403 384 287 762 160 527 227 94 255 115 104 193 45 129 114 76 98 99 84 58 274 253 226 471 82 109 74 549 251 105 83 213 41 41 43 56
internal_count=3092 1172 1920 658 1233 514 687 403 384 287 762 160 527 227 94 255 115 104 193 45 129 114 76 98 99 84 58 274 253 226 471 82 109 74 549 251 105 83 213 41 41 43 56
is_linear=0
shrinkage=0.02


Tree=21
num_leaves=45
num_cat=0
split_feature=76 2 76 7 3 3 3 48 76 114 66 3 77 76 2 57 76 2 27 68 68 46 62 44 54 48 44 47 23 11 23 58 114 46 62 3 62 6 13 44 68 13 48 75
split_gain=1.31964e+06 136253 71691.8 15303 8990.74 8316.96 7632.89 3818.06 2355.54 1962.97 1594.6 1385.09 947.212 761.328 754.024 684.758 682.934 617.389 526.471 433.397 375.851 291.647 307.969 283.883 243.019 237.805 228.204 182.474 147.429 165.248 128.822 114.776 110.5 103.42 87.0395 72.1205 68.5029 59.7399 128.54 56.6694 40.7785 34.445 29.4331 12.4251
threshold=-0.21371175477766022 0.36686402222603309 -0.79368048168652605 0.79020284260618467 -1.0010607778868865 0.096557724959704327 -0.53988076702460408 0.43626085067000792 0.53742231993154432 -0.53346923788679368 -0.27096966853744214 -0.88238765930703511 -0.66305258959427527 -1.0615646713302112 0.19402886641592385 -0.13224834232351085 1.0920016712693912 -0.012889771645450654 1.9177209240756317 0.7118216655175591 0.19806801860795983 -0.098650948442535177 -0.43640797360272238 0.23658422658637751 -0.7144517142883583 -0.26439890934637433 -0.70345313582963065 1.3910658047116453 -0.061936606636454679 -0.62983663213227725 0.91431385976595581 -0.24258234185237931 -0.46968176749766305 -0.37699563650881623 -0.55207774704437396 0.70667625274947798 -0.35070405343720751 0.057851900435859117 0.27037639063539559 0.38137264224536332 -0.346884502625253 -0.62367355287168746 0.21734719136492761 0.47641059664479618
decision_type=2 2 2 2 2 2 2 2 2 2 2 2 2 2 2 2 2 2 2 2 2 2 2 2 2 2 2 2 2 2 2 2 2 2 2 2 2 2 2 2 2 2 2 2
left_child=2 5 4 7 13 9 12 8 20 15 18 33 25 -1 24 23 -5 26 19 31 -3 22 -16 -2 -7 32 -11 -28 -14 34 -21 39 -4 -6 -30 -10 -26 38 -19 -8 -27 -32 -33 -34
right_child=1 3 6 16 11 14 10 -9 35 17 -12 -13 28 -15 21 -17 -18 37 -20 30 -22 -23 -24 -25 36 40 27 -29 29 -31 41 42 43 -35 -36 -37 -38 -39 -40 -41 -42 -43 -44 -45
leaf_value=-0.49236207234232054 0.18648928586865818 0.52918078430767712 -0.20931570723154291 0.81933932236387264 -0.34956189624248596 0.23552859884319882 -0.04330556728040115 0.30245506214190132 0.64674391216394345 0.14604809383694214 0.10944268212299937 -0.30449758073203581 -0.18191399523876972 -0.43032195777625765 0.32225298505310618 0.023405805242822524 0.98375546854009088 0.32523677756316477 0.039884678848673791 0.015899834278263622 0.7003672340938023 0.28946603666377974 0.44856154826150013 0.090711860269881206 0.29765204046083538 -0.21650843224603261 0.25385513827065448 0.15111347959011417 -0.16780948562665032 -0.096663692337978224 -0.072301840604619791 -0.15544160349327218 -0.16989686644479129 -0.38923119131225109 -0.10095279399352737 0.72483477124252627 0.37918639039340085 0.23750095745515543 0.23431392401979678 -0.1045017618129525 -0.2568053758115928 -0.029100378068520661 -0.098413145783581318 -0.11359160739692707
leaf_weight=364 56 92 53 218 151 19 15.000000000000002 14.999999999999998 137 27 25 163 143 199 21 18 37 54 17 14.999999999999998 15.999999999999998 14.999999999999998 93 20 36 85 42 14.999999999999998 88 28 17.999999999999996 22 17 356 14.999999999999998 143 43 33 22 14.999999999999998 83 18.000000000000004 14.999999999999998 14.999999999999998
leaf_count=364 56 92 53 218 151 19 15 15 137 27 25 163 143 199 21 18 37 54 17 15 16 15 93 20 36 85 42 15 88 28 18 22 17 356 15 143 43 33 22 15 83 18 15 15
internal_value=0 0.531312 -0.320095 0.721856 -0.41131 0.286613 -0.156075 0.641579 0.653999 0.213874 -0.0347508 -0.360539 -0.192771 -0.471103 0.377433 0.136618 0.84626 0.2507 -0.0620585 -0.0770496 0.559652 0.413758 0.427841 0.1627 0.326492 -0.221595 0.204537 0.22956 -0.16553 -0.146528 -0.0319526 -0.110359 -0.187787 -0.378017 -0.15908 0.688634 0.345588 0.284379 0.30184 -0.0763427 -0.237635 -0.0522381 -0.135317 -0.147406
internal_weight=0 1172 1920 658 1233 514 687 403 388 287 160 670 527 563 227 94 255 193 135 118 108 129 114 76 98 253 84 57 274 131 51 67 85 507 103 280 79 109 76 30 168 36 37 32
internal_count=3092 1172 1920 658 1233 514 687 403 388 287 160 670 527 563 227 94 255 193 135 118 108 129 114 76 98 253 84 57 274 131 51 67 85 507 103 280 79 109 76 30 168 36 37 32
is_linear=0
shrinkage=0.02


Tree=22
num_leaves=45
num_cat=0
split_feature=2 2 3 7 2 2 3 49 3 5 3 14 114 5 2 46 2 46 68 68 26 13 46 62 3 43 102 65 10 66 58 113 45 104 104 46 100 97 9 98 100 75 43 114
split_gain=1.26762e+06 121619 75800.1 14694.8 10111.1 9455.59 6694.62 3890.39 2107.59 1697.46 1642.38 1281.87 1261.73 893.149 722.903 677.044 661.221 548.945 439.169 416.088 368.728 344.45 277.503 293.164 264.842 245.535 214.913 192.842 168.582 113.289 112.003 110.912 109.341 88.8155 59.9169 44.7662 43.6565 37.081 29.6791 23.3794 19.6324 18.6266 27.7549 6.52512
threshold=-0.20103730962952712 0.36686402222603309 -0.77946848982123462 0.79020284260618467 -0.45798982804004895 -0.99103534257855175 0.096557724959704327 0.8870337100913509 0.62852496589356377 -0.61144763780451628 -0.88238765930703511 -0.62692807754117097 -0.53346923788679368 -1.0656280873646116 0.19402886641592385 -0.35868575621824056 1.0556525817708089 -0.71991483117845767 1.9784917311032906 -0.34975509900291746 0.52486116248437542 -0.63236062096770163 -0.098650948442535177 -0.43640797360272238 -0.67265938341656406 -0.77099629939355208 -0.9209522818719541 -0.094189022939354758 -0.1147966693283228 -1.0168331313927095 -0.26487462303442227 0.35658971186842708 -0.16394178607540422 -0.49485430936194602 -0.090938799492213687 -0.37699563650881623 -0.48556883908160903 0.13087551789764088 -0.45634137135671266 -0.66813246820850902 0.19335688071333976 -1.3054023666674806 -0.80934450882095943 -0.49291600200459179
decision_type=2 2 2 2 2 2 2 2 2 2 2 2 2 2 2 2 2 2 2 2 2 2 2 2 2 2 2 2 2 2 2 2 2 2 2 2 2 2 2 2 2 2 2 2
left_child=2 6 5 7 9 13 12 8 15 24 35 30 20 -1 25 33 -5 36 28 38 27 29 23 -16 31 -8 -19 -2 40 -21 -6 -4 43 -3 -27 -7 -14 -22 -11 -31 -13 -26 -43 -28
right_child=1 3 4 16 11 10 14 -9 -10 19 -12 18 17 -15 22 -17 -18 26 -20 21 37 -23 -24 -25 41 34 32 -29 -30 39 -32 -33 -34 -35 -36 -37 -38 -39 -40 -41 -42 42 -44 -45
leaf_value=-0.48159571107624033 0.038608571701638755 0.50000131018367822 -0.22019183521896465 0.79630159536520151 -0.029984842656033763 -0.34260750485346086 0.21687899625754054 0.32612104338828962 0.69185713567231832 -0.16738282882806027 -0.29350566084454166 0.14770824302326546 0.19637135457388963 -0.41961836236284311 0.31604444538781401 0.71597531780119872 0.934085257355596 0.18302079044855557 -0.0056454190596787615 -0.13950780314440167 0.14267133634301682 -0.023929927815618212 0.28396984257275543 0.43966682759429349 -0.13109258474928609 0.30092686886768266 0.19732662575585502 0.13644295625012329 0.045316757107718611 -0.098940178232808262 -0.10657918348198844 -0.15679195918383135 0.31962972941605949 0.58999009924114876 0.37881231318945174 -0.37911872283578507 0.12453074798155367 0.21513262020914176 -0.11275953244559374 -0.057108400527920045 0.1015586341166681 -0.13461409986019132 -0.18353101748990786 0.2639768162974111
leaf_weight=369 15.999999999999998 64 176 199 17 151 14.999999999999998 19 212 52 192 19 14.999999999999998 226 21 24 56 20 19 35 14.999999999999998 25 14.999999999999998 93 17 49 15.999999999999998 19 17 24 15.999999999999998 24 36 84 34 324 17 22 14.999999999999998 15.999999999999998 25 19 168 85
leaf_count=369 16 64 176 199 17 151 15 19 212 52 192 19 15 226 21 24 56 20 19 35 15 25 15 93 17 49 16 19 17 24 16 24 36 84 34 324 17 22 15 16 25 19 168 85
internal_value=0 0.530132 -0.308076 0.707536 -0.138268 -0.399953 0.290129 0.628865 0.643094 -0.172441 -0.347058 0.0342657 0.219657 -0.458677 0.37003 0.579974 0.829449 0.247275 0.077422 -0.117547 0.14502 -0.090009 0.405618 0.419395 -0.194815 0.320117 0.263508 0.0940278 0.103292 -0.111339 -0.0692385 -0.213319 0.274011 0.554081 0.336334 -0.368141 0.162662 0.189821 -0.156865 -0.0840475 0.124126 -0.175834 -0.179241 0.255209
internal_weight=0 1146 1946 658 684 1262 488 403 384 571 667 113 261 595 227 172 255 189 80 167 72 100 129 114 404 98 157 35 61 75 33 200 137 148 83 475 32 37 67 40 44 204 187 101
internal_count=3092 1146 1946 658 684 1262 488 403 384 571 667 113 261 595 227 172 255 189 80 167 72 100 129 114 404 98 157 35 61 75 33 200 137 148 83 475 32 37 67 40 44 204 187 101
is_linear=0
shrinkage=0.02


Tree=23
num_leaves=45
num_cat=0
split_feature=76 2 76 7 77 3 3 49 76 3 65 66 77 77 76 98 104 2 27 68 58 104 75 52 48 100 58 75 69 23 68 23 75 5 58 65 52 3 62 69 14 2 68 54
split_gain=1.21818e+06 125638 66111.7 14110.6 8306.5 7670.06 7036.27 3730.46 2176.82 1637.12 1535.44 1473.09 871.765 695.99 673.386 669.962 626.689 572.844 488.515 404.823 343.602 325.016 329.059 268.235 227.248 208.614 160.747 153.52 150.368 138.501 159.029 121.131 113.508 111.453 108.505 82.6556 72.7263 72.0358 63.7176 57.2778 41.7649 38.8128 38.6592 31.1542
threshold=-0.21371175477766022 0.36686402222603309 -0.79368048168652605 0.79020284260618467 -1.0279792045400715 0.096557724959704327 -0.53988076702460408 0.8870337100913509 0.53742231993154432 -0.90137797369416084 -0.069287836576324105 -0.27096966853744214 -0.66305258959427527 0.18149473919998385 1.0920016712693912 -0.095947186061235104 -0.49485430936194602 -0.012889771645450654 1.9177209240756317 0.7118216655175591 0.99302621795749479 -0.66276690835007457 -0.33370397169906929 -0.4398886079580005 -0.26439890934637433 -0.59860551223176051 -0.067755080448768393 -0.47841510483233979 -0.46478200502129829 -0.061936606636454679 -0.20446183922425515 0.91431385976595581 -1.2519195071920481 -1.1143808740774443 -0.24258234185237931 -0.62650741914628083 -0.064182997044186188 -0.95840942589177913 -0.34738504615605958 -0.1819576845615388 0.24627740781672874 -0.60147625135005411 -0.346884502625253 0.67196450605262692
decision_type=2 2 2 2 2 2 2 2 2 2 2 2 2 2 2 2 2 2 2 2 2 2 2 2 2 2 2 2 2 2 2 2 2 2 2 2 2 2 2 2 2 2 2 2
left_child=2 5 4 7 33 10 12 8 16 37 15 18 24 23 -5 20 -3 25 19 34 27 -15 -23 -7 35 -12 36 -2 -27 -14 32 -21 -31 -1 -8 -4 -19 -6 -25 -29 -18 -34 -26 -33
right_child=1 3 6 14 9 13 11 -9 -10 -11 17 -13 29 21 -16 -17 40 26 -20 31 -22 22 -24 38 42 28 -28 39 -30 30 -32 43 41 -35 -36 -37 -38 -39 -40 -41 -42 -43 -44 -45
leaf_value=-0.48223403222307898 0.17421423123433041 0.45624870120969596 -0.19299458078281612 0.78684236251022088 -0.38659925788352378 0.20573071190073516 -0.073333940178929982 0.31986215784092137 0.66318399527134053 -0.30200826162261535 0.24430735711927537 0.10509016667225562 -0.17492940269358798 0.26956888959377628 0.94657497062884954 0.012025385240004174 0.48315077328922768 0.25315787309725613 0.038435493774628376 0.015777581794352468 0.24442648851418797 0.32035930505534943 0.4305048215881852 0.28100973008692953 -0.2080775521462892 0.1161320089875606 0.22704334207159707 0.12515356896798824 0.1927378812119297 -0.097488621298326278 -0.071352793957472224 -0.025815995970873959 -0.17115481053130116 -0.43805993169626023 -0.13062772962782118 -0.12803728759288788 0.33490435625051523 -0.35315059611171579 0.36214007407119597 0.061542112243672183 0.63732200085817281 -0.12628291071971437 -0.24702570949363256 -0.067318594753742217
leaf_weight=248 19.999999999999996 46 66 218 309 14.999999999999998 30 19 280 213 30 25 143 14.999999999999998 37 15.999999999999998 19 33 17 14.999999999999998 14.999999999999998 29 96 34 85 22 47 14.999999999999998 43 21 14.999999999999998 15.999999999999998 67 223 37 19 30 240 38 16.000000000000007 39 28 83 20
leaf_count=248 20 46 66 218 309 15 30 19 280 213 30 25 143 15 37 16 19 33 17 15 15 29 96 34 85 22 47 15 43 21 15 16 67 223 37 19 30 240 38 16 39 28 83 20
internal_value=0 0.510527 -0.307493 0.693499 -0.395087 0.27555 -0.149984 0.616403 0.630339 -0.353184 0.205691 -0.0334924 -0.185217 0.362772 0.81297 0.129987 0.537369 0.235271 -0.0597416 -0.074184 0.157858 0.394253 0.407278 0.308801 -0.21288 0.194639 0.26856 0.128706 0.16878 -0.159071 -0.140682 -0.0305917 -0.14896 -0.462131 -0.106378 -0.17999 0.296047 -0.372541 0.327557 0.0951992 0.59435 -0.159261 -0.228494 -0.05027
internal_weight=0 1172 1920 658 1233 514 687 403 384 762 287 160 527 227 255 82 104 205 135 118 66 140 125 87 253 95 110 51 65 274 131 51 116 471 67 85 63 549 72 31 58 95 168 36
internal_count=3092 1172 1920 658 1233 514 687 403 384 762 287 160 527 227 255 82 104 205 135 118 66 140 125 87 253 95 110 51 65 274 131 51 116 471 67 85 63 549 72 31 58 95 168 36
is_linear=0
shrinkage=0.02


Tree=24
num_leaves=45
num_cat=0
split_feature=3 2 4 3 3 49 2 44 3 65 3 2 10 66 2 2 46 27 58 3 46 2 111 44 54 27 109 68 58 6 27 5 113 46 68 60 58 60 104 66 104 46 22 94
split_gain=1.17008e+06 128278 58061.1 13568 8464.76 6964.22 5095.33 3646.76 2505.74 2105.24 1173.97 975.48 884.271 669.031 664.706 513.1 490.426 472.475 368.486 348.455 258.66 257.292 250.536 223.978 223.715 202.231 193.272 173.239 141.873 175.927 132.615 95.0295 91.0869 81.5426 69.4055 130.821 69.1503 58.8949 56.8768 45.6803 35.3197 25.5669 23.084 22.7837
threshold=-0.33571878700843283 0.36686402222603309 -0.81504732775671174 0.82267487837888609 0.096557724959704327 -1.0359914658681091 -0.57911211422754916 0.43788854470810917 0.62852496589356377 -0.069287836576324105 -0.76756306758547455 -0.92021557502395279 -0.1186357894354813 -0.38715928205860395 0.19402886641592385 -0.012889771645450654 -0.35380852752694064 1.9177209240756317 0.99302621795749479 -0.67265938341656406 -0.098650948442535177 1.0971236168253038 -0.12210201651979559 -0.60912729171431612 -0.7144517142883583 1.0930806366407939 -0.57373361165315717 0.014900664739281939 -0.067755080448768393 0.057851900435859117 -1.2025524116613193 -1.1143808740774443 0.35658971186842708 0.53856694306366248 -0.17594046600758584 -0.65745267692108567 -0.25267694289550535 -0.32425559568447948 -0.090938799492213687 -0.7356563376949089 -0.49485430936194602 0.70432087635315888 0.066158387469037322 -0.66499377518540081
decision_type=2 2 2 2 2 2 2 2 2 2 2 2 2 2 2 2 2 2 2 2 2 2 2 2 2 2 2 2 2 2 2 2 2 2 2 2 2 2 2 2 2 2 2 2
left_child=2 4 5 7 9 31 10 8 16 12 -4 -7 18 17 24 23 40 27 26 32 22 -5 -16 -11 -6 -15 -2 33 29 -17 -25 -1 -12 -8 35 -21 -29 -37 -26 -13 -3 -35 -28 -32
right_child=1 3 6 21 14 11 13 -9 -10 15 19 39 -14 25 20 28 -18 -19 -20 34 -22 -23 -24 30 38 -27 42 36 -30 -31 43 -33 -34 41 -36 37 -38 -39 -40 -41 -42 -43 -44 -45
leaf_value=-0.47262036801917762 0.058298962169459893 0.48349085913148038 -0.26166185717225604 0.78440382700243416 0.22108911090426972 -0.36908283242192225 -0.13971515333679105 0.28100130129464063 0.66789264772108214 0.13906170059300069 -0.20900685440722128 -0.32634592545929769 0.0020321570651246866 0.055314769232051177 0.35596720564724216 0.31133187696158171 0.68968452967130223 0.016263917443118517 0.23978548255147811 -0.10955353925649991 0.27255953559392615 0.93681087214772307 0.44755198817099301 0.15249665615406441 0.29009647071870986 -0.040028783710939549 0.11370978539450124 -0.041314360577930781 0.22257847414854684 0.20126808166503904 0.27722106710393379 -0.42965183698346315 -0.1498804419367544 -0.063281058214959648 -0.11209031424438111 -0.19689207479615531 -0.094406335100941693 -0.16183056082626546 0.36737991603873893 -0.28043824455039801 0.56600027756990445 -0.10961008259744355 0.16129608631134035 0.20347843904289409
leaf_weight=248 15.999999999999998 68 90 192 19 490 44 14.999999999999998 249 31 166 148 21 18 59 49 20 14.999999999999998 14.999999999999998 22 14.999999999999998 32 55 18 46 15.999999999999998 22 25 47 14.999999999999998 18 221 24 15.999999999999998 19 57 21 163 33 75 82 19 31 27
leaf_count=248 16 68 90 192 19 490 44 15 249 31 166 148 21 18 59 49 20 15 15 22 15 32 55 18 46 16 22 25 47 15 18 221 24 16 19 57 21 163 33 75 82 19 31 27
internal_value=0 0.492601 -0.306157 0.679736 0.262599 -0.392215 -0.163587 0.611357 0.622587 0.193666 -0.193872 -0.351633 0.119075 -0.0688799 0.355655 0.231182 0.553316 -0.0881224 0.147852 -0.179869 0.38982 0.809504 0.403103 0.192042 0.307728 0.0100987 0.125118 -0.1008 0.262573 0.288586 0.21579 -0.453173 -0.202282 -0.119356 -0.162924 -0.166466 -0.0670933 -0.171668 0.325939 -0.312035 0.531465 -0.0907654 0.143825 0.237652
